solver_type L2R_L2LOSS_SVC
nr_class 26
label 0 1 8 2 6 15 7 4 9 13 5 16 19 17 12 3 10 23 22 18 14 21 11 20 26 25
nr_feature 128
bias -1
w
-0.04122315415022358 -0.3614929769687927 -0.575954100818677 -0.1478231271781426 -0.4795461240917281 -0.4660608975503013 0.02417291252766416 -0.5875285944452204 -0.3586215823560975 -0.3834319547008884 -0.4386685961697294 -0.4495862542250167 -0.3700105702788413 -0.4778781783547696 -0.4573787457594606 -0.3994195597594568 -0.4269410474157098 -0.4274169020589879 -0.4157724522424053 -0.4340025215916996 -0.4284033498087939 -0.4216096142666325 -0.4253619028786286 -0.4225371276610561 -0.4293003725768393 -0.4266437952728619 
0.05326320787384031 0.255097632320717 -0.1861421948896071 -0.3120704526797714 -0.2947392320334569 -0.161895185042886 -0.2061133991899488 -0.01574775446759897 -0.1479962760421198 -0.1604594023504389 -0.09562930215868808 -0.01191509811844758 -0.1583625892018752 -0.2236016926686638 -0.1555262572913207 -0.1295803562127172 -0.1361186199655089 -0.1407596097957455 -0.1437670486995458 -0.1458126514533726 -0.1340207544448566 -0.1425515191137642 -0.1439340019611292 -0.1408349753324003 -0.1320102615015178 -0.1617716566961198 
-0.3815615458387792 0.2654882769478777 0.05930900531577248 -0.133899018515127 0.139175872433748 0.1415571719170904 0.1692041023211254 0.2656160404070034 0.1923489676457458 0.1994366123940811 0.2143775865263337 0.1315507136992432 0.2473917670514982 0.2269984412290288 0.1772127853744397 0.1833269266608669 0.1491646828661793 0.156281921854778 0.1538369225183913 0.1581211872242566 0.1372787023362256 0.1478028398215113 0.1356266127474995 0.1540092203564461 0.1546181527581168 0.1738314960245556 
-0.08680249775386803 0.9202953914157717 0.898096413889 -0.2023752411894706 0.7589970033732971 0.8849528683944676 1.042656985831487 0.6537103593829232 0.7997732810780571 0.8551515544831487 0.868560969396826 0.8629164849027753 0.7791089151883884 0.7514058019737112 0.8039306379130988 0.7665304105647054 0.8025387094506045 0.8088175024393868 0.8014923985041515 0.8176150978121723 0.8038438314646726 0.8118249070917738 0.8201670902392661 0.8090979798999952 0.8109739179770556 0.7901874529915561 
-1.016408256695906 0.4080514021484332 0.3739000413325241 0.2497174531827551 0.08464892921371341 -0.02481246470513274 0.4357412331764487 0.3440767960745506 0.1261589003389583 0.05558716767851064 0.1447192263801084 0.06782628452186899 0.130277122845523 0.07377336166666094 0.1118273724877852 0.1321045891114268 0.1339519439103145 0.1249319095206776 0.1311853958005961 0.0932328379487654 0.1447130875462259 0.1195730457957305 0.1171066697390461 0.1167424125752722 0.1248425826147269 0.1325085572726848 
-0.5404034299772227 -0.2035284105961361 -0.3590152950310349 -0.4322318997847214 -0.7022227514085617 -0.2974901924426244 -0.05404768826112401 -0.3003269399607169 -0.4314850478774151 -0.498759389608782 -0.4928691397910305 -0.2770940104286804 -0.4274061336688195 -0.3910482935471533 -0.4589325085442422 -0.449090275714176 -0.447493019110869 -0.4460410438689418 -0.4522085045793553 -0.3835739306618886 -0.4586454244393552 -0.4500859386147145 -0.43831067841781 -0.4436428355074166 -0.4466871013387597 -0.4338538323621963 
0.1900200984336822 0.5594027064973005 1.323872093180059 -0.2816975933476529 1.015312539449281 0.9483508448337579 0.768928713357829 1.031591272520226 1.013983266092251 0.9436385970637731 0.885096151988229 0.877021291978188 0.8684045694982803 0.9043425934307799 0.9418535503216722 0.9400629042966492 0.9290514468816289 0.9295069876967853 0.9334385324001671 0.8944344151802219 0.9228756612755359 0.921475696558486 0.925342864890545 0.9270599383787295 0.9228861064094027 0.9558290347952422 
-0.7430595141009796 -0.07978536885598732 -1.041233158672225 -0.6316972465557276 -0.5175956070019901 -0.616067028172676 0.2304223410826216 -0.7003802269502954 -0.4452138697510383 -0.6834694616460012 -0.6928321645765504 -0.7249767510377835 -0.7074591018743653 -0.6287683414577276 -0.602248476138705 -0.6191526243401374 -0.6545651951022194 -0.6586902469497391 -0.6708462468111133 -0.622004687314637 -0.6756888453925736 -0.6579132021565157 -0.6490229716060921 -0.6565442967002827 -0.6559458416072782 -0.6258136555987336 
-0.8582298708254263 -0.2722573923691892 -0.1157541456019531 -0.4696700603363629 -0.5323850454460477 -0.8946643130255005 -0.7142338576247176 -0.4461158643884379 -0.815080249631163 -0.531073963129948 -0.6028335993279332 -0.6421805075225318 -0.7342447343332081 -0.646670965617695 -0.6477462498098375 -0.6670042841193544 -0.6823465581884209 -0.6780767800576714 -0.6827100562851338 -0.6659461747969766 -0.6790261075471049 -0.6810360015200521 -0.6823181182402358 -0.6801491511786241 -0.6815949220987945 -0.6634617587981573 
-0.3737884410057517 0.1429540316269546 0.1497700929187986 0.441003623370966 -0.2003927948795046 0.1910070136875952 0.01390209956129657 -0.2042186922988504 -0.05039252801455067 0.04147770127191033 -0.03144668708159939 0.01854732344277655 -0.006042999419020137 0.06475033766968533 -0.01331834747934093 -0.001932356621575605 0.01671606017975304 0.007684513096538445 0.01750289680051593 -0.01764253437786409 0.0007860637477693578 0.01796697096387862 0.01373977984184929 0.01281173680129536 0.005420728651316492 0.0411261799878271 
0.6750981676625389 -0.1212962821192098 -0.5876266953658644 -1.109615811828353 -0.347565884871493 -0.513976640701547 -0.4309657769873407 -0.1675380739555654 -0.3738938862816515 -0.4863809380086283 -0.3182165797902599 -0.3371860807336236 -0.3314644427092098 -0.3574759269258952 -0.4600504682455525 -0.4531964492802594 -0.3969104272941268 -0.4056490566348894 -0.3991718986689056 -0.3995988672529288 -0.4187883432677036 -0.4064495510115395 -0.409839586841933 -0.4040366483344329 -0.4076917394974847 -0.4256979235422608 
-0.4669797246757534 0.18232872559216 0.3151744468951546 -0.37015641002285 -0.2631493464797289 0.2639521093372457 -0.4821180179396302 -0.03776275819346589 -0.008834035579512362 -0.1307686637832896 -0.1401082299585665 -0.0619442520595388 -0.07984197784270129 -0.1076737443568562 -0.09118603624152827 -0.1026405340713161 -0.1065065805107208 -0.1156392596541265 -0.08705086167599645 -0.1256215765895355 -0.09914008219839006 -0.1119164372968415 -0.1111243177442613 -0.1088296764390847 -0.1068618516555161 -0.121563878100068 
-0.3283185996283285 -0.09607401046060859 0.009715705185361145 0.1904886816622359 0.4879987269660048 -0.1740112199758429 0.7532174904442659 0.4248222095623046 0.1998254978983358 0.1251708052600149 0.1892833035256011 0.1998505335564928 0.1552009066284612 0.1937542276680996 0.2222530726298502 0.178785694557741 0.1966025688380741 0.1896573083199379 0.2002576269043679 0.1525471031280597 0.1892080577425389 0.1933126324506517 0.176948701323541 0.1928155909763788 0.1891435903723292 0.1696044637437195 
-0.7215515543283683 -0.1795187746890104 -0.6811389123239349 0.07792908457338957 -0.6509700591657483 -0.5857833150488683 -0.06884237396752535 -0.7053113204812144 -0.4840917200015668 -0.658886003462881 -0.6130204118887347 -0.6115116220322731 -0.590043146933153 -0.580079011786685 -0.5713264722130358 -0.5910353323766095 -0.5976849598899678 -0.5855815842014853 -0.6085657180669733 -0.5483374842495869 -0.615814437514833 -0.584625210859367 -0.5779980983672465 -0.588349143232474 -0.5947398130216069 -0.5852934792711006 
0.8110725084722078 -0.1134156865622423 0.1512549969140501 -0.2068513291200483 0.225047144227986 -0.06753147068556448 -0.5852665746977003 -0.1997539971475001 -0.005575557052041952 0.06301352997271184 -0.004314424846921783 -0.04270486395105424 0.01279811545695364 0.01062128486685176 0.06285094179698876 0.04932780307591009 0.001571746663551685 0.01587948878601959 0.01444695264359217 0.06956335047349914 0.02336551443400173 0.01427199174128013 0.001151602085477707 0.01898060687655092 0.01725021690123714 0.0357300768530322 
0.1165208560602601 -0.3465531661582294 -0.320875005466786 -0.2997643206245342 -0.2936116576317259 -0.5043943681182448 -0.3276865558870687 -0.6690358393951661 -0.4297185957280727 -0.4759654596193567 -0.5545191232463166 -0.3415151659472043 -0.481787184021301 -0.4584720924441517 -0.4207759946012576 -0.4469373616283877 -0.4271823611595277 -0.4436717007593897 -0.4180512633555791 -0.3888664018719805 -0.4451015235568625 -0.4388507964634418 -0.4245247271310002 -0.4355941102262267 -0.4464484067527789 -0.4305227616212864 
-0.63090838825482 -0.2596330749337632 -0.06627865249270612 0.7121601976567088 -0.242487006874876 -0.2347356671184743 -0.5033539528973472 -0.1514975709104074 -0.2731950456457758 -0.21301517013908 -0.1967011909817399 -0.193215798064738 -0.2075305475847145 -0.1705700779036955 -0.2494144662757346 -0.183296897625702 -0.2134380466399808 -0.2133162749808028 -0.2117466975559555 -0.1906061274124128 -0.2116288479926045 -0.2095246193920359 -0.2083729202000181 -0.2119831682214619 -0.2136892084099759 -0.1731022585960124 
0.5531731301689234 0.8636131225253486 -0.09875981991925598 0.2982850183300064 0.5424474095990787 0.464329323924655 0.06329377587020886 0.4827083646777197 0.6688157129373049 0.4579358537830577 0.5646457800302553 0.5620644546319209 0.6011855668807436 0.5875019461714703 0.6430096846518149 0.5604500007573874 0.5674816781816637 0.5640486513639628 0.5638475925245332 0.5461930833191553 0.5750138441854999 0.5636807716221843 0.5573127140105434 0.5595885107990091 0.5528205520393765 0.5705110576888124 
0.8937608799785581 0.1550409212679264 0.1702241811346091 0.4582228471521658 0.5836371303211948 0.5671547777889427 0.2694961398711894 0.6116585412001984 0.584707616414457 0.6281684356819663 0.5496503277477898 0.6900393569791814 0.5490057011645669 0.5338491841887593 0.5430939659339563 0.5633772748532715 0.6035679174116348 0.596484370036249 0.6094157148286418 0.5669042561499694 0.5860403477762662 0.5999497582830062 0.5954031832218886 0.5945537242159541 0.5973359561959106 0.6092558212573109 
-0.4845418856802215 0.1499083807355787 0.6604636675377347 0.5790183088689757 0.6131471399465791 0.5237834127980084 0.7605192052499409 0.4365058842309081 0.5371849334607982 0.5466474876417871 0.5454272930957507 0.5614001538709351 0.5931369808636019 0.5487194466370191 0.5084181120860231 0.5418416057415967 0.5437952265347132 0.5439997084417313 0.5437648390946603 0.579540178765779 0.5438361735864053 0.5423423564207496 0.545936079667392 0.544388749050135 0.5439714412591424 0.5159271545328541 
-0.8136741122610289 1.083018699417279 0.8956626286914259 0.5472674108669047 0.8858052431303763 0.9008224604422385 0.655450756094466 0.8256380621567327 0.9001344657666419 0.8643086424803208 0.9014260193516261 0.8742892682745649 0.9146305570752409 0.9157530418832385 0.8762799120680234 0.8622733134664677 0.8625764803323718 0.8635373163075678 0.8513023966175761 0.7977282389146253 0.868453873506374 0.8607056323419212 0.8532850660215436 0.8600808426838181 0.8592906146084494 0.852380506211481 
0.1532176701119767 0.05727409266859199 0.6657641522539016 0.978403160250587 0.6355406645486101 0.6675315101766314 0.8044242298157859 -0.1966099593959961 0.6238384566523767 0.6690066497008136 0.6197958328204135 0.6333601785931802 0.5667088840079242 0.6122722250716492 0.5943928173801208 0.6255549185905442 0.6235333265140248 0.6144673161714723 0.6004385112682226 0.6344602785723478 0.6329682929670375 0.6162314085520431 0.6094880159205127 0.6203675438188098 0.6203233197989108 0.6347370932176609 
-0.7731546459749472 0.3662499527061901 0.6863294518867903 0.5011339240738047 0.1126020580066322 0.0974436108102183 0.04628070987319891 0.1367399326693419 0.289995508447733 0.2274794675456528 0.1405028486312744 0.1916027602615301 0.258656762463178 0.2441619333135053 0.1891830021807419 0.2185847478751104 0.2100049014735321 0.2079346393801322 0.2166277055816979 0.2509044694829126 0.1937693299472927 0.2097763507897372 0.2000745477295524 0.2130231815380502 0.2099717175148159 0.2159099362262234 
-0.6384768264800721 0.2366451928498458 0.03084284836714707 0.09099466466670185 0.05080470656058019 -0.006971156388101776 0.2734226840096334 0.03447326941282453 -0.02312410476450965 8.691352292651922e-05 0.1199420857089211 -0.05499435464458956 0.03508149699639859 -0.06541995126460312 -0.008306146206007801 -0.02053290841936933 -0.004747227383111645 0.003419723903074375 -0.001729782087745655 0.005945653113363677 0.01001694395033197 0.003124021576044332 -0.004052735893612692 0.00110365646274305 0.004680517120784528 0.003497909030110754 
0.02917085559989822 0.2465069654318091 0.610500683257159 -0.07551605109827257 0.3296716529051584 0.06089865233194614 -0.05447095420635265 0.307096757304868 0.2914712129843516 0.2467798212087923 0.2338786687522464 0.2503197058444635 0.2089365066085837 0.270853377444798 0.2892950528973151 0.2662753284297307 0.24203724431702 0.2447124782342988 0.2379532396413195 0.2313844678489726 0.2619394723797536 0.2506464907715524 0.2541338633388632 0.2459014353999296 0.2493478518585166 0.2544110331495182 
-0.01024336557505439 -0.1544327063485632 -0.08609562454182393 -0.5851545701413359 -0.4274372414677617 -0.01988130381773113 -0.4761324248760043 -0.4270675036915674 -0.5853195801463823 -0.4345960248976151 -0.4134247910906735 -0.4513786530751445 -0.4043958006673958 -0.3792023949910902 -0.3504625760731422 -0.3743015770110399 -0.3864006322542374 -0.3997992380815828 -0.4122951840961963 -0.4051642704709382 -0.401978786468207 -0.3995397406298407 -0.4041729676684479 -0.3931433040311731 -0.3965140312085111 -0.3833627062854938 
0.3434337207335087 0.1724149634856005 0.09405515193128725 -0.2570553816046597 -0.1112526293962804 0.2027986715929854 -0.7833801583713661 0.2083356126440144 0.1877703024434384 -0.0008764916979918671 0.07912694214739695 -0.08920811792422882 0.02323631356401021 -0.006956625406168783 0.06915575514539986 -0.03667530973778033 0.007921617068747977 0.009651181064276116 0.006487385040470954 0.04235995894765777 -0.01228695217125163 0.009367692373722585 0.02077779037922322 0.004533494899655334 0.01099237487574788 0.004010657392401376 
0.1193574704490319 -0.1769307862616012 0.1363281940535219 0.1485278417183668 -0.07963907135990218 -0.1768942126412508 0.01017888050963895 -0.4095119774051871 -0.1736342481596762 -0.07113227418491189 0.0078867787661155 -0.1101724824014871 -0.136778008300997 -0.05655150632781452 -0.1354275540664587 -0.05144084246855814 -0.08353631349863014 -0.08154781461782633 -0.09069952553062417 -0.07297053713760659 -0.07606583361570442 -0.0894536732705066 -0.08322268827208043 -0.08007345988868407 -0.08337373844346939 -0.1080257514563685 
-0.002919718334398507 0.2193480903028199 0.8812212818540061 0.3105029216960088 0.7797684636199551 0.5692959747449097 0.2881599254877321 0.7764059989325559 0.5643604027471687 0.6603954486861271 0.647204476906322 0.6638541152640334 0.6971661269275695 0.7559184167677617 0.7546996321162714 0.6611456201505659 0.6579583558366069 0.6608365645564782 0.6789407310966414 0.6610611728826994 0.6537107714870499 0.6587263507176876 0.6495266155487872 0.6602772698646505 0.6604761198603519 0.6853590159413865 
-0.2283928526551185 0.5812108982719215 0.2679537875385609 0.5829064862248269 0.5277219573012615 0.4268047490613188 0.1457025440815037 0.4226430216922038 0.2842276244709753 0.4891988028084765 0.418454244485595 0.5379575748409224 0.4617633824897988 0.4057022605593679 0.3956293716985256 0.4026521363374064 0.4231450334746207 0.4293051960373753 0.4214911945102101 0.3432210296044217 0.4400317800596434 0.4304991938890304 0.4266027420569894 0.4302113250857227 0.4269263044158221 0.4455165297786901 
-0.2632426898100813 -0.06802220694917166 0.2438998037392821 -0.06751546005364555 -0.1230721540690353 0.4361082153252718 -0.01688033022602861 0.1926329277144962 -0.07445717230440914 0.029731559583541 -0.04566501034584682 -0.05843013803294966 -0.008209837009844968 -0.03757161109123651 0.06981162974844614 0.02303129943032822 0.01373290758347561 0.0158783634757491 0.0320798617480921 0.003960479096145728 0.03086737407007884 0.02027718944749513 0.01054739886036547 0.01645005226960483 0.01219652743150929 -0.003717678290822022 
-0.245589280025713 -0.04681533413597679 -0.491202861115601 -0.4882177864893474 -0.1144642989339572 -0.255702108189447 -0.1441555696246605 -0.362172554301178 -0.1856213741449623 -0.3000685241333717 -0.2931179330604323 -0.3067769835057017 -0.3575552276240409 -0.2532013499916642 -0.353184390239234 -0.3053520625274515 -0.3134514265420917 -0.3210265544363908 -0.3118539862674335 -0.2954015167541125 -0.3358908341788646 -0.3248378283790984 -0.3310679588169351 -0.3256554411008588 -0.321104626466906 -0.33703302755607 
-0.125718073870401 -0.7095239962824158 -0.05390847781734475 -0.5234644056431842 -0.3282272498261211 -0.09479895075067131 0.1904404818213641 0.2123784387408567 -0.3315102811912329 -0.2826346291482602 -0.259058065436909 -0.2230214519761254 -0.2190179582676711 -0.1911844371947476 -0.2681445378167823 -0.2065555889723876 -0.2459274540316401 -0.2440985146818223 -0.2569628404046828 -0.2615131208571698 -0.2498804295689498 -0.2467341453350736 -0.2492695393252852 -0.2544618511133756 -0.2428887570266712 -0.2830409546402616 
-0.5036321603841838 0.2039169588295803 -0.2922073561937127 0.0952736925455282 -0.2185703246210393 -0.09382959532454721 -0.4190447038108407 0.06478926203429773 -0.2490638015957578 -0.2547206317958098 -0.1298180332883872 -0.1052269720690656 -0.243128130782587 -0.1250203629444774 -0.1323998661058129 -0.2211093425191968 -0.1936704707746957 -0.188798829992695 -0.193777967861117 -0.2191160184612762 -0.1793391548850107 -0.1873943312566511 -0.190454966745833 -0.1897506928439605 -0.1892966669879014 -0.1926159795416749 
0.5708073788689423 -0.8978477025202436 -0.04027670662304123 0.1958695606899368 0.07191984276773841 0.00600212507598134 0.3677922961378269 -0.09726724299565316 0.01277047937431681 0.0724695661226728 -0.001611972593717183 0.08680050213880613 0.08622882861086954 0.08294141454909124 0.0235741131064698 0.05140493747892891 0.03686587214167732 0.04107435049583879 0.04810878102259467 0.036289839795952 0.01753332992473229 0.04114356792851324 0.04316669055603582 0.04341568948664181 0.03539909441118964 0.05283093864274768 
-0.4985896356011458 -0.331601643767836 -0.4887645697173459 0.1111543377845809 -0.2168837348006744 -0.2394569955638019 0.1693364401611139 -0.01807391796815429 -0.3340452711290721 -0.287041728376939 -0.2837731536563111 -0.2901473964294955 -0.3041738305681754 -0.2604420329280991 -0.2330798665150128 -0.2704434535434073 -0.2658416735363892 -0.2683970920735456 -0.2865121814430507 -0.2752969186470043 -0.2598813796892753 -0.2709603870361706 -0.2595520108344474 -0.2700969141630953 -0.266437141581904 -0.2572150523741316 
0.2081555805580087 0.1165609019001568 -0.03148512805997247 0.418017491153455 0.2672235258453139 0.25481285206801 0.2146999165327772 0.35435557369863 0.405487933855871 0.370921269513607 0.3727889087494185 0.2046112886323822 0.4167144930507233 0.2766022620866274 0.3544341114507805 0.3493952301936444 0.3301534203821153 0.3283177670207718 0.3330606798148906 0.3967123812217737 0.3446081289178853 0.3285100098835197 0.3453637966242019 0.328877734132988 0.3330719854399974 0.322408887148225 
-0.2316757340502682 -0.4402772745168599 -0.1953474268363178 0.2515730603285368 -0.09334956605204774 -0.2048871738020296 0.0854548510885323 -0.3043530335451174 -0.1352942102582179 -0.234645700654302 -0.1243568473656346 -0.1123420540211186 -0.170005027003846 -0.2602528624803391 -0.2773970691953901 -0.1425376437978496 -0.180438832761691 -0.1843381364677921 -0.1583999742651115 -0.163139280572562 -0.1832551262100914 -0.182724425181848 -0.1889734473860468 -0.1826735189751347 -0.1827353333139964 -0.1668548065286162 
-0.3332834454956458 0.3853390564467753 0.4084175745124216 0.3225420112251249 0.17920694112163 0.3905578428561841 0.3651462102382039 0.6466389685652109 0.401794111516462 0.408909959752575 0.3905627904758247 0.2801521586134624 0.35189662437637 0.3862126749740664 0.4165166106543781 0.3894546032854961 0.3840101087614315 0.3819672465842346 0.3785195102930783 0.4006991882008311 0.3858339015021939 0.3872522527502466 0.3775607491652548 0.3849926481446521 0.3844048946716707 0.3459496687988137 
0.4343716602377333 -0.04260470554540358 0.5865914641890065 -0.2386530676040752 0.6099847461857607 0.3020806196583393 0.8971287964068071 0.3068021488895171 0.4062713456292533 0.3659779669828208 0.3965857381207173 0.4262049356153953 0.4355393283397983 0.4474768328728708 0.3611378203344843 0.4682787071591719 0.4438906017472252 0.4394318192636481 0.4280309650791635 0.4422393560773674 0.4231254143277269 0.4428116654295057 0.4323132400988101 0.4372005263714889 0.4350485998184084 0.443814125782984 
0.8893377626728874 0.05472894052249749 0.159732893841834 -0.5041433543671027 0.3045087998603079 0.02666870600420342 0.06791734986058738 -0.1355161482670367 0.1376382040757269 0.1145171340245381 0.1383659803544743 0.09671186840835903 0.1132232445727631 0.150938645929898 0.124449378914304 0.1163999227062073 0.1227605103692301 0.126624302596816 0.1206499060005909 0.07392172677491327 0.1205488279436549 0.1291546440127309 0.1219240558707879 0.1255633160508984 0.1323748114820147 0.14972994680018 
-0.7358271542377978 0.3472377715894124 0.1763371157619274 -0.120602154055917 0.2775800395622571 0.3073498731428624 0.7198015521530725 0.2558021585667875 0.2116155174956793 0.2436939471098856 0.2192493864611781 0.2987897204387281 0.188246037696175 0.2348163874378082 0.2190239566540019 0.1736949139225658 0.216602299554027 0.2150716930968703 0.223773730900472 0.2323676636521018 0.2162400099574078 0.2180685856182347 0.2103343391947795 0.2143002146834845 0.2180242090002808 0.1985235839767802 
0.2375056842179925 -0.312332860088003 0.7758621283054721 0.262271311409643 0.4322291982964467 0.2494642586920543 -0.1884872533863472 0.1863627403110278 0.1742028730427441 0.2020239547319442 0.2440993939387953 0.2024333045642094 0.1528632181416463 0.2641489235638043 0.268352828077691 0.2574446325811367 0.238634479706603 0.2368397544363825 0.2287339033205361 0.2447055907808675 0.2180233354318491 0.2454388113546905 0.2405367179777408 0.2399257464021088 0.2418934262956713 0.2519054979693277 
0.1752373499084627 -0.02428259906185934 0.1960822883671559 0.5749843912525696 0.1436377118281452 0.2638819006562738 0.3084416588357581 0.04391159878978218 0.2250765219076335 0.2386454851335527 0.1607557641505707 0.2271977099840053 0.2703147752326948 0.2998732422796573 0.3078960848411249 0.2383696267989575 0.2635058741650824 0.2626144999848132 0.2606827121051797 0.298574736573878 0.2694204846047469 0.2598806944061246 0.252143501471261 0.2617780381470747 0.2589781435897305 0.2302722007455792 
0.06856678252762227 0.2069855266099634 0.5622447381396785 -0.02650790136767877 0.5831200410500302 0.3248020828765955 0.4031278166928 0.313366662888314 0.2558561412275325 0.3280105560271327 0.382091401050751 0.3826743772261301 0.289220522828771 0.4408142541606634 0.3713358387251111 0.3797380214829813 0.3717729200213679 0.3695937865909784 0.3774468280929881 0.3494497978294869 0.3382027145124039 0.3846476154231586 0.3680508948504487 0.3715274673729689 0.3782098533297774 0.3717961505622525 
0.2198934348110836 0.1493308222277192 -0.02269142881657889 0.5764349248360879 0.02020503525749553 0.372974410563101 0.0989280516700531 0.253537904129502 0.3026900926027608 0.3145665558879814 0.2211744502880095 0.3045397987907865 0.3011986495822291 0.2812068662539248 0.3031601923338247 0.2768218885694553 0.2792136144903637 0.2871531237853285 0.2795571953447537 0.2924139516950144 0.2980671355221463 0.2865901878580993 0.2889795031120201 0.2841061416372312 0.2826404520460677 0.2669041386852985 
-0.2079028664400131 -0.2682818574298348 0.05964761915637116 0.598107675325123 0.3826672048878257 0.1642286334123553 0.3940881089660781 0.3729581497792442 0.2593885968428211 0.3618249051012219 0.2541595964887667 0.4354892395367587 0.3228913809658127 0.2154737518570626 0.2521856066299657 0.2993398558756288 0.2804121655031543 0.2744857314036839 0.2754648001946578 0.2910041392067041 0.2765102248200075 0.2730696393007421 0.2817359105111794 0.2784041341926995 0.2769217555051732 0.2797901866507748 
0.4860566346772403 0.4348271645960954 -0.1982577119256712 -0.1576429847129687 -0.07378984038145159 0.1503869293216334 0.1092330864858036 0.400144810593099 0.1677690900873421 0.2718912786519707 0.2406179424283639 0.3096086446798054 0.1567582736498725 0.2646172587984231 0.1594352661603538 0.185075519468187 0.2176148158367725 0.2121448784441267 0.1991130166666542 0.2066006045688526 0.201516290491918 0.2075718306424594 0.2015837307658429 0.2097678390704823 0.2124489164234688 0.1941969453933327 
0.3734207501163175 -0.8746136466937618 -0.5165292478169654 0.06436455289579135 -0.03511351540693115 -0.1853143217113227 0.3096035407185165 -0.3897301156981363 -0.06285671321164658 -0.1774433292774731 -0.1590638971266298 -0.1240035933979755 -0.1749303487737562 -0.2364274598505315 -0.2538846489825929 -0.2056735386264769 -0.1932505837370417 -0.197761400503395 -0.2004530734950906 -0.2287761756523795 -0.199748474805215 -0.1937776675881652 -0.1882707175184385 -0.1942193014008123 -0.1974525622123542 -0.1878861714689352 
-0.4159248531446522 0.5432281056209922 -0.2306860852018831 0.08399941770912703 0.3245454378164496 0.1387951639827051 0.9125654041818381 0.2301292657222636 0.2320191553615409 0.1646833956165168 0.2516465545230247 0.1777378837347187 0.1303635812333719 0.2886481820138445 0.2292810499314697 0.1979334971596582 0.2285033598095845 0.2285288418812383 0.2293720898928145 0.2208251146540277 0.221408597197299 0.2352113586373035 0.2324422887365656 0.2299924177131063 0.2345010802415228 0.2592743752298456 
0.1407120254539331 0.4669136086655091 -0.1899276475066132 0.3392860634172184 0.5785411332608792 0.717810574257904 0.8086843352870323 0.7229611121723241 0.640404303363008 0.5636575155217581 0.6186492397054264 0.6422192038646216 0.6023993611052031 0.6078905279996222 0.6019156705844755 0.6260712576461019 0.6043086788480838 0.6100759680533607 0.6029200831653532 0.551816574962144 0.6056209767676423 0.6028981656992547 0.5961782807620785 0.6049812399958242 0.6068675397639373 0.6221385481891876 
-0.03632127905596306 -0.4134058311577995 0.3550366002063664 -0.6979058743625701 -0.1900971412738268 -0.3805126278334477 -0.07443263583793043 0.1156769575739968 -0.09014911206092945 -0.1058408962452315 -0.1392932461699491 -0.2684912732255455 -0.2245105089379437 -0.2401639408298618 -0.2174153326073748 -0.2335017216033626 -0.1977134277763596 -0.2041217156306782 -0.209573701145375 -0.2376359138479648 -0.203836250674552 -0.2055419254023302 -0.2024227738837342 -0.2048528389337 -0.204163162447455 -0.2094074104218908 
-0.5299799878129783 -0.4447934647730104 -0.210429806937414 -0.1960394981648371 -0.1385471675226472 -0.1848883665603353 0.6765461177177022 -0.2379479472818491 -0.2489902777268076 -0.1750192289129627 -0.2392659815246213 -0.3298191456441109 -0.1238792305508123 -0.1675419722468488 -0.2108677760825592 -0.2132483964320825 -0.2201405728567127 -0.2152308805171076 -0.2257381405839485 -0.2251068658329835 -0.2171318659681156 -0.2183807671688243 -0.2242219522429158 -0.2223908006592062 -0.2112822447510152 -0.2301380578991893 
0.377339762684161 0.782153377449513 -0.2328375892127738 0.1924200357300565 0.5643058494931695 0.5869436098137859 0.1671942920498992 0.6451173773130954 0.6399271112387062 0.4635816906255087 0.5049159640720292 0.4600955080901373 0.5569721509432652 0.5327794300948605 0.5491791159825329 0.5379976178064799 0.5152280900090359 0.5227558985577232 0.5084096122002409 0.5330713128771576 0.521413512484259 0.5241305497659809 0.5264430661910072 0.5240057236268286 0.5256629738970159 0.5295911970088528 
-0.04800377210825764 0.1077432965117389 -0.09518723837532268 0.1823577991794593 -0.006778296306981365 -0.007382474187552471 0.05013155584518274 -0.03520714086140805 -0.05198886521231094 0.006983138530143046 -0.02539422109208444 0.005500978273113001 0.05290065877318688 0.02783801225809346 0.04898692569153301 0.001704465532138226 0.01430944237022054 0.001961646102678521 0.01248466179145122 0.02993472495136771 0.02072162653447271 0.02031658900087607 0.01627801775641014 0.01525794702866779 0.010856666148787 0.02276548979010059 
0.3474023915663467 -0.1204688101535319 0.1108747593010144 0.5366086533693561 0.1882299172078821 0.1156412495804602 0.0002321596842130404 -0.313955537780942 0.2837032381857587 0.1811644901042975 0.1633858851231684 0.1763024088502016 0.1588130226316802 0.1717689744470204 0.202221545898663 0.1825840332848847 0.1794198554409397 0.1784783727075095 0.171492649013419 0.2299557391889276 0.1871069644431923 0.1744742727333466 0.1675950140800638 0.1753857864882339 0.173967012156691 0.2005912500082009 
1.024602222679961 0.2217567412971938 0.04274309512498344 0.06243025108755546 0.07862754855904801 -0.2252599947127724 -0.2422364954345383 0.3124054285922949 0.2701373827863448 0.1255769326290177 0.2818286084257394 0.2903525768489413 0.2669061927153729 0.1700524299992371 0.2429286496143042 0.2465508202481041 0.2144111173276018 0.2162683860262604 0.2098827944021646 0.1439592553216349 0.2103296402691555 0.2156364727243389 0.2143551304750867 0.2195314519119767 0.2236557343962429 0.2044353155025726 
-0.1820923265046148 0.5725167445199608 -0.2357825709490267 -0.4146674059678953 0.08834435951865238 0.004218682810519085 0.1628337806585872 0.1794181713028864 0.06887638832841038 0.1400313655686246 0.004394003070620415 -0.07838130958954743 0.0895801233244251 0.02491444296514205 0.03929806254798912 0.04413023343349017 0.0275851151267589 0.03535424458406958 0.03653918364725772 0.03779055343897983 0.02655898564220781 0.03401523882748503 0.02224550976159734 0.03583804887142852 0.03756090596395299 0.04585655080904193 
-0.2029728216576617 0.08525178243306099 0.2762146092754469 -0.4803837557029161 -0.4477973855624062 -0.3130063855477321 -0.8697085645292321 -0.3208510287912937 -0.3600558807820801 -0.2922047206378641 -0.2507148849812639 -0.259462780537178 -0.3253303133278863 -0.3019099790273562 -0.2842389059379304 -0.2965629379036183 -0.3355247360871551 -0.3359850820395415 -0.3391455554654682 -0.3468203982831596 -0.3531824942389415 -0.339325733272035 -0.3467524576083994 -0.3296429123574287 -0.3309013518565406 -0.3445021442827857 
-0.4644584442161682 0.3399847439108478 0.8270507787325482 0.8991851956867987 0.4648222736822822 0.6074367072887834 0.4955942128321063 0.484619749410016 0.4587880444866957 0.5132312639693771 0.5949488502478937 0.5286913754074019 0.5653565252375556 0.6604570308844521 0.5810212561352459 0.6247690830507731 0.581923474649813 0.5880006215215573 0.5739970092806282 0.6162903379748886 0.5801948028365587 0.5850528295675044 0.5894086949645743 0.5851795276461812 0.5845305072226381 0.5694274730592476 
-0.0713285381697219 -0.2868803156742623 -0.2941528856850022 -0.3960559271721936 -0.6330042471226728 -0.7277552661127461 -0.3489840976169222 -0.6633813408161215 -0.3662012344960267 -0.5318182418525625 -0.5079750910553399 -0.4762007685432167 -0.5022034878350379 -0.5238596026840651 -0.5259125293209501 -0.5176360468307094 -0.5310378846909324 -0.5281972227658732 -0.5269915057443212 -0.5793002867365709 -0.5372345924417076 -0.5300566211895081 -0.5174936268856821 -0.5303959507571638 -0.5312051515976213 -0.5377014354852837 
0.5893564843301698 -0.02100043809244051 0.6769230512733463 0.4143614902535503 0.6011977838741382 0.7919228817762756 0.9096162743610064 0.8516179713319286 0.8100029951108041 0.6594286890959733 0.71514929538383 0.4308418404531975 0.7924063722362662 0.6103146550960824 0.6816839189969355 0.7357679629728062 0.7313171694456672 0.729534038227944 0.7352977808894507 0.7156055319870069 0.7173553769451665 0.7264137779454656 0.7140339333031039 0.7261922726996699 0.7311661381053295 0.7333123280392913 
-0.2046956632991227 0.7544520228938444 0.5734475973855725 0.6157521582623582 0.4391828178980243 0.7768878078638881 0.7252986597025959 0.7571201864640967 0.659959963263593 0.8395188088538872 0.7510964719633177 0.7530682024035671 0.7914092784370831 0.7951324974951383 0.7809708612821484 0.7538500315531097 0.7570176223610854 0.7518874760895352 0.7518787842613335 0.7432306793869503 0.7706531287358749 0.7553767224492201 0.7598602866857952 0.7548399185364171 0.7557323202288942 0.7458242260628591 
0.3171965916722908 0.6869027322742041 0.8550588523893576 0.9762396455407882 0.9850812282469351 1.137659110556613 0.2404142414542797 0.8337723187946635 1.0842685181834 1.03796846822816 0.9704337612185379 1.01187074237874 1.00100808477718 0.9930489436748889 1.033515277794561 1.05249667919136 1.020890843835914 1.020882939980952 1.004503836766181 1.037985982120181 1.039120810330072 1.016682934371504 1.014409486862414 1.021064307869685 1.024169007991005 1.034353566773391 
0.1237828028273056 -0.5885794948165564 0.1971011835323925 0.07212963669835253 -0.1683523020747196 0.03902438411760142 0.1635681629398541 -0.1791923261480468 -0.04268149465071924 -0.02760287870699889 -0.02220565371972697 -0.06733991355668384 -0.1051148208205586 -0.1110554203517238 -0.1253549377793925 -0.03140722763558028 -0.06181454642295497 -0.06906563095828208 -0.07636157251862474 -0.05291157051182942 -0.06711820851298043 -0.06291931738503274 -0.0457207163630891 -0.06433161187973249 -0.06406953496687008 -0.06032254155612148 
-0.427277685920495 -0.1018495026234607 -0.2749851071178236 -0.07700867773252798 -0.2583594383721175 -0.3613678792047786 -0.611367661679494 -0.2329007791307877 -0.3410687051367032 -0.3485176644336893 -0.3690662770841419 -0.3370911411383488 -0.3808943986749681 -0.3446250428678565 -0.4561454329378519 -0.3405559489729613 -0.3801274933453519 -0.3760284231203138 -0.3637203488458735 -0.3750315842376524 -0.3682806071892464 -0.372886486825888 -0.3640663562120858 -0.3688122349555152 -0.3718860047202706 -0.3524399348180689 
-0.03508017573633269 -0.002462627271124682 -0.03954304707363124 0.165086091426149 0.4328106236799308 0.3694188344529563 0.6362268313178847 0.4146440168570975 0.286238662107172 0.2998621413684091 0.3311209437221174 0.3874330855366959 0.3969950294146004 0.3885335739890584 0.3145912405587098 0.3489804779257403 0.3351540130110647 0.3318433970443448 0.3550780951446559 0.3470309025156784 0.3367810691638922 0.3359774117921124 0.32100708176968 0.3353360361704756 0.3380188793626195 0.3322767881723262 
-0.1390879735335633 -0.8682061361352325 0.04074438906650996 -0.2573812323157644 -0.227142492433233 -0.3808722806763852 -0.1869845920450692 -0.02964954277959732 -0.2027809725858372 -0.3110766414688395 -0.2649114262167094 -0.2908345964634906 -0.4022565902899645 -0.3500246996057658 -0.4342064644264689 -0.3212803991381741 -0.3278679200667795 -0.3244250167396715 -0.326594726693178 -0.3081759336567744 -0.3344663692249136 -0.3230425151703428 -0.3161073310005774 -0.326019367091211 -0.3286700412115798 -0.2965626506336409 
-0.3431930700530156 0.1137639172931823 0.1809664859911139 0.2309378207280472 -0.3022081540374469 -0.03028324319958015 -0.193792403130441 0.02819826296460545 -0.111662232936504 -0.01944716624931395 -0.04744385486527401 -0.1256595745851929 -0.09008587349263565 -0.05018462676810287 -0.02168374957680137 -0.04993659011018946 -0.05989758504354107 -0.06225766569334625 -0.04183175033123912 -0.05097490331172742 -0.05582342181066667 -0.05733792642266204 -0.06056936761270073 -0.05964997733309314 -0.06674672306559212 -0.07381378396123625 
0.04489065111962808 -0.06182018183383509 0.6227259189481373 0.6880793524518195 0.7519270509591089 0.7010536766111204 0.9218914999462541 0.540032962017288 0.6489412961190867 0.6092929729284928 0.6396534485455402 0.6368902514868697 0.6903873998202642 0.6761855593867142 0.6093557665771034 0.6669945555306794 0.6759619126985037 0.6674723620492147 0.667505710754757 0.6683977927576582 0.6809312661588827 0.6721121835134529 0.6662606916945792 0.669651788713337 0.672624053428956 0.6734191089592022 
0.2979104779820728 0.2567848874872215 0.7101888925411038 0.09890324905402703 0.5302895500267071 0.2780612626081495 0.857607719450045 0.4707115586914315 0.4301824366242072 0.5277350367768866 0.4918643350559936 0.3993832788252418 0.56087970018097 0.5172236868778812 0.4965732216557191 0.5197383433911174 0.53007135133699 0.5346258673425339 0.538232274102327 0.4937487933175227 0.5655594498789499 0.5438916419787195 0.5374727080868502 0.5318735425239335 0.5330222156041353 0.5500072437013074 
0.6927518756532576 -0.07099293925927511 0.3228349693496383 -0.8406483317331839 -0.1121111293029313 0.1123994157862349 -0.2313039193445952 -0.165424393943406 0.02954014076821865 0.0772221106721861 0.04405153675738281 0.1135270478413993 0.1316812246051435 0.08202144720296554 0.06104996280280724 0.02558319420122564 0.02073783319288125 0.02490034010693095 0.03370221967345583 0.03900459646930744 0.04196383178872012 0.02055818084149428 0.02670718567764675 0.02272230494475433 0.02483661195038861 0.06295776503202674 
0.1628737348324102 -0.1273699053173623 -0.5204942398583858 -0.4909154233185661 -0.3851726112654782 -0.1961527575032363 -0.6770659540630071 -0.3614389542674658 -0.5739937271773431 -0.4655915485579578 -0.403797447539493 -0.4764741819494779 -0.438570656466253 -0.4704305385912886 -0.5200959014746321 -0.4860803487346368 -0.4571601932576205 -0.4620223280457036 -0.4397706296402812 -0.4881986286733285 -0.438209836790151 -0.4530772997110942 -0.4653126136370892 -0.4595521505630201 -0.4590694621604883 -0.4631555894420028 
-0.2306385225795607 0.2267805398052495 -0.1894264612239091 -0.3550585187263073 0.0004461514202698048 -0.0812089595898844 0.08686349789531213 -0.007726359935062335 -0.0009322525660903601 -0.1217640719918938 -0.1227938579980978 -0.1085321110226038 -0.1134638135778193 -0.03903487249035965 -0.1250140361805707 -0.09298181622829758 -0.09187762361235974 -0.09018758605425323 -0.09601326934489104 -0.08993976070263955 -0.09498956375976901 -0.09454499889739275 -0.09344270430133005 -0.09755885464224036 -0.09113697733388472 -0.1343658728568649 
-0.7942473999026292 -0.2747589111370695 -0.1289193643942706 0.01884472655940789 -0.4898921487018051 -0.6769669199990475 -0.5200990453248083 -0.5508679394404441 -0.4159568760975699 -0.4893107950372873 -0.5461510241756129 -0.7198437411385966 -0.4768856725486035 -0.5315946902160685 -0.6248372921905178 -0.552720988450369 -0.5584187092979163 -0.5538314679954963 -0.5554151031335244 -0.585918290491574 -0.5371703422345312 -0.5536421948303812 -0.5533621042185733 -0.5528987859194248 -0.5580457763078291 -0.5774626616405072 
-0.5123625564234306 0.776809290374639 -0.4377052947179408 -0.3928717971569621 -0.03468759416641379 -0.05174404187007316 -0.02292193626253826 -0.01221132846832075 -0.06480240339712312 -0.05041197240964792 -0.09041925484617369 -0.1448030989509955 -0.06323344146322017 -0.07331215067145243 -0.0963688149475334 -0.1261425323538782 -0.1108755196731437 -0.1049086355683874 -0.09905473715134493 -0.1558797269374219 -0.1080538272132221 -0.105086686549903 -0.1143264851046416 -0.1070059002434971 -0.1006625999533791 -0.09893462729972859 
-0.1530861466912275 0.3867887164576807 0.4408609668226355 0.3490178561929319 0.2060882501864189 0.2256716763108635 -0.3991193572894518 0.1123519918370132 0.1931129182536051 0.1990069707663302 0.2094361798065163 0.08299703157125181 0.2050126080601584 0.1841037994635129 0.1583488352668553 0.1766973236045942 0.1818423193364668 0.1860096020359645 0.183891741672165 0.1733669616480524 0.1829599716963192 0.1842632753739418 0.1874625031422783 0.1825512089008095 0.186016497722311 0.1774754421468651 
0.9178649698962406 0.5047204415170377 0.3837574615428346 0.1024626964350539 0.3468314929742031 0.3348930925185822 -0.1200233838809462 0.03858001832814072 0.4314838115281152 0.2619155560871351 0.3779294814963099 0.4073099918167332 0.3325990297306978 0.3008985155689802 0.3477120159637449 0.3850174127370151 0.3763147975337902 0.3815654714006553 0.3822393163442916 0.3672472546935578 0.3662931746359552 0.3807366904312245 0.3792927352245198 0.3831223506520577 0.3800231867335723 0.3841087865873522 
-0.1012071710275311 -0.2141288943397729 -0.2422856533868478 -0.001565082831276359 -0.2513091474957041 -0.3515902377628055 -0.4155379422749353 -0.1772524761883201 -0.3565988100472504 -0.2881249307984769 -0.3613175732887737 -0.3665017803580657 -0.3478319943532282 -0.2742920683190269 -0.2873960215994727 -0.3146381730996314 -0.3180586422494238 -0.3107988407656458 -0.2967026203117951 -0.3272888343356237 -0.315391852715657 -0.3048105415507606 -0.3172028125882356 -0.3131806146413462 -0.310815601983908 -0.2951462637991593 
0.01111039405296786 -0.2879013811010562 0.6561279689566654 1.06823815709499 0.5969392966751179 0.660669125721982 0.6094399216266783 0.6334676400647967 0.7150829588408806 0.7199238552610439 0.6529685880785615 0.8276344462774988 0.6887938091324856 0.7404441776532443 0.7200367681023624 0.6976770068814501 0.6835625318003364 0.6877395022444677 0.6810273140134283 0.6369594753330847 0.6707918413887803 0.6927683114204563 0.6967769015758446 0.690634252139432 0.6861051403590874 0.6989264567390933 
0.002765073466435139 -0.4145849556603332 -0.6891546425631643 -0.3524037977456611 -0.3081654440032779 -0.08095196015886037 -0.2499316162355464 -0.4729882570703302 -0.4598507338918911 -0.4379240744812047 -0.3952653929505527 -0.4466307869286077 -0.4614537188293787 -0.489321034920276 -0.4634034661769084 -0.4779245898079061 -0.4440003615986183 -0.4422855593636205 -0.4530902343966058 -0.4754964311579549 -0.4545930588988947 -0.4459554211539212 -0.4496211808138227 -0.4459365752502573 -0.4471447346525269 -0.4553387296167038 
-0.3257711380832421 0.3595442522250101 -0.1075438243143451 0.09521489543169816 -0.2429010160116636 -0.07368283490357989 -0.03401656121433812 -0.3750990746564962 -0.04943863482790914 -0.02220573783995529 -0.04459441290219988 -0.03957377673595732 -0.1295710377670033 -0.08297176777722952 -0.04742257694303735 -0.1074709676279038 -0.08081402434182085 -0.0835706002174452 -0.09528104052017701 -0.07280556040319683 -0.09062414155669818 -0.083816516129951 -0.07666348222610445 -0.08539706307796922 -0.08375972402320456 -0.05686984190459031 
0.02952531855359256 0.6369967748588949 -0.001597666286484487 -0.408205933009288 0.3000824916426157 0.1009578340464082 0.003488077463071565 0.1563479342541679 -0.006584305507989788 0.1520620112426984 0.1334548289357292 0.08668894112387164 0.1196952021039532 0.0249895324786151 0.149761545193414 0.07620027899051739 0.1100525145509711 0.1028870916805619 0.09863509536008951 0.07439352076264183 0.09584738448675888 0.1055785229989178 0.106693494910094 0.1072268180284861 0.1063626109968142 0.106383111481505 
0.4310756278993141 0.3656714505101292 -0.06249338702835541 -0.4216724544486971 0.2521737742745489 0.2717534716886686 0.3072444190984773 0.1614619649720693 0.3569064524617542 0.3623900212034037 0.2126972608135941 0.2323669643221983 0.2722147990988086 0.2436792938379799 0.232604363191672 0.2421305050143974 0.2415993690292324 0.242198179219684 0.2587365552633041 0.2012655749534138 0.2492292587240645 0.2410192412074612 0.2578985923408659 0.2453734442136318 0.2440587265498798 0.2193355253566789 
0.3525355914415158 -0.4788972843295597 -1.175706974089138 -1.144326641476572 -1.002330063076296 -1.120067827414925 -0.6865342707463186 -1.096177005379269 -1.060055919064308 -0.9670405975668865 -0.9863288473690299 -0.9692122501490181 -1.030957972404043 -1.041072676882363 -1.018828165582893 -0.9921996459163824 -1.033431663495818 -1.030972407563857 -1.023433766854442 -1.019074333950507 -1.036965181950541 -1.02348924561699 -1.035477131508698 -1.026485948653108 -1.030606039178692 -1.009424163263024 
0.0841634205444429 -0.5681478796331156 0.1347656120946403 -0.08215602831451238 -0.09431863489349866 -0.2097340916268414 -0.2758298997332124 -0.3305021948207342 -0.1823013993421615 -0.2418532028438482 -0.200861356713245 -0.1856887384527155 -0.2410157079310742 -0.1889212141465674 -0.2089537975492819 -0.2146894905091219 -0.2118883607633232 -0.218939650305116 -0.2203910575573852 -0.2160029521199383 -0.2174834885474161 -0.2187735003856698 -0.2241631503551001 -0.2131669514411573 -0.2181904210021193 -0.2330905980022318 
0.5008281018660826 -0.006931869837267585 -0.09162456988427362 -0.3856994115055687 0.1667666737445458 0.007456250781395138 0.1000797648644528 -0.03126446757285085 0.01721307856638913 0.0258098858225443 -0.02272045874702705 -0.027144679967942 0.02786262510366832 -0.02238082741080014 -0.01999556346917998 0.001981175264816755 0.02906926910078997 0.01771370727992046 0.03132588821807969 0.02971654736652693 0.03777595899798535 0.02081365583389912 0.01933654301771781 0.01466773204316738 0.02216539065128726 0.03431186073372765 
-0.291709451484249 -0.4703119198239172 0.4103885933499001 0.1406392044265932 0.2494488071996211 0.2755026881781402 -0.2365052000455352 0.3055250652294623 0.1623992737559043 0.1036214431879708 0.1659164454803238 0.06059674293177985 0.07502500915076844 0.1526197982277027 0.2347082406393072 0.1252411097293112 0.1129027360202546 0.1102208620033639 0.0922357953053501 0.136306422846937 0.1214937051400683 0.1078556795941816 0.1146383965573601 0.110551713735702 0.1118347818037882 0.09724798476341731 
-0.08490125391756567 -0.6331407408406799 0.6396974808683281 -0.2625144412396064 0.1300292194209195 0.03850309183333211 0.6137396428336724 0.3461058445482608 0.1918018874667569 0.2081970167474403 0.1303115289992214 0.1491930886293873 0.2219995883972919 0.2123313656207269 0.1710354955222121 0.1680327669230067 0.1647100367951551 0.1527060308566646 0.1553670971871972 0.1625943700768693 0.169206463730256 0.155743274264436 0.1691581486633195 0.1605477655512757 0.15520575690223 0.1481828223041324 
0.186609076491987 0.5604118279379402 0.08856159741995724 0.507419538064166 0.5674472659434482 0.5398283750622894 0.2143383211572088 0.5334596371010255 0.4847569661420873 0.4166839777515411 0.5048583005710825 0.3235305402081931 0.4214027797700367 0.5289452035168094 0.4326845442187771 0.4802225401331909 0.4887498812731863 0.485643936358741 0.4863572291993583 0.4813290906836373 0.4856288616923796 0.4827569045345937 0.4832372644812545 0.483495031622807 0.4773982797368456 0.4797866894051436 
-0.7595316990874258 0.5374983773660906 -0.08181337439715008 -0.6051914252810159 -0.3524266224278683 -0.3640033188954219 -0.7611110953294198 -0.3072191767688087 -0.3161153130113337 -0.3020095576706372 -0.2762231170634665 -0.003702782676169245 -0.3343603670275118 -0.4235502771252944 -0.3295120494708794 -0.3467239706595234 -0.3595495896010605 -0.3583268369136127 -0.3667769953390249 -0.3299894608648251 -0.3697035114812265 -0.3588664152243902 -0.3595173749452814 -0.3595261814973593 -0.3574142539676219 -0.375279172410839 
0.2008299472520128 0.1045813576730774 0.5013044604427354 -0.03504213365462667 -0.04750016171181033 0.2407650444585492 0.1580972870180745 0.048270571325469 0.2903254802418158 0.1978003564563602 0.1539930610265737 0.2181987680986815 0.3200799690943958 0.2034890807971622 0.1528401202276575 0.2160750204576286 0.1988520172278923 0.2049643922441777 0.1917217520466002 0.1489058825359711 0.2115480759858735 0.199404149755621 0.2126120958510151 0.2081569027194057 0.2067773179997567 0.188020622024696 
0.04102329418083719 0.4757881035505803 -0.09509107002571227 0.07881524819330078 0.2717779114103774 0.2666045874335433 -0.1129142846931102 0.3020824067687236 0.2038958184433945 0.2399956270016883 0.2141135492891777 0.2317349205765365 0.1855542906652314 0.2234900815955123 0.1339680417437653 0.1929490061063756 0.1890737719272092 0.2053809563770471 0.2093679503896515 0.1493759506482704 0.1955066492043268 0.1942799275008746 0.2091115979182408 0.2004629595462602 0.1987270806451926 0.2079183303570304 
0.2432929505869555 0.7166526714289579 0.6175920592982492 0.6027285267617314 0.886661907039262 0.6252626915097403 0.5035946350397008 0.5247457088857127 0.6151568231287734 0.8266045786114693 0.788037866249109 0.8045545340362766 0.7781098686904248 0.7213728330799792 0.7186722698374122 0.7592850830150512 0.7628968266826699 0.7659664305984304 0.7633217158626504 0.7936445166607959 0.749523349476338 0.7660857129076952 0.7574605288751257 0.7686089324725112 0.7641295890077746 0.7846632246435042 
-0.2808538223064365 0.3089684763564062 -0.4159402312688292 -0.04588262355742562 0.4835292331659753 0.04289219576212846 1.041414254553943 0.4181663053341683 0.4533548975255609 0.3730943135903488 0.2932080635124552 0.4462075969862903 0.2702417105282431 0.362943547633152 0.3520874791157119 0.3225315430273887 0.3228019226880146 0.3211629693135998 0.3319789656437408 0.3354823252130702 0.3346843990248979 0.3226698724042644 0.3316113937851919 0.3209351086593295 0.3179004239486211 0.3286995225668106 
0.1935346797599485 -0.3122803412623765 -0.6156844511883209 -0.6283015752033501 -0.9059124398263581 -0.8514539145363869 -1.20270340466324 -0.8641483925498373 -0.823125368018492 -0.8402022491101534 -0.9060449956910041 -0.9758933783293812 -0.9585868484627564 -0.8659141320356892 -0.9199735180664155 -0.9013698124416806 -0.8891576912757945 -0.8903779122786757 -0.8756445527667519 -0.8575757899652026 -0.8907957618367198 -0.8933541670213706 -0.8954763257750893 -0.8884112081230338 -0.8833146745108171 -0.905147928211427 
0.4449365950549935 -0.9562599388543277 -0.446007209901158 -0.3979471249472722 -0.6237286714633884 -0.6367821533240403 -0.4435118135108799 -0.7139020651419876 -0.5815738363240806 -0.6087816061579697 -0.5555238959212326 -0.6419638742102352 -0.697539134169458 -0.5872234884022813 -0.6158765355711512 -0.6462445152055374 -0.6280970188721546 -0.6285037909495718 -0.6281631505305344 -0.6622554058317981 -0.6289447218217166 -0.6251195024527899 -0.627691766425862 -0.6242478689997206 -0.628296061604098 -0.6284371448843596 
-0.7801776475280239 -0.57373878209928 -0.8947805747160519 -0.2073807333814381 -0.7958337056604626 -0.7284509118006846 -0.05146701715621618 -0.9000340923018604 -0.7903000960554998 -0.8389793351863604 -0.8022426234712984 -0.765255961864853 -0.7030521987069432 -0.8676876499677645 -0.7932237055299916 -0.7867453378593328 -0.8115034058760989 -0.8090937912314364 -0.8042233296664846 -0.7696296510010906 -0.8138425843534828 -0.8069592025408047 -0.8126938166273941 -0.8042790834019028 -0.8091727966336816 -0.7699866277870903 
-0.002446556433530453 0.2383841607074848 0.5536360483804684 0.2738928734577553 -0.01377256920744756 -0.09904219352552676 -0.1547334236261511 0.2702030029998721 0.2543588964655369 0.1396514769278817 0.1957069767621966 0.0989721069890971 0.1408049039269131 0.1625000053688876 0.2189242807538128 0.1874449549220862 0.176481999257188 0.1741053402602789 0.158161741964164 0.2128816825312927 0.1789431788198772 0.1791923211716449 0.1767700416500456 0.1822395205170198 0.1781367074328458 0.1485350288019781 
0.2985345004274372 -0.792473678805993 -1.083253672122868 -0.5512739306713291 -0.7150390258510693 -0.876072254885464 -0.8724947408447232 -0.6194904525059124 -0.9675416212203141 -0.8731508382521423 -0.913565104585003 -0.8481581870002162 -0.8599550310816095 -0.9268136746745228 -0.8906704104918375 -0.9094406520041409 -0.8759197343478958 -0.8842123714237166 -0.8904040054765699 -0.8557422536720115 -0.8854307840177443 -0.8817534848760619 -0.8853085768032588 -0.8837742720103945 -0.8906880966855187 -0.8871220425965441 
0.6539278931511746 -0.4726376092469118 0.26713874106744 -0.3987929860894532 -0.2051726033568403 -0.2612607352101885 -0.3100793919165719 0.07994118524276916 -0.1155149798805173 -0.1072709360382281 -0.1762576058478992 -0.1986105769899487 -0.114954663669727 -0.1369097545526267 -0.1638895093124035 -0.150235567571523 -0.1370525060436692 -0.1315560619843147 -0.1170210195688787 -0.1770936698503376 -0.1326737071819725 -0.1321585071768874 -0.1315695316899921 -0.1355930799155001 -0.1329350533823322 -0.1504024745343979 
-0.03423928083775436 -0.211066374064379 0.2435250247785295 -0.5040597549710129 -0.2136489448654187 -0.3575020934023722 -0.1544003354448922 -0.153633343576947 -0.3261211864341674 -0.2391642455554352 -0.325205689962659 -0.303877927282694 -0.2883803407830893 -0.337118392709098 -0.2561611076387544 -0.2645080724939138 -0.2770487017448736 -0.2671958711165238 -0.273359975107904 -0.2843735690713409 -0.2686874665142484 -0.2747059129828185 -0.2695039531856083 -0.2701877452911289 -0.2644244337459043 -0.282296595896421 
0.1479531401979978 0.4228666895657316 0.1662508328556946 0.2184723826075579 0.09300344923499707 0.3208103499063111 -0.3918497758513605 0.4764750608702924 0.2459513790187666 0.245672800698111 0.2847785952462074 0.17825457790903 0.2343962896662856 0.2673173815139889 0.1878962558888941 0.2552701764812073 0.2382113733026089 0.2436868308603622 0.2254456817051579 0.2255947479739213 0.2294325862347306 0.2341046747434256 0.2261859574716255 0.2360112671465479 0.2409630096906565 0.2372129533610333 
0.2461961474980493 -0.01743614759474057 0.2546679051478682 0.08470118962602199 -0.0125742221835967 0.2878803641448138 -0.1327349055320003 0.1998453708662488 0.06781935637824868 0.2487046118481587 0.1108223992979844 0.1192731337344962 0.1645480824648856 0.1070467378842062 0.1496205114549882 0.2010838928379169 0.1494713876223295 0.15285595715017 0.1498340888010508 0.1321137690022063 0.1362967698758198 0.145636848121416 0.1466952412578873 0.1468068838407261 0.1468480878994454 0.1298369534749508 
0.05932872728915766 -0.2346852696679267 0.47349865087142 0.5387125432821882 -0.07909290388466191 0.2038416598642837 -0.05948664261604399 0.3610453854533589 0.3241606022574489 0.1921520994543156 0.1857363479631434 0.3515147526023126 0.1845706198806576 0.1673453542817494 0.2247270379027733 0.234607123583683 0.2285678862595803 0.2193325810977897 0.2399165240557272 0.2642860486319252 0.2295040357351193 0.2337903567084657 0.2117117454882118 0.2257110733398644 0.22873323233354 0.2561657143973979 
-0.2539158043081203 0.04500146987091161 0.1469182333508713 -0.4070998139187856 -0.2220709018492604 -0.2411617559196989 -0.1233168644483728 -0.3217914702435553 -0.3039374832757679 -0.2090519346874326 -0.2129946254731203 -0.2035183896887376 -0.2109530912097179 -0.225667270139449 -0.3089732018069016 -0.2518972037999035 -0.2417302453705157 -0.236251379146786 -0.2331244556403127 -0.2735606262609231 -0.2238093624129195 -0.2325433634382583 -0.231080362094228 -0.2407203515197068 -0.2251588172502443 -0.2332122309523955 
-0.5078278729388128 0.1761277701866861 0.1507240501065113 0.6223501396098023 0.0373796079138741 -0.2473729001212432 0.4319504754253128 0.08209343337890616 -0.08065989272536751 0.006566264991076471 0.08046108418258063 0.125495141581716 0.09829244510607371 0.07084179614291541 0.1074664381738081 0.1029519188700122 0.09456671877363426 0.08371650479347269 0.1111202270989515 0.07918125503954554 0.08173633079319682 0.08809468270978425 0.08335079308467611 0.08557684863982133 0.08261420809941264 0.06673618656330559 
-0.1384200010822322 -0.1509224102163294 -0.6510563041774514 -0.7918898725426203 -0.3950665137320874 -0.4909988929633287 -0.2199061586406799 -0.3848110401555688 -0.5929344169082554 -0.5610018235441341 -0.4520561926967492 -0.4759382849295923 -0.5411518414987635 -0.4718971891038866 -0.5542183949791354 -0.522345680500504 -0.5289282380818183 -0.5226983715926836 -0.522816390584391 -0.5246348047808498 -0.5111017013629127 -0.5254840769305832 -0.525877466480728 -0.5238269543774449 -0.5262116864295239 -0.5494520069266777 
-0.3741260754772679 -0.3143191143224696 -0.530024924656191 0.07655994331167444 -0.3611816970627909 -0.4620416893005408 -0.7086561289958517 -0.2321270342315119 -0.5105001133889967 -0.336777130595097 -0.4039662384772931 -0.4343258377721393 -0.3051866074844427 -0.4245800953457091 -0.3988751303587539 -0.4259171759792307 -0.440023275730483 -0.4315002375695186 -0.4345821102614633 -0.4411891261627693 -0.4439787464823225 -0.4397270962536497 -0.4323318747710056 -0.4384506408279036 -0.4373927700218312 -0.4083747281161892 
-0.06821516729876592 0.2407293335794812 0.7677135649693474 0.7430804525776582 0.2639958736761361 0.594002286755082 0.4685933207035323 0.5521329950264237 0.5421400887284235 0.6815245225475391 0.6023917927465676 0.5467388431495821 0.5748586502139417 0.522322644848578 0.549246412770611 0.5664041838641941 0.589677787440599 0.5840602707982983 0.5823777247845598 0.5607049488526011 0.582268339755212 0.5842686141408203 0.5923999312439681 0.5814884466819177 0.5810697285354535 0.5902725401232172 
0.3332892820102794 0.5285032979338111 -0.1814205592517927 0.2090772186689694 0.2868828985123966 0.5234868070424912 -0.1243059474536119 0.4438123758807607 0.2747087081118442 0.322536464103175 0.3428578498610155 0.4099925585295274 0.3361686862225443 0.289005086668811 0.2960648770735628 0.3415572619145223 0.3214284812895222 0.3260212720283761 0.3366883355909862 0.2869460389666229 0.3324227490721083 0.3318889260884483 0.3250348668535419 0.3276751719823378 0.3309963908646631 0.3315128581065054 
-0.9071131415025665 0.1249417897479913 0.0557021462155082 -0.3384006920472822 -0.4542653503039978 -0.5485652131995269 -0.3274555294655737 -0.4961391409500746 -0.5280931041865382 -0.5614127111528332 -0.5151984270687978 -0.6268863964504188 -0.647915048345618 -0.6121847121173463 -0.5319212829465271 -0.5494032631216336 -0.5346671827506578 -0.5392070497706341 -0.5373388323684234 -0.5852813307210087 -0.5461509670787419 -0.5401563577467721 -0.5463210477857224 -0.5378092069396881 -0.5377366978635029 -0.5584686699974731 
0.5421946684516122 0.343740455471762 1.33820358938765 0.4451515441420335 0.8836484389546858 0.9878645588878993 0.9086390336665363 0.7769197739491447 0.9226147089222146 0.969353614842656 1.001853982412245 1.0690176869666 0.9790398931339376 1.066245791243174 1.059986260312744 0.9735701753880184 1.008473873312746 1.017194254906265 1.019596171875905 0.9882675295020054 1.021137470588108 1.01697843191114 1.009517028393347 1.017497154873544 1.011067962007959 1.008993341172844 
-0.4647785806532537 -0.3589063310276958 0.8077218607647968 0.05860340362071272 0.1745978839357006 0.1683788628905973 0.00162363376896192 -0.01440829835794498 -0.0221519902483387 0.1561956359834956 0.1711996693274244 0.1449268342368615 0.05377539900120238 0.04040404915804558 0.08417678239492422 0.09548743833202133 0.08203569398834137 0.08095333493533667 0.07960692784133318 0.1011323279505483 0.1024328908049459 0.08443042375111574 0.07045609693112387 0.08012035144007783 0.07954616309023617 0.09556690570030964 
0.5356826432013664 0.04168246863437015 0.3477599674986193 0.3509126092921196 0.2865344227020523 0.3994237712289416 -0.2376999473522578 0.2762130619069499 0.4075475507811362 0.425458763639049 0.4010176248033592 0.1859335441314823 0.3116239014445397 0.4257928235831588 0.3163261050260343 0.3485178780742549 0.349430188407629 0.3452164963702482 0.3734814571805865 0.3754216302021186 0.3537097280943192 0.3491811698745446 0.3545897052396992 0.3537282342866134 0.3484963255117563 0.3300798684704292 
-0.2722082888567761 -0.6636984488205575 0.1190835725169385 -0.1718811173745949 -0.1613424197193253 -0.242639198498711 -0.6040690723305342 -0.4802082474668792 -0.3988378091162829 -0.3862524627346519 -0.317939382022887 -0.3474256028531845 -0.3075733601844346 -0.3814409015341179 -0.3140750165500026 -0.3844150925182437 -0.3839027238985521 -0.393714748014509 -0.3892077462433404 -0.4069084078378399 -0.4205762870047882 -0.3835507332041856 -0.3863761482158625 -0.3886527289593933 -0.3903835667283553 -0.4117735793468143 
0.03539297147965421 1.24372911612956 1.099802663679477 0.6350990399649912 1.198346304987336 1.121262478542021 0.8544188612475523 0.9673909738731011 1.116503807421151 1.161727955903068 1.150446771959068 1.074946009763613 1.095661825555857 1.161613186237731 1.091085388044265 1.189380247095114 1.158274000139054 1.16002557078774 1.156986443006027 1.15930659017441 1.139540989220126 1.15345476602917 1.160924422553006 1.156612391287373 1.155277477754594 1.163004987239263 
0.9304459153031138 0.003255029576995837 0.205552769803864 -0.3432447919724052 0.006613050358795018 -0.282166745159839 -0.2714230764862234 -0.1704208727430305 0.02117448083864513 0.04344997653991851 -0.07822211526790999 -0.07013900966585343 0.03742161748683896 -0.04884610293213274 0.06038858675500711 -0.006359964987431313 -0.0007568613575434297 0.006953347067549934 0.004634355256248404 0.01947236419757437 0.007838347841327763 0.007446510775102701 0.004745840693148685 0.005759947651848488 0.001594297299730792 0.006712885764795007 
0.1677952805682208 1.121895322528876 0.1019743386887547 -0.3018965347466559 0.504871062530867 0.1316697890227516 0.08458793648192897 0.2507585074985901 0.4039818772797479 0.3422977272254386 0.3793966905749517 0.4097861150689751 0.3312000083866434 0.3193641378156763 0.3503087501563854 0.3377924374197789 0.3525433228194843 0.3484308492933161 0.347638533358097 0.3473117977450423 0.3467437029983241 0.3497630852351935 0.3521306842186642 0.3510965593242488 0.3521886896148189 0.3533731569578067 
0.2029740024044089 -0.07863519254160078 -0.004326301301507821 0.2150595424715476 -0.05898799225395745 -0.05918720148382757 -0.03744117277927134 0.06361608355834636 -0.0286502420992168 0.03077457892895389 -0.0713953330647577 -0.0283435874686374 -0.09260152274848711 -0.01224796973608875 -0.05399807585008502 0.00137825983710994 0.004842114999981462 0.006425140237050552 -0.00340644521642326 0.07505836436324316 0.006294764883288981 0.001585979771694698 -0.003701723094480355 0.005668200982586399 0.005662315937699665 0.01642930844313814 
0.3355170087085705 -0.1921833213445709 -0.6416219859549744 0.2087283625417181 -0.1586062890787706 0.006255597874307086 0.5958380458647625 -0.3144688277593868 -0.0130215632049612 0.01047748805917969 -0.06249495685385747 -0.04746697547050212 -0.1045331549609414 -0.05015378862500177 -0.0274418949728284 -0.04461402766190164 -0.03227049075013039 -0.03305385406028126 -0.02837639817568032 -0.0153448844547513 -0.01776735370475775 -0.02931547213450073 -0.02213335405098082 -0.03008059742997977 -0.03041596369923204 -0.04400243301354537 
0.9330572285294922 -0.3450914827728419 -0.5877855425899307 -0.4550885742767355 -0.454534491753913 -0.4798298537867566 -0.4284481745525586 -0.6807195482251122 -0.3959039480514354 -0.3619031165284791 -0.4511081418666463 -0.4555956599766169 -0.4440774483875754 -0.4337814458976156 -0.5021419774665338 -0.4365215600486417 -0.4252017057677097 -0.4300576995973062 -0.4240770535042722 -0.4354776668510262 -0.418412702326711 -0.4244112114629252 -0.4351775716522975 -0.4252227390116762 -0.4275404627958553 -0.4150140668933576 
-0.166207559287388 -0.311773622618623 0.09617741516397993 -0.4546721183026204 -0.2189424733703185 -0.1481549607706093 -0.09140912679432736 -0.07695514707646262 -0.3590239068545406 -0.2088911819574523 -0.09048980180951714 -0.1333080444992567 -0.2238726588338698 -0.1711862086379205 -0.2006567117732825 -0.1715897137544792 -0.1999702075189054 -0.2107144666809454 -0.1936601759435398 -0.1824076445233213 -0.2146951021517458 -0.21028379748343 -0.2092043077207879 -0.2157359421265956 -0.2057755694351769 -0.2182316967434519 
0.4941420761922801 0.351170046179449 0.06547594160859849 -0.5645631206590788 0.3989253749518421 0.4124026046743948 0.3774918250219823 0.2615112343787926 0.2588980531484363 0.2821465751324518 0.2856573853364873 0.2867340231689028 0.2133398810472938 0.2464775962175474 0.2453934388772982 0.2672914908116903 0.2840239014263364 0.2811379365279497 0.276223317902645 0.3377405748565016 0.2625189291288661 0.2789188305490232 0.2830204085406735 0.2800371057190386 0.281013001711575 0.2789437126070147 
0.2853947172619374 0.0004434556457861231 0.3318939686470728 0.35938170475463 0.09493939952987923 0.02842526995195852 0.04500444971532112 0.4747840174681755 0.1978778563534901 0.1271715878623192 0.2098337429963725 0.1219379594364185 0.1998294451648045 0.3334003742157932 0.2162648343480102 0.241842493661571 0.2387606940529194 0.2344932390817249 0.230749037465991 0.2425034561936722 0.2287473622675175 0.2261313810460658 0.2387796688976901 0.2302042243011786 0.2337491594398611 0.2224669988006319 
-0.1420234482306763 0.62118973676809 -0.6246497736289729 0.6738684414882786 -0.2516487496451745 -0.1928683981631892 -0.4502843750256245 0.009005162819700676 -0.1956183143756559 -0.06352785958082251 -0.1036701520364662 -0.1736361045626802 -0.01979180016216433 0.02041456254505366 -0.05282903280547942 -0.05215084292292502 -0.06484286019207885 -0.07175554863361354 -0.06269103123469882 -0.04614498144675758 -0.05769257645685197 -0.07206872610639319 -0.06949474927422911 -0.06859812948967206 -0.06941719910452004 -0.05481208200193486 
0.769839453478101 -0.23041006756352 0.3061857297037081 0.3748068888489581 0.537722575810586 0.3265948278594811 0.4440174094089944 0.4594675089949447 0.4699661153078786 0.3979343618730601 0.441617052574091 0.4510272443932482 0.4500390605384772 0.392025584599922 0.3742341086395185 0.4743807838084654 0.4527707253015181 0.4581363207731154 0.4534543335102347 0.4357439241090949 0.475293058890598 0.4557703762855841 0.4593224016085757 0.4573004240470155 0.4560667660115302 0.4474545522551954 
-0.1213931123441795 -0.428893013363373 -0.4186866524845727 0.052264149746027 -0.2205438442933866 -0.2156508702750322 0.2607534739044438 -0.05264690426810775 -0.2695980017172822 -0.1586642506556595 -0.1637202622408531 -0.2701737213239453 -0.1869445691868728 -0.1597599107349653 -0.1802163086117858 -0.1637337026317226 -0.1978214092574702 -0.1941826236423705 -0.2026853370977492 -0.2153021359584866 -0.1678407309862981 -0.198245298916251 -0.1986767337723812 -0.1891722562201121 -0.1970451183143491 -0.2269959812815799 
