solver_type L2R_L2LOSS_SVC
nr_class 27
label 10 2 4 0 3 7 1 18 14 9 6 15 8 12 24 13 5 21 23 17 11 16 19 20 25 26 22
nr_feature 128
bias -1
w
0.953099958137776 0.126102410600248 -0.1281845905564152 0.7483419743700793 0.6993700215256168 0.8997492437976514 1.073401729144505 0.8505274567116657 0.8050415863369341 0.7791382894378411 0.8501303072834167 0.8902369324688837 0.8527517010558918 0.932228768106996 0.8209624329992854 0.7789494798842667 0.8979769403111785 0.8263820111171983 0.8297134757559372 0.8476610766551991 0.8107524041162624 0.8507452803805792 0.8396809984145548 0.852082511567458 0.8486003966744399 0.8462432202117469 0.8445876036289544 
-0.4896628329637646 0.05809080480345095 0.4417276778040845 -0.07439160625459111 -0.2936606189299228 0.4737902345657489 0.3510811436153184 0.07045601759019056 0.183122266200813 0.1728667855774678 0.1293738800387912 0.1331541256335196 0.1595038530873979 0.1199051988137583 0.1406042808693982 0.1481039232060277 0.1244350026120615 0.1338274558122005 0.1173427066297558 0.140347529910876 0.2262690671126976 0.1463507762877166 0.1377210938515191 0.136251617856817 0.1398044992012808 0.1388017180972302 0.1389356647949056 
0.2566987724013681 0.03294171328512978 -0.4173734708922456 0.4445847041143572 0.1448262719175364 0.8558600565788093 0.6212026304345724 0.3374281497644558 0.3582856089852543 0.4578279869553999 0.3843963299494441 0.3032729761858888 0.4055495815727471 0.3415106994646247 0.4041685981514 0.3946056968907315 0.3559345832936319 0.3705774832285134 0.4114617188068322 0.3891741537244779 0.3730951488965829 0.4056822005200138 0.3872198646236455 0.3740554606354964 0.3945743828900469 0.3987519393356205 0.3913404746629728 
-0.9042329002364267 -0.6761796532934076 -0.8920485594644828 -1.033846488660581 -0.8997443094923105 -1.065605281108345 -1.100749168972778 -1.202127506939211 -1.106997996006251 -1.239444567824733 -1.184312022061778 -1.124268140140555 -1.178987112824296 -1.152758554716641 -1.195371538114141 -1.198173179247975 -1.201215184331324 -1.190626780311545 -1.190291827866452 -1.203421108196768 -1.168635044432752 -1.181521352685212 -1.206703827418975 -1.18698572881934 -1.206183436411917 -1.204572840951546 -1.20597379867707 
-1.773941567654408 -0.6590881997903709 -1.066318800606156 -1.085172049269021 -0.437196957528212 -0.9663460602599915 -1.003707563371457 -1.373668050859129 -1.368741406506832 -1.29338881703203 -1.382757406311235 -1.407587734423308 -1.361715195408885 -1.418366523352615 -1.39278272413231 -1.333449450734869 -1.407523939444162 -1.364730333179563 -1.407375471198978 -1.38196569055695 -1.424607316307351 -1.364081424461318 -1.375004980698229 -1.409160338591581 -1.383559466183874 -1.389354972541754 -1.406589806038214 
-0.1584921565302819 0.3379202516132679 0.4005056894360821 0.09704012354124704 -0.339282751405572 0.3668357002127096 0.1998823001354174 0.1766802112517125 0.1125457767581 0.10354880099257 0.2039646805767646 0.1923859281876343 0.1953479871939969 0.1085111540896005 0.1535986183256511 0.1529312343380659 0.1544588271636376 0.1795514713881565 0.1622278870535385 0.1608421967562138 0.1192071476079231 0.1527919089550287 0.1617311641143314 0.1658740372609215 0.1620977553984405 0.1636090995728868 0.1599946405783764 
0.1339724733129475 0.4561024550172945 1.371339926957539 0.2812883913574933 0.329394076762265 -0.02860549219271648 0.5977368336076176 0.6715950144252891 0.6763470452863076 0.562028069775971 0.6435382431487291 0.6195675145785163 0.6000306166832835 0.5531259160681086 0.6100535857541699 0.5049905272061183 0.5809823791865311 0.5454366672047338 0.5520778240163521 0.591464308457221 0.5565487307407391 0.5786702778655545 0.5957030686504727 0.5802212417100284 0.5956143206786505 0.5945381509296745 0.5881308667064024 
-0.1664700375436382 -0.2996815478526366 -1.427535983871559 -0.8167182374766382 -0.5109319355402301 -0.6949090925842411 -1.173817075335596 -1.029072295056735 -1.018829214798585 -1.050302322533741 -1.205791341226971 -1.071002593197903 -1.133563898176187 -1.136471706301701 -1.081205027495228 -1.176115338976663 -1.067733207205905 -1.085373026451148 -1.081808102271446 -1.080530074744003 -1.282915316458048 -1.14847395283196 -1.090697617927085 -1.037246459313419 -1.089324228149037 -1.085099427496504 -1.07822309072931 
2.167515236548669 1.881047024889934 0.2038793774692827 1.975256679843207 1.104047140886368 0.8989149853431201 1.725141991776761 1.83505174342346 1.938903739153517 1.895169309697861 1.855299835726833 1.913644273646461 1.993030303369965 1.881538449685159 1.954507610369691 1.901195321715099 1.918725284988908 1.939307093403956 1.911124224481841 1.920251572861043 1.964115188111949 1.893067438687666 1.923307547276444 1.90725969255076 1.920214231830288 1.916198239130266 1.91791852030465 
0.449106003283034 0.6195758737149212 -0.3344522935326115 0.5187076806106217 0.1292721502437082 0.8346111640137428 0.543789793665135 0.5746298710022211 0.5327951870885483 0.4005830492447704 0.4644065367466793 0.5279154188543539 0.5239515558263813 0.5344004907081356 0.5361779492756614 0.4676037572635229 0.5500320165697901 0.4928759089783156 0.527987349887587 0.5229204587934992 0.4876433199133673 0.5153541156818641 0.5189541374847689 0.5170660788553522 0.521513153341034 0.5225522063047342 0.5220209902782919 
0.7513698422003781 0.3901623864711034 -0.3445955613969515 0.6670664921263739 0.4552962832207949 0.7233896319805255 0.7514668779781623 0.7158298108773944 0.70491074396015 0.7029997983934637 0.690576623056595 0.7656995285208893 0.6964425718425107 0.6460342515875612 0.7141181396396696 0.6762402046780338 0.6977104615602898 0.7157245602367998 0.6922593838006983 0.7023597946206387 0.7401696697436573 0.7174718085800625 0.7096329946914217 0.6946990601131776 0.7020824066088628 0.7024013033487468 0.7014754894415817 
-0.716216959578587 0.5504589831831017 -0.01354802619433432 -0.6471874939024816 -0.4707489056562902 -0.2761684285190663 -0.6336010624756149 -0.4878020616204802 -0.551460212638086 -0.5289581804814046 -0.6150435871219722 -0.4728846849565309 -0.5348480806419037 -0.5249349547058025 -0.5198701196138248 -0.5453947954742447 -0.5215957559769898 -0.5517628137235874 -0.4924862546703094 -0.5182833795977732 -0.5192135626051632 -0.5131653040837283 -0.514205649277991 -0.5057735039325488 -0.5166307707701483 -0.519535515624108 -0.5240376485582304 
0.6941663183401694 0.5321108069109945 -0.7777174100055035 -0.1441904158019906 0.2443883820012199 -0.08448190368150864 0.3751060240729851 0.1205800198273803 0.1008707223839839 0.09964725818215127 0.01784902675436009 0.02335405780527338 0.1134393289155219 0.05801238768417406 0.09752761065060912 0.1218073522590424 0.1613674390641565 0.1200105643557548 0.101061759192609 0.1111018506444817 0.07870691307290803 0.1035715423830368 0.1044914727486505 0.1171084608175444 0.1087623153082437 0.1087539374185836 0.1055545255099152 
0.8592115624006128 0.7244961462167068 0.364870808217006 1.019595570378574 0.709788805301441 0.5414484010695737 0.9845269614843841 0.9724730553436525 1.075615888507371 0.977098074300001 0.9627865172122414 1.0378129453697 0.9725817368300987 0.9740596667834006 1.034194564425206 1.02133976331649 1.003903265319225 0.9882694659749727 1.024050120279733 1.017809070500091 0.9788742642978351 1.018925970916791 1.016839649377091 1.030331422582029 1.016396135552293 1.014873339343252 1.022743603370819 
-0.4540770233754962 -0.6039260484991341 0.08886724251086819 -0.2716894495804708 -0.4681673343037641 -0.399084758775841 -0.243606885327604 -0.4479804687826195 -0.4555162014361746 -0.4650618269594782 -0.3592856585437967 -0.4886831115612471 -0.400645250880161 -0.3053069430731295 -0.4420638729939677 -0.4079499260839298 -0.42188131896357 -0.4133630445085663 -0.4246408763872508 -0.4329301980693911 -0.4517292090678743 -0.4506591762044594 -0.4252091414014365 -0.4188964417744614 -0.4327794471590757 -0.4310605587060474 -0.4298568172140533 
0.06359438268336501 0.5720626782297293 -0.0354944646666002 0.6069797417777244 0.6085722514700715 0.9065360830845061 0.6696112983741946 0.6547743590736124 0.6633983507927748 0.6695443167050573 0.7210793995930701 0.6022698652918799 0.6596729605762524 0.6528664443955555 0.6459543843640352 0.5666695273449411 0.5934734821552399 0.6674390627797702 0.6712468449379235 0.654082458836627 0.6518590797960842 0.6455399574373355 0.6604921231922645 0.6498139382575595 0.6564449510104934 0.6581045115857856 0.6558223807170612 
-0.2751568639803691 -0.4645223684491664 0.04521677099244321 -0.6698635738869221 -0.3008297700096128 -0.3835280908741661 -0.5277749327780455 -0.4738922465099509 -0.4347778438801606 -0.5591559812725466 -0.4185653785361907 -0.4071441490367354 -0.4627384866508307 -0.4651334645402156 -0.4945347469418767 -0.4239770253392814 -0.4930308086045296 -0.4884855878735759 -0.4507522847622851 -0.4690159835944452 -0.4104295159625175 -0.4515568532359114 -0.4815797883221987 -0.4810083586000446 -0.4784765717417004 -0.4770380217245903 -0.479155749211911 
-0.8515185839309434 -0.1609570734430652 -0.6194501826844684 -0.5557149286588029 -0.5869973642834788 0.02600119233582537 -0.7120400581662911 -0.7278699334323646 -0.6966321554913103 -0.6880304889967386 -0.6889521864845871 -0.6848532018135106 -0.6970533708994516 -0.6781652876545345 -0.7168285388886656 -0.7346962291078271 -0.6627873050668486 -0.6790354308505934 -0.6917116783381266 -0.6990399904990505 -0.6702836040388525 -0.6723087691984808 -0.7029109281171081 -0.6976009423491523 -0.6954550359310522 -0.6948796356787952 -0.6918257197758249 
0.3730368572809599 0.6873651983942392 -0.6456791987493939 0.08983533644267158 0.5258602740754932 0.6255688173830007 0.5502475139167279 0.3665835279251375 0.4537062778303668 0.3386139231788248 0.4092313481259954 0.4106878449870565 0.4308762082753622 0.4768461873040735 0.4473815934855777 0.3532668950530849 0.4049872623185058 0.3816354597945694 0.4549820899446794 0.4254053846454772 0.4795991079772386 0.4201113174443263 0.4217762980384296 0.4328684610457696 0.4237400425285153 0.4217793318888144 0.4181860840243072 
-0.8273041469388399 0.2556047439890445 0.01217758682415294 -0.2392548153237194 -0.4046935380728588 -0.1681025406497758 -0.07509286292902519 -0.2879915488737751 -0.2576965711047187 -0.2861465345935179 -0.2122792435072376 -0.1747252595199541 -0.3023901788198322 -0.3175271285699413 -0.237791676372503 -0.3144513040429652 -0.2362756613488841 -0.2445900298778986 -0.2799375971790209 -0.2668939037394026 -0.3169373804426419 -0.2639718829658712 -0.2616463832751108 -0.2653693850130899 -0.2639541934381169 -0.2656010274484075 -0.2647201727881733 
0.1864120171601911 -0.1137993656447807 -0.1308348683392118 -0.4972492379593524 -0.6149863599347951 -0.2114759453451026 -0.6441946613033849 -0.4404663720165729 -0.3879161014757129 -0.4770496182628563 -0.4446111961612236 -0.3884286386109939 -0.3649446197794911 -0.5320640233291333 -0.4401885380262969 -0.4565576975697834 -0.4193082486285064 -0.3969576324365486 -0.3961626008828819 -0.4202626629680038 -0.3462622355692072 -0.413308308347844 -0.4242986725228777 -0.4183927810451034 -0.4218765679188251 -0.4236546317543035 -0.4204046600312612 
-0.6431304890049484 -0.9508060498767573 -0.3168215267494017 -0.4466455654447275 -0.2548234498053576 0.03801752162897279 -0.4843218754829428 -0.4361199614478252 -0.5361719842957419 -0.6105825249442162 -0.5400276466572781 -0.5580166569789436 -0.5599638109397505 -0.6342915762034645 -0.567695832429676 -0.5183608860395571 -0.5551391577919865 -0.5872640250590127 -0.5569682152301069 -0.5593309362520216 -0.4844161549716225 -0.5828626865620943 -0.5542913368469267 -0.5679663859151762 -0.5638252908729521 -0.5627012509241056 -0.5618893684623536 
-0.4112345498285112 0.5905349936542822 -0.5065957731471281 -0.1078635053603935 0.1851371988593281 -0.2345610590277679 -0.1840852894824912 -0.1408371002695503 -0.04957387369597798 -0.06564590552592475 -0.09684897854216072 -0.1350996695216901 -0.1524981911125646 -0.1825723974290296 -0.07753341431838848 -0.1004235475099788 -0.0652016126085342 -0.1341019482234672 -0.1182103712302773 -0.114913008347727 -0.14823467385695 -0.1236882702817854 -0.1179864871076006 -0.1056813938828056 -0.1134489810533347 -0.1158705351223599 -0.1201046226508063 
-0.5724901265639348 0.7186063582770584 -0.779970194638483 -0.2759392481368116 -0.3875379726697767 0.259688213529452 -0.3524690849310235 -0.2734321235169261 -0.2855814814861508 -0.3238475724875536 -0.2811293895556005 -0.2815383055764517 -0.2268546115206007 -0.1810737150115891 -0.2619163902251791 -0.277951804264472 -0.272813586800646 -0.2796017969463672 -0.2557825933330511 -0.2763640191556729 -0.2054057682119314 -0.2820538312943351 -0.2726082746478684 -0.2913744823751621 -0.2768142057403649 -0.2773540239496618 -0.2770813018839735 
-0.006727977977062717 -0.8774891158515121 -0.3023855179439484 -0.5987604572015246 -0.1490951180744492 -0.7475220083162685 -0.7421205872849107 -0.6189374591903608 -0.5864736194419583 -0.6663345666399028 -0.5930362820049618 -0.5864712824168129 -0.6684435857146468 -0.6533250028857004 -0.6489411234260773 -0.6294470407879124 -0.6123824684728979 -0.6588930439000252 -0.6368351968498742 -0.6535377726959408 -0.659737885988431 -0.6433025139517627 -0.6509582308229109 -0.6443965841269617 -0.6524367646604564 -0.6523985614323839 -0.6516842911486996 
-0.2500412851347097 0.8438229661505491 1.263177212719506 0.3934605686231415 -0.05313953959253588 0.5377135461587612 0.7239320107883822 0.7115445781864244 0.7150438595435435 0.667445888316307 0.6101798514490463 0.6855671414977312 0.6378171918597136 0.6616685713878346 0.7127965551430577 0.7665884656461299 0.6733716742685039 0.7043424875692295 0.6800155533263579 0.6885556765997025 0.6386746972480284 0.6782542593544942 0.6893691779636819 0.7295721610618182 0.6926036935392461 0.6903696597401286 0.697048243757953 
0.858526271206148 0.1472157464723232 0.7672133267884054 0.4201421504995598 0.139453005705002 0.1644824442872683 0.4115699350490057 0.5394238104169149 0.4649607364587305 0.4672807295340847 0.5520928388105811 0.4825956920363503 0.5622608353105357 0.5703510223504932 0.5564233083428747 0.5543212728693903 0.5844348442621737 0.6039788198888345 0.5253303325284163 0.5534800650214272 0.5737089293572124 0.5696523243495927 0.5558451309487781 0.5390943571584662 0.5531862829316962 0.5557798132673223 0.556142384028209 
-0.1014506586552934 -0.2895884831707002 0.4938878627894354 0.557123444561756 0.5451818272546739 0.6479185368378872 0.4123246942491767 0.4939868594814257 0.4904729769578439 0.5243914035221925 0.4844684934751936 0.5028557272967867 0.5260207133969886 0.4495719690217288 0.496853553031138 0.4229419351034478 0.4182015486348002 0.4698162163569681 0.506624405903474 0.4818658108655808 0.5105276502006879 0.4788331821722386 0.4793398065688614 0.490292878436462 0.4814618073319447 0.481432502602005 0.4858088890059776 
-0.02041107978032593 -0.8964320283914622 0.1366474106521914 0.670882528888324 0.6221327898033988 0.7474108978888516 0.2906706826009492 0.364342874271532 0.4211727666010175 0.3761374109248835 0.3161452245519542 0.567613245851869 0.3944645372842821 0.3711735716531047 0.3843073939605601 0.3623803143523133 0.3580971259115217 0.3497635924262082 0.3869855292319634 0.3751902827048244 0.3235915796462321 0.3942092041171243 0.3762724494275777 0.3633975402445465 0.3749563693056631 0.3777650849812473 0.3753405138026014 
0.56381922635121 0.1557990193046155 0.6903524433986079 0.6299201674974994 0.492643158598103 0.4501076416097297 0.8518754718636627 0.6020916345391595 0.7093808720018375 0.6796948177398796 0.6819804221857664 0.6891772833329424 0.7245397508024422 0.6521798049630243 0.7337033323345318 0.6670000892092612 0.7290720121353959 0.7409549305741581 0.7407759271478913 0.7278568555279843 0.7286881789961284 0.7009572169511993 0.7291980667548659 0.7382585077056245 0.7279594873775509 0.7260135368009588 0.7283733056552316 
-0.3102962109870693 0.6450347576587244 -0.2853668144480784 0.1226411889489413 0.3440849402169571 0.459547122913387 0.2884365789639866 0.1891802667326953 0.2388317584323428 0.2003397889101162 0.2705763082257927 0.2624162021966658 0.2370948025628495 0.280225691538135 0.2284524898929887 0.1889283562608758 0.2367959397385856 0.2621151301394526 0.2305049244353594 0.2343355037263641 0.2880952540678386 0.2150649682592815 0.2299707366659083 0.2397787767010521 0.2338467878627528 0.2336797716541366 0.2344985240301175 
-1.065799560227246 -0.2468533237439905 1.051326214421807 -0.4174704882889735 -0.5421711731444441 -0.8686276274995273 -0.5966107192501668 -0.5337255859951484 -0.4850162371314443 -0.4734922757415483 -0.5168836861795787 -0.4889398717195763 -0.5357824261638061 -0.4864133870177029 -0.5177602274139819 -0.5071776778893342 -0.4660997414808863 -0.501871387670204 -0.5255902534772879 -0.5164280568306311 -0.5346678162709428 -0.5115013060375463 -0.5190290035246672 -0.513985533236855 -0.5153353268777985 -0.5151011234128547 -0.5168494610633944 
1.100025483157437 -0.4299938232071041 1.59108780752257 1.159688534330907 1.089509017976654 1.916464738760792 1.499247078209421 1.613668243008583 1.600579478760976 1.492462285848351 1.528645636193352 1.522822328441811 1.533659761880362 1.496252506809563 1.601351789428202 1.527079659161625 1.527604867130862 1.583017582664704 1.547760034749416 1.561743678014954 1.548105899307788 1.547081592817146 1.568301719630095 1.54278900126238 1.567612405025335 1.568978044551768 1.568837977980451 
0.363892225395322 1.412395960769649 0.1457417510731002 1.086876980770211 1.252517701429018 0.1404338823685194 0.6826084829087719 0.9827090342303664 0.9846494650830611 0.8573381254694284 0.8901304777953442 1.009694524885212 0.9837986507121125 0.8796167166980544 1.044057965257595 0.8585690839739113 1.058112614411628 1.0429418894618 1.025822433133454 0.9808541143573702 1.004599639257555 0.9972628093282108 0.9765895544522303 0.9711271800665793 0.9863288017430822 0.9851793649450566 0.9855293088861994 
0.1207149807560877 -0.1385507750271574 0.6809203373088977 0.1901160860836069 0.1475026710830765 -0.2104110456584685 0.2302112098423361 0.2182310400100156 0.2191713937909113 0.3215879622765567 0.2332881893932345 0.1185354546482318 0.2464648256126868 0.2388021343367038 0.2478412596679455 0.1196136162352965 0.187512494836253 0.1979513779979656 0.1940857749109052 0.2139125405913659 0.2876378647328221 0.2166337227270696 0.2077622802881602 0.1969552416843935 0.214841570628584 0.2133799953440607 0.2143117876399515 
-0.1190886067219551 -0.544128192564353 0.0593659538227015 -0.4787379662709104 0.007373602749579548 -0.1399504320192836 -0.1319362324086123 -0.1958041126670036 -0.2544600445687732 -0.22159237587654 -0.3040996051286198 -0.2324436410102798 -0.2499095741754951 -0.2246388508789307 -0.270192927304144 -0.2998877283770146 -0.2829455037200907 -0.2623707153075357 -0.2471397052844428 -0.2549457276324278 -0.2391541051107729 -0.2571020152608161 -0.2557069859172063 -0.2634528342816166 -0.2572774712571513 -0.25774966097534 -0.2593640367552822 
-0.1064020426174207 0.05863063930806705 0.3875157068400869 0.2398175012913871 0.2678481077712544 -0.5168718074042263 0.09280392463526156 0.1967037081340912 0.05709465792463383 0.05190162407278095 0.072534605254488 0.1024826483821284 0.1375383381029735 0.04854293201029285 0.087969841684084 0.05459148350069434 0.1278827544497209 0.1124748952169298 0.1379676790589759 0.1058922016155917 0.1323281103802356 0.1112399641193206 0.1068487665727829 0.1014513488782048 0.1013139233069194 0.1025585592290032 0.1036860277837022 
0.07637707352618688 -0.378377562715252 -0.5610953052589809 -0.5222705274580612 -0.2943127359659076 -0.4120955739310711 -0.6416382631626114 -0.3457987625241774 -0.4511454552550063 -0.5697502103360931 -0.3745761576554727 -0.4889061190176336 -0.5165863285095817 -0.3635099431229245 -0.4717886165476172 -0.4640945888686354 -0.472443433155283 -0.4862505202221293 -0.4785325066818595 -0.4766228800447929 -0.4817698801448846 -0.4261031833777319 -0.4826830506976851 -0.5017376120480085 -0.4765215401532788 -0.4807820678267234 -0.4943277940438143 
-0.9277396770625003 0.1954053407207597 0.1398819631298941 -0.1096444393394436 -0.2478153076904333 0.1564969633625815 -0.1474106921801536 -0.1498741389030711 -0.1566487091067269 -0.2052172075300561 -0.08293886484596982 -0.216404458163001 -0.1664981461577124 -0.1975826219015848 -0.1850909721623555 -0.1644256931292598 -0.1329455000019994 -0.1969873847042067 -0.1792060122319751 -0.1795116968572618 -0.2149257333178169 -0.1812923175288823 -0.1757930634316973 -0.1879292570898604 -0.1790552147948415 -0.178427489395708 -0.1757186615312038 
0.5887867429774303 1.121637749207847 -0.05223833013814437 1.69948481190337 0.957458829895769 0.7611086916133476 1.33641433506761 1.258189919423179 1.303980476027663 1.359975540341956 1.230444644878311 1.255241169388122 1.304479395540465 1.231733399702739 1.299226912400083 1.371085923019612 1.308483183502815 1.365221486653275 1.286051964399013 1.314937921648066 1.246379428550124 1.320139084191109 1.315811938366488 1.306587822430509 1.311937575972836 1.310970215826732 1.304370414212092 
1.027343153023714 0.1221039000871235 -0.2962869764565307 0.9947727447604879 1.541724779572488 1.010212126619791 1.134467585866776 1.003155433771721 1.002824672212446 0.9523314052652294 0.9408560677270726 1.028858642636713 1.030945650545835 1.101839817401015 1.050675192085129 0.9576284927825566 1.030132102369002 1.067307351035515 1.044923849126371 1.049811890879051 1.125477978681847 1.062413501076786 1.054945074238295 1.047885610539109 1.055270378612393 1.050642490073542 1.045543586043386 
0.3575194193259763 -0.4599084696647727 0.1034365484866661 0.5940854322202938 -0.5419598357789712 0.5547172819598184 0.510685445456638 0.2862523011150787 0.2520974529355127 0.346338410988279 0.2212682532085616 0.2968565962356238 0.2464074549811018 0.4285395608113901 0.2653782248576591 0.3542645627105377 0.2656363605920558 0.3148059302474326 0.2718358230126831 0.2781348133215294 0.2446863477101768 0.2781551730933367 0.2734840190385067 0.2703999299659859 0.27835699495448 0.2789575980560233 0.2777898553945011 
1.13093672790256 1.135283261432835 0.09587938487148928 1.378512134563406 1.167456157791548 0.9497220877088861 1.235260551526217 1.320030757442975 1.30100781524965 1.263179783396213 1.312614882974873 1.317353671137048 1.312468087937519 1.27593172351868 1.327307094963832 1.304300127374247 1.314647965686442 1.325190133302382 1.325186504299039 1.329108460862183 1.344150643308924 1.326259655957519 1.331411273340053 1.331843060996796 1.329200616833377 1.327502221504716 1.329135257111306 
-0.8488480724253031 -0.8610313854671785 -0.3151087822976272 -1.299784190394816 -1.169377388517876 -1.240165674218026 -1.082745729439468 -1.285227215535298 -1.375108946352583 -1.394746068329455 -1.35404957260297 -1.294362972546788 -1.28275147982769 -1.238503599453744 -1.313077794605511 -1.328257891297534 -1.292585960141629 -1.319737290632331 -1.309135219487754 -1.328526569618635 -1.254053617932953 -1.333204945466478 -1.323686119331005 -1.346490535527234 -1.325369828680353 -1.327815285962471 -1.323942291283791 
-0.7487822973443345 0.3541185080837221 0.8807045200491518 -0.0004831643970215091 0.2243679085295602 -0.07910298275272204 0.2609209582608077 -0.07822935950495497 0.07730990336055917 0.08538777870236718 0.2483094891259934 -0.1442595778128973 0.1278069193469111 0.2453592996503018 0.1314898544870557 0.2978094770499694 0.1510337810371976 0.1186002144949432 0.1261217469780142 0.1161206357156341 0.179087863937016 0.105969497782975 0.1097828223910957 0.0834353275193532 0.1255113660732809 0.122655766181038 0.1392974646410798 
0.204995434061692 0.540971207233431 0.2589904347147666 0.5487268762578775 0.3291305980364014 -0.4492253775991417 0.3163353042789917 0.4097333988787365 0.409214477596558 0.3327139977493152 0.4233024729929135 0.468248858150727 0.3630434779988732 0.3263158618296721 0.3870622794063838 0.4957352745980468 0.3733690742786225 0.3830561208333944 0.4050425270488811 0.3898028229235637 0.3866323904374176 0.3786547123103766 0.3845862418638354 0.3924921684787048 0.3912711333530862 0.3892067817013006 0.3867906892973596 
0.1037498338372883 -0.00697773982951197 -0.3778509461980126 -0.03036871393847236 -0.6288396780800645 -0.3464707484389075 -0.2738690612098394 -0.3349710099176885 -0.2448567321791809 -0.1811940389980757 -0.3271503667165938 -0.2989765641890761 -0.2609217061632882 -0.2677143964987124 -0.2858916836749399 -0.2945743927898322 -0.2752500307046983 -0.3079867330298016 -0.2875742605635473 -0.2848129964943463 -0.2450522981144303 -0.2590036774998453 -0.283437120221981 -0.2871344013386495 -0.2886849696095199 -0.2901926455863508 -0.284857370743723 
0.5335165541747757 0.2769075937636813 1.029246998129425 0.7666325458426682 0.3266563573580938 0.4972747763432701 0.8458306992001727 0.8109902279256379 0.8383406618787783 0.7868236218049555 0.7456650826599417 0.7208169660004691 0.8491146238854353 0.8684112266973661 0.8333178072332884 0.6921743520371484 0.8121249005367444 0.8629117346216771 0.8089254583848147 0.8288380548382933 0.8127604197625019 0.7815304319495077 0.8205058055953609 0.8828410960238392 0.8263421001555862 0.8260012773728257 0.830582704207846 
0.04217585815435144 -0.263409834926391 0.06874548093158259 -0.103447210660255 -0.1357666253879151 0.4643962960989336 -0.1060787599606355 -0.01168143736456515 -0.01197883157436674 -0.1077199139863056 -0.009375103854023313 0.05274278669048611 -0.01464874573408791 0.02043411182332966 0.02168778157533728 0.02282673197415854 -0.01907511975952999 0.06095383973604015 0.009153652046380053 0.01613759138821106 0.02843166836140783 0.0102407742681498 0.01290058325327207 0.0151569810423595 0.01226732793761827 0.009620149860987609 0.01107892639058771 
0.8316605778652173 1.454584868660079 0.9887267321627676 1.018536632948823 0.9969263180003575 0.7953357952387139 0.977742590026163 1.394414542317424 1.448137370464806 1.2416944963649 1.430462798883581 1.335692918591178 1.264340711893021 1.340646514000824 1.392320370063879 1.26455125238921 1.367031175198634 1.373012832266946 1.37383692606511 1.366901723931015 1.358057325752617 1.358424357916545 1.374399704621 1.341857335588339 1.370744828616009 1.371510056617709 1.374851137626613 
-0.7688619263595874 0.2824558072045334 0.08317817853944037 0.2603559026624482 0.2521207129260836 0.5191616246892091 -0.05137002093622325 0.1371225205073801 0.1228825261772689 0.1924779450818749 0.05514886157219844 0.0197294114826794 0.04094857754189778 0.1064179790286777 0.09047823476734443 0.08063919898881117 0.06539488034293406 0.09837812924668311 0.1107035185482169 0.09963030573345481 0.0684382622771935 0.08271546425877349 0.0972644489416844 0.1166797698594395 0.09991020436597103 0.09954441410050494 0.1012841643638268 
0.5760561477654241 0.3488758607901103 0.6915067991821578 0.8657784273536437 0.3947008732007127 0.9293997694574018 0.8939773183002526 0.8818927195330237 0.8114413177012935 0.7899253262938345 0.8493060620646 0.8622607049342419 0.8193204996181558 0.9192327228890121 0.8642296650917304 0.8517681372765149 0.8801824344054422 0.8718544745946569 0.8824503825281947 0.8828092606504312 0.8554326062571959 0.8945528100903613 0.875439101952439 0.8880290419826006 0.8822415147889578 0.8810520570891053 0.8841134789017866 
-0.1863133573683804 -0.03083715492410165 0.4706173407778143 0.5157039256914384 0.4601967486096836 0.3793403431397364 0.5369958984188897 0.4756168887089695 0.4048858742438492 0.4492250510681285 0.4524936897457416 0.4650066426272859 0.4183722580277724 0.5317396410422389 0.4521858762597878 0.5051479858877028 0.4938456164824379 0.4093297937636727 0.4535339992206512 0.4541155203343474 0.4255132268995078 0.4621385941797193 0.4496215111069048 0.4437224660352325 0.4523824989569011 0.4563999217569209 0.4546328180397867 
-0.07018653318158499 0.5916592284341258 -0.4679448227716271 -0.0839162018440363 0.1469957689757207 0.480574414074288 -0.01454449401792813 -0.03189324112383953 0.07833812017118714 0.1234907452201048 -0.004455602663161385 0.08504189117298037 0.03370139239837708 0.06987348950847716 0.0675870100073894 0.03186372980123758 0.05072688729480648 0.06959974534901651 0.0452991543478025 0.05927772732047037 0.03326124996618662 0.0570489319929578 0.05847328772333119 0.07129747967690984 0.05680173195100369 0.06210625128907757 0.06247894056085046 
0.9278410852438914 0.3665308890393235 -0.6456709383122641 0.6690201732146015 -0.1082829325709101 -0.0258543696874444 0.4566090824684858 0.4229860486992275 0.3729938322230454 0.3699950133646286 0.2284396799178095 0.3333988203180323 0.3776792760029384 0.4614462704944232 0.3490864632921927 0.40453337008572 0.3744422112313652 0.4099280347688006 0.3428960874419232 0.3567886359215378 0.3494139652501265 0.3740020793124901 0.3521703136233171 0.3515235122897944 0.3559077704532585 0.3564378348701426 0.3407887036738901 
-0.1429429450677664 -0.7956137407742784 0.5956587251743392 -0.1541373655896009 0.2557796299483084 -0.2818146924000766 -0.08702950931942485 -0.2300284105931034 -0.1507993613697504 -0.0833945797163101 -0.1663624654823235 -0.1687493136407051 -0.1024623945237904 -0.05701081228140897 -0.1218276907110354 -0.1621478947597458 -0.0855770186009308 -0.09452638930087361 -0.1318354495077782 -0.1278793969767178 -0.1667384927453154 -0.149987235148098 -0.1323668506137447 -0.1251071179891379 -0.1291664614154089 -0.1312213296162761 -0.1318450244686953 
0.05706578918478658 -0.6203600188621705 0.0104461850700942 -0.2426586267367365 0.2657858318720837 -0.7048378065283942 -0.1350347471507418 -0.1484191047376809 -0.2851832533974878 -0.3139930790436661 -0.2513182098885614 -0.1911110733221147 -0.2133271054867744 -0.2856091206360801 -0.2522169395322923 -0.2732761397607776 -0.2484116528447787 -0.3192514489322588 -0.2646273521305241 -0.2531342785103488 -0.1306318928968279 -0.240055367647088 -0.2512321993285485 -0.2429245689266904 -0.2578864728078478 -0.2552046663848813 -0.2418951644345136 
-0.1425932008195018 0.3146285100176777 -0.2305844733357399 0.3402252235404462 0.3771948868307736 0.03366688418655896 0.06769054666240823 0.08503708075351844 0.08813481640117127 0.1252956156530947 0.1323348440527858 0.1544891320081199 0.1232206271515014 0.04878625382671688 0.1067154636603193 0.1447854958726814 0.1552831734295491 0.1453044110806408 0.144955295385739 0.1325030492277903 0.1253454545557182 0.1265021927986605 0.1336230481374062 0.1284756374631387 0.1339292932760775 0.1319867771436273 0.1346879072555058 
0.04908076799813862 0.356554920360227 0.6991623256701185 0.749454386800493 0.9659628869747097 0.6528248511634438 0.9767635995032653 0.8841832109509196 0.8994748223465187 0.8230002225914533 0.9625414938213104 0.9383997927205989 0.9476206404316925 0.8372638493409753 0.9271775739454565 0.9043148241020373 0.8416487649907219 0.9216160043008506 0.8709914840142172 0.8984399459064998 0.8736105046250247 0.8947049420753174 0.9009904364217821 0.9160731646519661 0.9019465158831305 0.9007232887212814 0.9059309326026728 
-1.374160860269857 -1.161910012639016 -0.8167396525556289 -2.111416468330337 -2.288568033209518 -1.510348652307301 -2.203790500190114 -2.110288431892963 -2.197647869251597 -2.055577609525533 -2.024559441862825 -2.167186664899078 -2.198264222132861 -2.160258380657256 -2.23390052420567 -2.079524918927384 -2.213044041988367 -2.28517755309899 -2.22527828519707 -2.214743311606183 -2.237128212564255 -2.238518628151975 -2.210231818879691 -2.227296071612229 -2.219058465821181 -2.218905103658269 -2.221276256661849 
-0.6898437347222615 -0.435767818313442 -0.7536799167072457 -0.8350717992399332 -0.5606074358321537 -0.450276854983538 -0.8061180070635605 -0.8513977220175575 -0.8831466532930001 -0.725100561345977 -0.8927245920645244 -0.8366308545242087 -0.8410377803074038 -0.8532522275662162 -0.8480518491943733 -0.823759519081498 -0.8886473346676667 -0.8613920191314205 -0.8959221034817845 -0.8619759274045981 -0.8530244824563855 -0.8571001270902596 -0.8573107892358686 -0.8612468673850937 -0.8609368134196146 -0.8600338259966834 -0.8648800758394996 
0.4762879757411759 0.190817563865991 0.06077678664741048 0.3699854085318864 0.01993087994996936 0.1625668439202907 0.3977459444705079 0.4333672118796071 0.3157116894212704 0.4160993031094554 0.3716709667597328 0.3777320142732962 0.3053638403407998 0.3635331916675554 0.3285547728563262 0.3826996990116516 0.3966623566171933 0.3446007443405282 0.3334798730745088 0.3465677467758373 0.3554843055972297 0.3305299740100544 0.3453251036541092 0.3522563565046818 0.3499934188816292 0.349026010560246 0.3521746599111806 
0.487048475008076 -0.1114206995819702 0.4243255096463325 0.2422327473805232 0.5293620954948142 0.03555309818123448 0.4528972594098167 0.4245712787425607 0.4525736211777386 0.3680359878293858 0.3728579169763584 0.3490542423755019 0.4546636576438003 0.4434772487484216 0.3962753688981163 0.3345842906012574 0.3728653004648789 0.4413626931026581 0.399431253121751 0.4133375974755736 0.3997308108113249 0.4100594269687969 0.4135264735240191 0.4087267752487264 0.4177119552561637 0.4152956049726806 0.4163976859751227 
-0.05974622031069285 1.275072317560668 0.3445230613254833 1.05062203144016 0.8846989933291427 1.632111033847579 1.189727504760153 1.23085136410832 1.181332643298924 1.148873939823687 1.174804842713016 1.15027295969238 1.217143102034134 1.155928585065513 1.214684578446163 1.24908316456278 1.16750687988268 1.201069219401603 1.186315017999063 1.208724003950396 1.219947427645987 1.194280275293865 1.211517078027487 1.190252279442558 1.211104964200781 1.209375284100349 1.210119342038406 
1.10715886173675 0.7442694275796022 -0.215449645926053 0.1162816785511489 -0.4693281526842224 0.2792133216793147 0.2505119381096005 0.3623011528031884 0.3409146987999861 0.3693989927899896 0.3852710591531572 0.317062930003195 0.3717821984155459 0.3960546527193765 0.3354899749970904 0.335733069883548 0.3198551710765085 0.3626142000249302 0.361257244439093 0.3480183207596675 0.3598103224433541 0.3577830853762338 0.349724384491791 0.346678232817735 0.3496676606096658 0.3490000988421643 0.3461793112888676 
0.002804936061915824 0.02649313288272525 -0.2247204133099729 0.08138750587718938 -0.05938272610597667 -0.3630273615986442 -0.1772881751954365 -0.1059728373629389 -0.1591034587274082 -0.1869835948821841 -0.161502464661174 -0.1397566488822373 -0.1581439597424487 -0.2727550942685461 -0.1986925421736335 -0.2476613915421555 -0.2459170925227402 -0.2192770149565852 -0.1519953358217735 -0.1715478917386359 -0.2115008622487492 -0.1880284602348206 -0.174189199122167 -0.1927241008434998 -0.1680713228475539 -0.1684294346902316 -0.1849127108047194 
-0.6962066237379412 -0.141815413464994 0.6199634458879868 -0.01719221338007749 -0.008123676246509171 0.2758070270470815 -0.2769376298921827 -0.2060396545714397 -0.1044821437557222 -0.114491195225274 -0.2131039795346996 -0.1095366822650739 -0.08941426843998862 -0.07617119013789851 -0.0886372901027082 -0.08095950527579655 -0.1504486229569687 -0.07769783035610654 -0.08622240029006574 -0.1022037689747203 -0.1757949081532167 -0.09444189137882136 -0.09622314952360599 -0.1063763438742479 -0.09987827047863149 -0.09788088856804246 -0.09582102367253102 
0.5958046968308892 0.1164281299074641 -0.1672101942217668 0.4210053494834234 0.397650842055968 0.7715649877398714 0.5613194811853703 0.554267572215705 0.5495907514323867 0.5105439638152527 0.446638536452575 0.4952361585436666 0.5699824121267804 0.44874345574281 0.5179624585816248 0.5310259800325549 0.4651295917273142 0.5398155403272318 0.5175365361540507 0.5159504277154409 0.4792823623022801 0.4928482407993539 0.5146833643070409 0.5190482675844521 0.5153123217857419 0.5191784903028472 0.5132167764977218 
0.4440682939930297 0.3943623333802103 0.3013384580655222 0.3399741587223923 0.1977038904970078 -0.0464408434368534 0.2929377802671719 0.3548796293651441 0.3945119878960501 0.376806950147569 0.4388795477762173 0.3415436211805776 0.3735567127425501 0.30824337273609 0.3825133366852766 0.3363936086021184 0.370018000023193 0.3634126839263097 0.3976148694768867 0.3811352452496562 0.4764937743413267 0.3977731228845932 0.381129794550547 0.3715947122643947 0.3850808243781862 0.3807426656731435 0.3832804414758857 
-0.5268535030375916 0.4335093599821834 -0.1111747543691976 -0.1163562064826533 -0.1181303374838189 0.1399504493679118 0.03803967789150411 0.01262157943478632 -0.05125318032696069 -0.01450155225415427 0.06646990519195287 0.01060494589755218 -0.06079095947665707 -0.05847492296220028 -0.0281520251119414 -0.08103668974616639 -0.03152738511667796 -0.04347513049161703 0.009894454883960705 -0.03283140456182256 -0.01355783152025412 -0.02082654856382679 -0.02939522405156112 -0.02591281217430904 -0.0345031325756784 -0.03388858116723759 -0.03166123514489638 
0.2307395021635781 1.051990860698176 -0.2439465737861616 1.303340502331721 1.060199828373791 1.177360151332692 1.192844096580441 1.233362289598467 1.16565521712821 1.267270915054949 1.189653116075472 1.306200462770911 1.18107740764546 1.264158007504533 1.189490618526227 1.148926482038337 1.222464581293353 1.179171751819455 1.179286762348277 1.184713986652766 1.270687287428757 1.179804731854735 1.189901570413334 1.186742182551249 1.19091249888813 1.188446924443773 1.186332883702796 
0.02745901623703586 0.1358492746555316 0.007438335235746846 -0.2928679311375917 -0.4142941397357843 -0.1808065290742989 -0.09134343591500731 -0.1456404919360469 -0.1254073597834401 -0.02121472434624629 -0.1287954171583068 -0.08924942017238424 -0.1796171396818231 -0.1705088970605566 -0.1458497534657844 -0.1348399487096872 -0.1068607445193494 -0.1566336437858809 -0.1561748514051885 -0.1397516596888468 -0.1975442234432362 -0.1544144233685511 -0.1409042726058963 -0.1256787881830041 -0.1341957756518386 -0.1360016605958631 -0.1373806301539232 
-0.07086616651639355 0.3047042835480276 -0.2612880967118388 0.4308153260499078 -0.1477176074253912 1.09042604498763 0.5326790417642623 0.4387607506125377 0.4307326327265351 0.4577311202020284 0.4176583899391725 0.4930295853106532 0.3710741305615708 0.4219115226024485 0.4505439492658207 0.4522203714854758 0.4567612637506019 0.4592620735823363 0.4404257082190154 0.429523827003597 0.4640700659675983 0.410055055441935 0.4250672477972476 0.4327159540002136 0.4324210109607771 0.4325256376076518 0.4370950849326316 
0.07794342288668218 0.3666057663709399 2.221988360325668 1.712973950195882 0.9248725292745682 1.011956106630219 1.09864336326233 1.562635624227661 1.501979524622712 1.501792331765994 1.538202741863641 1.45685694830889 1.502365064537225 1.503920704130664 1.480193591299025 1.507324704252731 1.469822782619427 1.480242242359214 1.485751075346648 1.503975544492845 1.441024501444817 1.494812538616425 1.494987074776999 1.49705617217009 1.498121861805169 1.504886384265562 1.502953479045966 
-0.006968988657782529 0.3679539139759112 -0.1531745009159751 -0.09863388287264514 -0.01069354970076783 -0.8378730209527919 -0.09129960412549626 -0.2170260952345045 -0.172892457787537 -0.2372394673089142 -0.1953790509282822 -0.2843062060297152 -0.2059588254544986 -0.13633444909522 -0.2057852625739179 -0.09272344462466427 -0.170369536720256 -0.1878957662675464 -0.214646387745902 -0.1866881751282561 -0.1806756162344927 -0.1755620358333775 -0.1862863648126484 -0.173274622822074 -0.186555902012107 -0.1881310036349363 -0.1871891486147631 
1.380158146911043 0.4652714384761445 0.8483217277799298 0.5978374865189583 0.1167654652388352 0.2081168178090441 0.7930041465933354 0.7465005710928962 0.7771868999534551 0.8133221243501629 0.7643451539319605 0.7083234396779107 0.8265954144803963 0.8527680465253449 0.7958888761792621 0.726433158668873 0.7670695842138745 0.8005044205371692 0.7921367696633869 0.8150029620653368 0.9394641426351265 0.7996776854002635 0.8035087371531142 0.7884110482952922 0.8122563776239461 0.8085058170445243 0.812523959873642 
0.5377813050320391 0.7565569399364545 0.2543803214489605 0.9583139001172848 1.140635960207527 0.5736183041246243 0.9660450007250151 0.9480306927758162 1.007973625881325 0.9362841759218584 1.001957754311182 0.9917986061024053 1.044258689102964 0.9824954393359366 0.9859280646120879 0.9714471885714512 1.072440886519376 1.018731773924501 1.032392857213761 1.013532837071909 1.024395000306979 0.9895243713320396 1.016254460799023 1.006468522654739 1.018272405307374 1.016974227173003 1.013864980553606 
0.900721315136881 1.427565138000988 1.452677616040914 1.803346841309607 1.182029372113623 1.451220517285008 2.012049099626686 2.055651528841256 1.965110627330359 1.968810665839148 2.028509531026319 2.044695116888875 1.968840607515938 2.008174182599726 2.029525433438045 1.945385232888441 1.979754951890121 2.024679134047306 2.018335611793578 2.018864501461067 2.097672135977016 2.004905610766506 2.017083194027292 2.009796038045084 2.018889864393662 2.015302308525767 2.012847300823767 
0.001963657390060627 -0.1098832903461387 -0.09080333599276226 -0.4332607859253301 -0.7218309878451936 -0.2385287555471298 -0.4092660245436559 -0.3711308407222089 -0.3874365516759851 -0.2953165337491221 -0.2943036558204021 -0.3759391090645888 -0.3676722944484823 -0.3938344855787464 -0.3919812514984459 -0.3923286897336354 -0.374907734898315 -0.4179390659460048 -0.3903912563840986 -0.3879552041692133 -0.3788704983925295 -0.42587092414575 -0.3852491175499045 -0.3876826532448883 -0.3869403917133628 -0.384707915681335 -0.3887798779229903 
-0.3992749451163862 -1.690338299824944 -0.9123865594385646 -1.616213023877206 -1.431172034565006 -0.688495646462115 -1.503245125408154 -1.710632913304688 -1.587288532846043 -1.47980771347241 -1.570625502310796 -1.544181923021303 -1.690554459252986 -1.556375481760305 -1.624949329758474 -1.585925345071635 -1.580550945571941 -1.643401518154105 -1.616580892828337 -1.616149232541958 -1.564396287147749 -1.620397973549997 -1.612849590931004 -1.597793511418 -1.617771979776794 -1.618359095869726 -1.614318638014799 
0.06237813761050048 -0.7187141975940549 0.8868529314040672 0.3258075545983264 0.3428258069892573 0.9100639946066118 0.6258062108404127 0.4820865030918796 0.4947773731324354 0.5232882437249003 0.4662466592549467 0.5133911253866411 0.4800469767077598 0.4746158442415763 0.5161847452794204 0.4731153291020389 0.4935254342522946 0.4825769848392573 0.5261711378459085 0.4925315007842184 0.4438515538906361 0.4895290038408741 0.497127013155081 0.4886024795169451 0.4953023438290805 0.4983276589938017 0.4930791295220371 
0.4183803556114251 0.4916042368645275 0.04419489327264534 0.3716534690939196 0.1115676630533359 -0.1754455017478495 0.142376470918435 0.2796529991783152 0.2605811928051525 0.1496533563499871 0.3176012894434693 0.1892925927409897 0.3067821299160959 0.3209068256042412 0.2569328363611746 0.1845159238313861 0.2419050296944544 0.2498667671235132 0.2675168929070052 0.2535407544268009 0.1650250953133715 0.2600941781808083 0.2502463470437303 0.2600095756486516 0.2526841368762447 0.2550632843822903 0.256587125448561 
0.293560282422434 1.647167600229513 0.2354272230398887 1.359046472126297 1.189203918201042 1.060650806393983 1.303075274483178 1.368600724961115 1.464823864531737 1.213207744027722 1.430112024999181 1.534610565758595 1.445680108554468 1.439936568001582 1.451172436140595 1.476367161391351 1.443799511752279 1.441628963167428 1.441915152229454 1.428898243272144 1.446105183092199 1.407167230667504 1.426222893662384 1.451744464009403 1.434914378664689 1.433999783981827 1.432002437652164 
-0.6933317882718364 0.3519645601997226 0.3012431133432254 0.04297293519677955 -0.04842595206791035 -0.6097650132168289 0.1169553298058673 0.06670743581522762 0.01264503375558157 0.1043944545918756 -0.04930512554578911 -0.07636743773073083 0.1024249874919016 0.04918998986999847 0.01922368621705249 0.1115901178003936 0.0519285099586128 0.07523702008831949 -0.00513718631109987 0.01439181699957961 -0.009799561222124661 0.02387760440656187 0.02306634129282813 0.03696542819670656 0.0178009974028441 0.01517913802525198 0.01606809173872284 
0.8956378239786917 0.3781692638830179 -0.7411545807816543 0.914335197514745 1.256145206978248 1.440621202727477 1.097345409130068 0.9717626417496338 1.065579400197583 1.112605451753038 0.9996796591745389 1.060819167006062 1.042769066586132 1.087083377792889 1.04444550300741 1.084877372421073 1.011644512554292 1.073524612082777 1.059318281607967 1.0552509838966 1.02687282765401 1.066815227931261 1.04843648856815 1.051787547541301 1.053609402160865 1.051113964526332 1.04819308019301 
-0.566908573643509 0.5124959823112463 -0.3663503997655959 -0.04039450046382431 -0.1732941504390441 0.7531665902983126 0.3703114257740634 0.08473401140394118 0.13002806027369 0.1830526976825307 0.1368425499959496 0.2082847158109158 0.1308178836120726 0.1205838991580995 0.1270214766505271 0.163900778206618 0.1637939437507777 0.07548262842300692 0.1247821145360064 0.1179579605045298 0.1157173268712868 0.09387569556445897 0.1106182377624344 0.1355491642012955 0.1160167514444465 0.1138229645997044 0.1302362843367274 
-0.4924339234013042 0.8400112039998945 -0.6679941576760461 -0.6351063621012382 -0.5183112502143844 0.0444128168981897 -0.300802529610725 -0.3148724577820261 -0.3386403941578001 -0.2535200320771425 -0.3817873515203709 -0.2858287974786011 -0.3129066411521083 -0.3562300999996837 -0.3116859949880006 -0.2565565281794323 -0.3280185412485996 -0.3286581015432596 -0.317343833520824 -0.3221751526152178 -0.2969500164306511 -0.3320979501823157 -0.319375001970184 -0.3248616841085908 -0.3218627061247566 -0.323971673878313 -0.3202582618214942 
1.181194047590267 -0.5547962995205831 0.8033498639642317 0.9586709612974429 1.03082383307448 1.281133401473608 1.156882070618459 1.085549435810704 1.204592415038715 1.168784810915965 1.135609382435131 1.125005348810181 1.251067614730813 1.289177521848099 1.183567893965482 1.247379137504518 1.183402503532436 1.17995133938809 1.219864310860596 1.203727668365513 1.201382079930131 1.201411710094818 1.196212485902452 1.210787759464169 1.195538504692346 1.19861802333949 1.20215959986543 
-0.06563378758498864 -1.361182519262406 -0.5913071362108198 -1.044763205311618 -0.4405179377354119 -0.1149849513096257 -0.6415412634139992 -0.874825201807288 -0.8332046947391877 -0.7391377022800191 -0.7715681115729678 -0.7970131716525188 -0.8459973815149721 -0.8441829759777201 -0.8256153119870631 -0.8377813252599091 -0.8201624885008464 -0.8093328562730846 -0.8240736265619019 -0.8305997516226029 -0.7894069191912872 -0.8399307114067635 -0.8329287808543507 -0.8231968821770668 -0.8259865083267349 -0.827580575763557 -0.8261831109569372 
0.8801027246109618 0.8395515106030438 -0.3618039015913797 -0.08987694052284748 0.06102734871200299 -0.6126639168235357 -0.1238138713090318 0.1418659998604069 0.08863205722891561 0.1297978719476303 0.1173958139078489 0.1353116723972739 0.009143368928621996 0.07931557303807218 0.120751479303828 0.1448084834386966 0.1125254331140449 0.1220553298070016 0.09702764426809508 0.09792795717408302 0.08188272170102667 0.1033120646837646 0.1009077849131441 0.1030274546940378 0.1003201116865565 0.09959482873626735 0.09709017085091291 
-0.228300435531168 -0.6927126972423431 0.1693336529615356 -0.2128338563893468 -0.5635630005934882 -0.5431523257193005 -0.5272582856692819 -0.4578059441770709 -0.4802818470438714 -0.354203469974595 -0.4580380496052199 -0.5420230123314563 -0.4696733123368032 -0.4217053023270675 -0.496877886408443 -0.4393881553121635 -0.5353830530718324 -0.473872184618242 -0.490521094148018 -0.4876340489094196 -0.4317458515224571 -0.4870206198242217 -0.4843467106712742 -0.4861207430786788 -0.4840093776941514 -0.4835568568768042 -0.4845654355607035 
-0.09999289864206859 0.2479889332785041 0.5499449684450962 0.2094328058843806 -0.3066072734194366 0.01632925058967075 -0.04341262046355523 0.113840178828829 0.04554254424253111 0.02755522425010694 0.1127943279890522 0.007884634193758018 0.01864720799829973 0.008012010326026067 0.06611840878775084 0.02234594951843172 0.0692181944261521 0.06352907364030941 0.0581446086436284 0.05325590302956308 0.07809639174329197 0.04820427929240231 0.05562772468033163 0.03721980702093083 0.05900636661176695 0.0562017066935948 0.05815928433190178 
0.7148443811524705 0.3756798862525963 0.4628739816865865 0.8932932866776115 1.273551513301192 1.240431673762652 1.060967170123275 1.046238854539957 1.212741234622555 1.073048199163969 1.287664501697584 1.180959443460516 1.131410586948211 1.258445912167557 1.226229325642555 1.188351917113585 1.185633142737397 1.239421446946629 1.21518510911365 1.20648079587297 1.264881112199864 1.226345356812433 1.195157474771046 1.171419422775478 1.201600814240159 1.200536153151027 1.186300582177385 
-0.9495948144944858 -0.1244729805160965 0.004196321007068732 -1.142651797461286 -0.7155319353664701 -1.514868261452029 -1.296462552743112 -1.183311040248034 -1.125055041302121 -1.195069485959032 -1.184993110028979 -1.238123731986597 -1.135275433710315 -1.080235180913838 -1.15914071732591 -1.028845937840226 -1.176473777348208 -1.157024549864381 -1.155401211590668 -1.160840533682657 -1.136955389842664 -1.14476032707897 -1.161706085728011 -1.186908338316998 -1.163485731439162 -1.162962840855434 -1.152671606205111 
0.9900583572140166 1.42637252903197 0.8066410334297707 0.8305236468310772 0.6897281233526213 0.2392171915928612 0.9851599280352457 1.203217963258147 1.133502722162563 0.9452577872955046 1.156741737117656 1.115779041486063 1.049243817076997 1.09072564275972 1.117643558832059 1.136575905747516 1.103803287788135 1.114194281932544 1.129952182509184 1.114550286380957 1.098697717598488 1.079853173392406 1.107889826747523 1.067854509146628 1.107918799784005 1.110853049152003 1.109177264883171 
-0.8000493313164266 -0.8022637967121564 0.3174815990539612 -0.8309711351375801 -0.5512692321058904 -0.2754101902352812 -0.719197261269705 -0.6304418473645236 -0.6974791115651086 -0.7136921225184085 -0.6658623714444988 -0.6456342244465437 -0.6910124544822899 -0.712995412743913 -0.6878752215123103 -0.6790484083180274 -0.6872515191992783 -0.7319042872518527 -0.680878884080882 -0.690964749111497 -0.738425157134215 -0.7043098054321725 -0.6898314850598438 -0.7080332393939743 -0.6938193344877681 -0.6965266672467767 -0.6978878120785316 
-0.05339120273734555 -1.730150238570634 0.07258228786870881 -0.5095842274335203 0.3001044201229447 -0.6564379465213738 -0.713876862825336 -0.5264769803955152 -0.5313340620550397 -0.5416684351118572 -0.5772941860289593 -0.4773025989113671 -0.5379450301411413 -0.6133696237946373 -0.5464436440002558 -0.5407700193224592 -0.522368506078258 -0.5817660822012837 -0.5493374713603508 -0.5568789151068295 -0.5141135079795279 -0.554183774429851 -0.5654597145844278 -0.5543829068014593 -0.5587292380195464 -0.5588922754735814 -0.5545234089360083 
-0.02999708222886649 0.6889330351038616 0.4313428176707521 0.2408275901881032 0.1954700282117752 -0.5942764248260958 -0.05543578153829888 0.2004248642561644 0.1545840105089115 0.2086714992649713 0.1742146247143163 0.1988707935049039 0.2510972242261504 0.1154420933384654 0.1717532412271518 0.1802137886176629 0.1632532873848813 0.1766092065230973 0.1704174196059026 0.1745224543920449 0.1004943713483855 0.149238933307232 0.1744339139733551 0.1779116415852504 0.1752040615885781 0.1732750181427661 0.1699739713013236 
-0.1971210281426201 -0.4551662115327211 -0.3145388340841824 -0.3733726042381244 -0.5040594564689131 -0.3560551399041031 -0.5032904809039691 -0.4908173847205721 -0.4944320339245346 -0.4381014353127964 -0.4698725093037448 -0.4754951419464857 -0.4891471739127767 -0.4729080875570484 -0.5079229509467593 -0.4831695276975646 -0.4276808321317229 -0.4916001534054272 -0.5056002674442239 -0.4958520984269641 -0.4516024032556358 -0.4946225813042749 -0.49929826402031 -0.5012271732251078 -0.49317604402501 -0.4944120771956034 -0.4924471602692748 
0.1597810252940328 0.8954265806227325 0.04469223795682224 0.8325716798402882 0.6473257436061205 1.199537671345754 0.8259522382696532 0.815014611646615 0.8968290245548294 0.7223451794034232 0.8745505188050842 0.8171888173639165 0.8725226791978646 0.8716987509651344 0.8664088883769129 0.904339338313525 0.867870631282102 0.9086165415316079 0.9127008876064724 0.8838006620016624 0.8959778209819984 0.878178543671859 0.8829212720732227 0.8757609932812759 0.8842969621414842 0.8862340372531933 0.8841737705261142 
0.2467845651261529 -0.3317893994723245 0.2825873164040435 0.4434375146319575 -0.08783856124532854 0.4171400180797876 0.2055693128124052 0.23570715885031 0.2905121720982528 0.3468819692071273 0.2750863326618322 0.2608515622507313 0.2586593550352765 0.2140999408824003 0.2667338579177878 0.3227387821529604 0.2405577726933242 0.2517558987307744 0.2564732062043129 0.2617118355136294 0.2984855107510289 0.2641756456160942 0.2682568659515294 0.2584345081486584 0.26459297157761 0.2644764100336859 0.2615042426820865 
0.2910467142685714 1.147716528038531 0.1274890369121601 0.6098512041436408 0.6595088770860198 -0.06241866920031308 0.3918024535739813 0.6266329464455914 0.6355618138988566 0.6419632317309401 0.5938976061474985 0.6166218139451251 0.5956743530073091 0.5947424953806913 0.5955413650454201 0.707112779568518 0.6011174506574385 0.5646738646311585 0.636885905114949 0.620159429478515 0.5957104056455521 0.6323625866064849 0.6205960343105115 0.6141422099014456 0.621769460840243 0.6200114686895691 0.6206923087729802 
0.6992643099874771 0.7545976300147228 0.2548709519328466 0.3314787256277928 0.2401639086618647 -0.6019651160784776 0.3956526643245633 0.3866642493556347 0.3050153816135295 0.3445843199089322 0.4099797067423088 0.3479495439302692 0.357590810173184 0.3039728537200015 0.3704143896869904 0.4259271863669266 0.3283832869722474 0.4163441525138244 0.3998920102557073 0.3767397986194119 0.3914023801119645 0.3784170330923418 0.3789771576664827 0.3801021567370884 0.379655529786092 0.3776106498499182 0.3836523906209591 
-0.1408928572040429 -0.2326660172659917 -0.1362423087941796 -0.4684558714910642 -0.2316538123605718 -0.4908561024415969 -0.3111035012394628 -0.403521136125061 -0.3835345606003923 -0.3709837999119011 -0.3738648242974782 -0.2958200603091477 -0.3445927319301945 -0.3501347053933384 -0.3713498656502021 -0.3992923498329824 -0.3923648582566348 -0.3183631629229944 -0.3470988622238982 -0.364998446450281 -0.299806011223179 -0.3675609467758792 -0.3588690356809998 -0.3664783140843846 -0.3643274889334818 -0.3646883173113113 -0.3671435972764307 
-0.9776003201453192 -0.6914071595069295 -1.141580324754156 -1.019883782105737 -0.5506844787791964 -0.5817916936598231 -1.116364753456917 -1.229781400529721 -1.093915985894436 -1.031482541621802 -1.003807415700019 -1.051750076375034 -1.14722051009749 -1.090106930931832 -1.122361576908187 -1.123876136583994 -1.111778254469362 -1.147072738875977 -1.12769069453286 -1.132932197982001 -1.180757918464075 -1.110371705551618 -1.141129474948337 -1.115134022386537 -1.138894343461142 -1.141098796218377 -1.136777839860043 
-1.003056192933941 -1.027857003803248 -0.11841667318401 -0.9881811060322102 -1.103793741373514 -0.5262079337565149 -1.012425618231043 -1.083399976438635 -1.125946440512561 -1.070571030866254 -1.031452297908734 -1.054714808062091 -1.169653643528685 -1.113111132170264 -1.107169173808981 -1.019416118725518 -1.088431376128179 -1.106084503960644 -1.076868393995565 -1.102217185088338 -1.022825488857026 -1.08757822832374 -1.106190130431896 -1.113203193600398 -1.099628497499766 -1.10290221189158 -1.102330924182717 
0.4941464114976078 -0.4228482704834187 -1.281450066725893 -0.8730824998924743 0.1183738356611152 -1.069103054014586 -0.7013846077508908 -0.672434275990104 -0.8398752820072903 -1.006628073006611 -0.8196052769574883 -0.819537393343679 -0.8322522397376615 -0.7252428472995643 -0.8134702421203486 -0.8783931794756942 -0.8288795658718123 -0.8529586271100561 -0.8242928912297697 -0.8103955281598405 -0.8654131836484423 -0.8042702361781391 -0.8159425849330809 -0.821699702516386 -0.8169475922967048 -0.8164509247227406 -0.8075106604335103 
-0.2684096643318393 -0.1218902254068583 0.05248915366351768 -0.7968584573322327 -1.120309382541898 -0.3944753548063359 -0.7756544753430239 -0.577304380840917 -0.5757500791082959 -0.6222640882032914 -0.5717047148853037 -0.5662221544180922 -0.544569013654439 -0.59219009748702 -0.599814268586626 -0.5008640292036363 -0.6076891893826639 -0.6117564067464506 -0.5921798271576323 -0.605108446796632 -0.4977869282491156 -0.5818815906293814 -0.6058710511236575 -0.6224235924743043 -0.6051014389366832 -0.6040797390732683 -0.5961375687277405 
-0.2244131596166467 -0.8505594936004381 0.3951348079208777 -0.1032482323499473 -0.0967208554318167 -0.2262562513900508 -0.3230693683710601 -0.2488447201363806 -0.1984760249872048 -0.1394096074124162 -0.2142763806990523 -0.2486903567712122 -0.2358818650664921 -0.2457376932851781 -0.2383401723337278 -0.2540558697609653 -0.282140328411788 -0.2322398312468579 -0.2149508257435472 -0.2304274836834614 -0.2290270305895615 -0.2353419352824404 -0.2363043844802369 -0.2326731110130254 -0.2344823359261128 -0.2325186082619191 -0.2361503745214735 
-0.8771267099355727 0.8312515062191497 0.5996691132238173 0.1467976946228219 -0.5713477281650978 -0.2295140418200142 -0.07853326350422066 0.1079062256025547 0.03034471999625083 -0.0394928130653278 0.03311447582460433 0.09095383508949269 -0.006262586556787914 -0.01095379588948873 0.008861406722565045 0.1152604046424741 -0.005072801360641151 0.01943650254833231 0.007244654052532926 0.009587140078376983 0.04482677598779529 -0.009947726194654376 0.00874924844776517 -0.008106649605234151 0.006875257658506551 0.00737084906406188 0.01093132336617704 
0.4123935066001903 -0.9705318162690312 -0.227468077460154 -0.323780610617412 -0.6088750103581716 -0.83351133200004 -0.4792560294242368 -0.5026299971697161 -0.5244794044622079 -0.5051550313850127 -0.5964500359105109 -0.5333358321852374 -0.4821013491258282 -0.4718881005896009 -0.5464296805777501 -0.5565033174096841 -0.5105076088496004 -0.5415565724110184 -0.5998326699329799 -0.5533513525781426 -0.5604898851713368 -0.5573959675193909 -0.5525701169230778 -0.5233365658524763 -0.5518858276045517 -0.5507997531413626 -0.5531995282180553 
-0.2081526835532115 0.3629845687171518 0.03757790494327779 0.4996073299616619 0.6832396183139737 0.2247385421940511 0.5621994202975501 0.3611206464084341 0.4395050558745515 0.281680007401245 0.3556168757892367 0.3531414518631605 0.4499472318879265 0.4539478044248557 0.4096950273056518 0.4811424030394218 0.4476591711908318 0.3775384077613798 0.3991241942608406 0.4063627367158561 0.3919637368870726 0.4110486067320648 0.4107657322707188 0.3828615537339383 0.4045366399647788 0.4066803252057471 0.4087443161680029 
-0.301036503657474 -0.610216585039892 -0.331650436909042 -0.1901853947406804 -0.3297157200855967 0.7003977941549789 -0.08919527186121883 -0.2139943002186304 -0.1162555653706012 -0.07824948490710038 -0.06069023963286517 -0.02406298988287667 -0.2043967800115549 -0.08485267455609251 -0.1358752212728107 -0.1991458071510825 -0.1359873755881352 -0.1768253344944764 -0.1492026654921277 -0.1422186835894561 -0.07146465566945515 -0.1518791280747488 -0.1437742459840499 -0.1531880808527206 -0.1523071371260699 -0.1502683148903873 -0.1503362222295839 
-0.2191923109048409 0.01518270356825223 0.3367474668934915 -0.4245205901245507 -0.5007651226763555 -0.5843596771760173 -0.4932453253419142 -0.3647797472237058 -0.3448392804985628 -0.4086483023747256 -0.3520444729569138 -0.3188661353547407 -0.4004038990987945 -0.3481713484131142 -0.3470647709319702 -0.28517385354335 -0.3699138655139668 -0.3654142613529979 -0.3796897971648848 -0.3660975386074036 -0.3725465880471905 -0.3472381509984243 -0.3654040107410357 -0.3644604843635251 -0.3643143476116811 -0.3650102082030012 -0.3649026498667307 
-0.2548873420027277 0.7251695514242369 -0.2173253437207262 0.02071982885298168 -0.2263777492681332 0.06330651596849701 -0.1106175794450016 -0.09379607899923692 0.04909725252482745 -0.01100750161596772 0.01496101551720953 0.08097140858367013 0.0312432114290503 0.01134482302488764 0.0171656182521686 0.01866495064109708 0.04257905229683832 0.005355196985037237 0.02894068210602339 0.007177524083694061 0.01599401575563125 0.02789110161554864 0.00404683389898086 0.003692299871119344 0.005680201458949587 0.005064074004428265 0.004521344517659964 
-0.8271262947740383 0.2167898960927575 -0.7207023803345094 -0.598339349826799 -0.9993870409235781 -0.4580915344551282 -0.6833412991253237 -0.8206192956479951 -0.6217816704968525 -0.7576002287991819 -0.7317226692442448 -0.7662067184083846 -0.7921293847219772 -0.7520119699537492 -0.7409533836595724 -0.4108256515138149 -0.7113431120964281 -0.7209824768792134 -0.7351937951931521 -0.7427549766995888 -0.7754952312126927 -0.8017086176656506 -0.7230284363925075 -0.7740997848965373 -0.7409374161248939 -0.742144127146693 -0.7404944548013191 
-0.5000860894371402 -0.1790011597519995 -0.6254688168456367 -0.1677238064388163 -0.4082183814393506 0.1121421787833643 -0.3391269433227325 -0.3800262355149194 -0.3256298073233849 -0.588997180556594 -0.4632531033803095 -0.4037015158428396 -0.3895640583513543 -0.3140143423411394 -0.3888198230941146 -0.3906991195377499 -0.3582903098741148 -0.3774931924364285 -0.4076621358200104 -0.397340270585142 -0.3324349119468625 -0.4218927624976789 -0.4018874776064194 -0.4145985940720569 -0.3959740296030882 -0.3968508361013212 -0.4019829911317267 
0.6454641283180707 -0.1616797272140328 -0.1622779016819261 0.2088644860659859 0.6296987036688304 0.6948627690866707 0.4818407624920424 0.3945197751384654 0.4524808808930049 0.4169365769103234 0.3722663065141074 0.4152172818674231 0.4125784101758825 0.3030870674538014 0.4333347304493594 0.3081436816867628 0.3759498582530076 0.4467735579368 0.4092425489610895 0.4191703433065748 0.4639234807443092 0.4181912709550453 0.4176085060639362 0.4334480664923651 0.419427214609627 0.4225301503579036 0.4201722919805498 
-0.4817378592176519 -1.326571635186161 -0.6922871251452303 -0.7788617677207852 -0.7048241042176959 -0.8218131883408615 -1.031590985330345 -1.095354725521807 -1.09481679626095 -1.071545306687656 -1.029881324281865 -1.045876694408166 -1.062332034728276 -1.002476112321778 -1.073002074020181 -1.04521833185589 -1.11732703744942 -1.130956148527209 -1.078987732952844 -1.10013593709429 -1.015694339672389 -1.077068256275124 -1.099927325646639 -1.096655799081032 -1.097256772132914 -1.095996876231995 -1.082118976452499 
1.010025947582077 -0.1927060131096847 0.1956405936341979 0.6766740650559511 0.5060483660137041 0.3904665360799035 0.4692683783819914 0.607211151056446 0.6202216777064423 0.4623639131424358 0.5955178610775547 0.5469447761828251 0.5679664729824124 0.5800968040168131 0.5790498314244408 0.5351195204673147 0.5436033386441789 0.5856130898004238 0.5738522579124602 0.5823153358227263 0.563610567536213 0.5826261159754614 0.5825585440960852 0.5918142624821867 0.5805134982023989 0.585793412516983 0.5890985310635639 
0.3870681347777705 -0.01810164087888858 -0.04111929174001583 -0.1655529271463757 -0.1567379808092495 -0.02782358646113267 -0.0931992359838939 -0.01901491910437922 -0.03529997341071274 -0.07878461878369467 -0.08075778564184787 0.009479741701759348 -0.0826208751372233 -0.09556459273965873 -0.0251027885624594 -0.04202614445874535 -0.0705856222994853 -0.07047048184599942 -0.03721206789867144 -0.04191736111861167 -0.02336684152462973 -0.05137276253628729 -0.03900827579424904 -0.03588077700469337 -0.04067712050218395 -0.03961606305096253 -0.04192333997853317 
0.01698389543822209 0.742862353687488 -0.933032636089154 -0.2754284207315708 -0.7889315730163037 0.3749213553828176 -0.2826231309427877 -0.3271502346209636 -0.3025205117885509 -0.2622099390977845 -0.3250551173483531 -0.3441691219100155 -0.3971520967829602 -0.3241831319455849 -0.3415778652575007 -0.3413998566248571 -0.3396377440438871 -0.326474318531819 -0.3480435462597824 -0.3398420802552069 -0.4382321310098771 -0.3473742115712422 -0.3413791256735776 -0.3312950646715587 -0.3394978366993796 -0.3396802939701474 -0.3288574538979916 
0.0215415401849212 0.2192016226401734 -0.3983147423420065 -0.5744609449520995 -0.8930244544202778 -0.464883264097354 -0.404429905905219 -0.4867217671892181 -0.5146918579366246 -0.4248410073961562 -0.5088879367281116 -0.4334557164199375 -0.456550244756334 -0.4550325002655975 -0.501224869146182 -0.4855183280515289 -0.5101503983511291 -0.4929248334924532 -0.4900421382305866 -0.4989817880471751 -0.4899846093888578 -0.5181949008821823 -0.5003046544716787 -0.4842268260776549 -0.5030640875293311 -0.5009929726359552 -0.506960442451839 
0.3252313795213906 0.4025228206037306 -0.7619603904935408 0.2398426001443429 0.7372329247694865 -0.3626541793666631 0.2930273688590946 0.1977236228618826 0.2477812329814438 0.1982474562597686 0.1343588317094074 0.1716151624448225 0.2107771392529048 0.1961751217512111 0.227648848558202 0.2332347346940735 0.1773603277366442 0.2367486952564218 0.2068598912306562 0.2011705136083559 0.2607873085722913 0.1581378258849316 0.2013381123561066 0.2164892596371072 0.1981243981923629 0.1917003429791861 0.175889848167998 
-1.853878359454514 -0.2608510159449796 -0.5358380843368377 -0.3042674384192292 -0.5642591939731352 0.5024266422536032 -0.2934491888308319 -0.5828027283152458 -0.5270091180053499 -0.4972680340606567 -0.6075257414379841 -0.5041420930249016 -0.5682228606030688 -0.5624720808510533 -0.5866970076676388 -0.6222177821818158 -0.5222718935961354 -0.5449806059294839 -0.5826662008130116 -0.5816956161633667 -0.5871839943797277 -0.576243652378624 -0.5734000139251405 -0.5684004463524346 -0.5826746834833878 -0.5805994915560729 -0.5844194536224653 
0.6611996086051453 -0.5551830835442892 -0.4280630312146956 0.02538944302513175 -0.3965004790564841 0.6377367443201043 -0.2825986107372261 -0.1130947280914467 -0.1929829052216556 -0.2041666412543622 -0.09171555266307149 -0.2104812136850059 -0.08664191233479437 -0.1114527622768614 -0.1161007322288592 -0.1322996520858893 -0.1219537766236057 -0.1303489037251923 -0.1305179929016354 -0.1247849719867816 -0.136747095533979 -0.1186914988973466 -0.130700558174484 -0.1158985980534275 -0.1274465238660915 -0.1285044966669557 -0.1269354677829792 
0.3032359003615836 0.361835174831292 0.7803120044926644 1.380162230814843 1.261360977808073 1.382535644764489 1.217760079265051 1.274373779096244 1.298811868418143 1.318992512168797 1.183598114216282 1.327786562073876 1.345497708221185 1.187894042731157 1.318108535314687 1.269365960547935 1.352992900111155 1.354948045856164 1.309301164972868 1.311646447866022 1.311957504270189 1.315773467076543 1.305839956408956 1.319639195432164 1.315295682277397 1.311280535293908 1.313167972016926 
-0.01389749467004463 -0.2441091302548229 -0.4128227255405583 -0.3336701429064816 -0.4580888763150269 -0.1335200033362895 -0.373999003426574 -0.3884661538461088 -0.3899311809913093 -0.4370808415074003 -0.3476692911349525 -0.3499083407092393 -0.4083210778284479 -0.4418411830207598 -0.4036308949232421 -0.4033349670200115 -0.4082261331649757 -0.4305771706499246 -0.3922349109652953 -0.408949673883799 -0.4322891606787497 -0.413810259576859 -0.4147837044800402 -0.4004370391263855 -0.410149678682917 -0.4115645064592702 -0.4106411155170376 
