solver_type L2R_L2LOSS_SVC
nr_class 63
label 1 19 5 0 16 23 2 12 8 39 22 13 17 11 20 38 3 35 27 10 30 28 47 18 45 4 14 26 9 24 60 15 31 25 59 37 7 57 43 51 44 54 21 50 42 61 46 6 55 32 33 53 52 36 63 58 56 62 49 40 34 29 41
nr_feature 128
bias -1
w
0.1523878823186348 -0.1057392861540003 -0.1070542104334149 -0.2076839384911756 0.0261188823933632 -0.07669486642706885 -0.1357849176862171 0.04581521995628394 -0.1723630108832664 -0.07493321723326141 -0.26151248185802 -0.05641498020811879 -0.09771795680650883 -0.01717599770035363 -0.08234913020947125 -0.07787568335781907 -0.08720084418497538 -0.07900731175386869 -0.059252233193271 -0.09149589218339127 -0.09132727177366677 -0.08100075084013024 -0.08208687790072715 -0.08202727703901828 -0.07547792662700159 -0.08613832876112526 -0.09340813721125174 -0.1013175363199817 -0.07126408162601156 -0.09431359133248385 -0.08463140555278469 -0.07926018657167971 -0.08114538907873005 -0.08018554751791497 -0.07954763897726418 -0.0844520588346814 -0.09180996030579139 -0.08392280543701176 -0.08008845921399399 -0.07925484137707399 -0.0794146130859652 -0.07708402796347563 -0.08641740409924295 -0.08208666269160235 -0.08353719528375662 -0.0894085705083633 -0.08011053923768841 -0.08078335101025692 -0.08452985911749944 -0.0836074258192713 -0.08321037749661125 -0.08830575322310762 -0.08624001266414839 -0.08293918836833113 -0.08436817819875819 -0.08361516555024341 -0.07998156513178237 -0.08508964720141664 -0.08010897417570439 -0.09546542042788722 -0.08248625486612012 -0.08289650433078413 -0.09592829982308682 
-0.1273743259867663 -0.3446954619575836 -0.2532929668102619 -0.005764479989336433 0.07289287594711638 -0.2931515398414911 -0.2613082279160853 -0.1429580145238397 -0.3878419320740955 -0.2377963407281391 -0.3541504714586406 -0.3354029636463969 -0.2876855500157434 -0.1686846774089116 -0.2501478763467868 -0.2661037058963283 -0.2675335397946432 -0.2734550459773469 -0.2537124901678907 -0.2611662387290848 -0.2807951571003455 -0.2284972068268644 -0.2668394800293198 -0.2749721360751586 -0.2860292286575742 -0.2976058688633473 -0.2766520545104238 -0.2519162496657035 -0.2951449831423879 -0.2553212213001939 -0.264850413053894 -0.277036657313796 -0.2604469844810844 -0.2606730017103491 -0.2626828790467176 -0.2687989010804687 -0.2648221685553721 -0.2645912645583961 -0.2512676273224963 -0.2555195485422612 -0.2739840418077231 -0.2699344800456782 -0.2571261366775754 -0.2615571494624208 -0.2686002492578236 -0.2637719632238732 -0.2636328923223497 -0.2627496264714008 -0.2546672565382191 -0.2656682160213561 -0.2642393440425015 -0.2732781831550402 -0.2760987354427508 -0.2691180074321169 -0.2651567538668214 -0.2727479313889249 -0.272422745972066 -0.2688050805486627 -0.2603237793539855 -0.2769063631024365 -0.2651270643011258 -0.2652876010483675 -0.2767762538580403 
0.1650009474465577 0.2186161239154404 0.1625701424426365 0.4114570736029227 0.3819926657055193 0.1606588494841418 0.09910524414913334 -0.07102716156010493 0.2460028342695451 0.2012937583005629 0.2164568539054846 0.2558943963618563 0.1901649083153927 -0.0517449213430827 0.1791731744606466 0.2071285357555198 0.2049036440626313 0.2268175440521936 0.2050181810576723 0.2079228556280981 0.1775788214354624 0.2078398883306225 0.2053573373974726 0.2207918104017839 0.1993082607405431 0.2101399435680286 0.1982482104527271 0.2083700381483423 0.2012594373134786 0.2268488057885145 0.2035866929761462 0.2157298150105906 0.2037352253603857 0.1969762905537634 0.2049969091158086 0.2099633045628573 0.2077007686021457 0.2049740928871911 0.2019903259339324 0.2031968867706332 0.1897641785415385 0.2014753454129866 0.1842318623402635 0.2068498318267563 0.2039898406379044 0.1922495320166104 0.193804476633058 0.2078858659008255 0.2032013928491733 0.2062569192172051 0.2047351070540066 0.2322760770442229 0.2102089087234886 0.2081180885379814 0.2070231607471009 0.2055205686498174 0.202797004813944 0.2082322765700138 0.2080512529732164 0.2171199596143219 0.203168565453777 0.2027064172653195 0.2150711647368886 
-0.01188285788548228 0.07923897023170814 0.09900225778570831 -0.0387645548818599 0.3967050491495734 0.07969040518687667 0.03968347353557605 0.2126568831589912 0.09902537564661949 0.07602631801281455 0.1504195565602809 -0.1852305717949136 0.06408903029982335 0.06656359335974196 0.09563303980574073 0.0701668318931522 0.07855224030112616 0.07552657751768847 0.078823372729368 0.07510380798294718 0.1001298790838838 0.0515055243114684 0.07540501673071563 0.07861985390839556 0.07752015108078156 0.09244822854668443 0.08041913238299069 0.07397587881997496 0.1131059238863331 0.07701592748937197 0.07885472556382564 0.07262592636127178 0.07664991430028181 0.07573978763544269 0.07996833082086484 0.07894719143928618 0.08185619927480239 0.07672447936978036 0.0815506611351236 0.07742448641476719 0.0857045908153815 0.07921975068637892 0.07509923824858107 0.07717536969696517 0.07870339292783556 0.06810326853344806 0.08168828457519162 0.07483501284852111 0.07375679670309801 0.07593333414930271 0.07756967762521041 0.08309806227182973 0.08045238296414817 0.07951637669713131 0.07814118029519523 0.07965301294805728 0.07962722315357022 0.07939160253418043 0.07775171113113973 0.08331277828690065 0.07620121988507753 0.07814041578488656 0.07185478698683721 
0.06402000033437846 0.004043583922136379 0.02182179865047833 0.02846437775851794 0.1210678515194488 -0.02678468650032272 0.08354838348885474 0.09098683378668683 -0.1629090752103216 0.007764360618691363 -0.0200403857335647 0.08746274269276894 0.0008208598425445222 -0.1295121247722952 -0.04390578351555397 0.001693892911657125 0.004909305699789686 -0.02001648637222859 0.002416871875870473 0.01320366189084693 -0.02920235278598923 0.009769347389077112 0.004311874933362267 0.003155886225634854 -0.003063124683417785 0.01899737761161673 0.007792349990930066 0.005533639719155855 0.03214572871155353 -0.003391406486683001 0.007569976845201659 0.0005973738088649798 0.006057764893232741 0.005795946236701432 0.002098495628214785 0.0100796198228629 -5.154364527988099e-05 0.00270388493898777 0.008778904024248557 0.009342876949107246 0.01243854845289606 0.004679807173591037 0.02128947458444322 0.006396774863890791 0.005208040362605556 0.001463095825519193 -0.008841707874308012 0.00344191692220146 0.004462962786864106 0.002267216607111694 0.004762873415570243 -0.04046736063057758 0.003867720952523133 0.003631211797247909 0.005312173052835387 0.004959377813756744 0.008434893457876702 0.005125650519276098 0.008052687876893446 -0.01615631086989133 0.004731862867939437 0.002991192930931812 0.01777804240497425 
-0.0156145537088114 -0.02311376193073281 -0.04401888173756676 -0.2770197586419761 -0.09726292698893878 -0.03592091111693142 -0.08196060977918503 -0.05027730920008022 -0.06981118350685853 -0.04698831258130949 0.1252246863821889 0.02383125720269707 -0.06271265381626953 0.0392951090178183 -0.06208252358272959 -0.05165669371707788 -0.05237990171951035 -0.06300635652016465 -0.05407359139427794 -0.05226845532731148 -0.1015850610672903 -0.04321526882730179 -0.05391633953196497 -0.05053472426363076 -0.04603991242503867 -0.0496967443361668 -0.04771236201597938 -0.03373851256970304 -0.05112308556671815 -0.05767494828274587 -0.05165695754334242 -0.03958418024601026 -0.05348984032172264 -0.05486733252404448 -0.05617808610398799 -0.05167307415776359 -0.05330058224960075 -0.05204716237202184 -0.05990768606478557 -0.0572780113084149 -0.05878069455170885 -0.04671244499945306 -0.06183994988605892 -0.05437576106614628 -0.05337380954048367 -0.04433547581741637 -0.05447890288327309 -0.04203389582695338 -0.0470297638381125 -0.05165518066427884 -0.05129122763325132 -0.02778784255500312 -0.04690329027662015 -0.05201365006771309 -0.05166915068107422 -0.05184053549965393 -0.05000485627027969 -0.04759014541950437 -0.05412526130130183 -0.06225791286019546 -0.05454824303129911 -0.05221135187456324 -0.04513663317994374 
0.2074270846984214 0.1309681498029862 0.1746746170847991 0.1678836284839598 0.1112691352945085 0.1138344645394651 0.1931457043959672 0.08712728213065096 0.1008368863703756 0.142500306177002 0.08775122153188521 0.1557114096968792 0.1419798820664807 0.0458025783629819 0.06783774104946655 0.126534443658879 0.1401192010119496 0.1272560430611737 0.138432412795766 0.1362586990108834 0.1134195511948858 0.1274108079562844 0.1367933298261229 0.1426777328416581 0.1303917071350113 0.1299633578962137 0.1380071354624475 0.1657218566328877 0.1218531497578006 0.1398180284615177 0.1387678915237941 0.1318851010454802 0.1372649323254673 0.1373687494089386 0.1392723348981963 0.1358590517077055 0.1314769624547581 0.1382747304307863 0.1435847344520853 0.1413761244895582 0.132592698858708 0.1383706037769528 0.1253203877860378 0.1381876851871343 0.1369730900482519 0.1327523887559921 0.1308409307203235 0.140882979138499 0.1414027539027222 0.1379248758609146 0.1375840405573987 0.1488297122725358 0.1368100943633213 0.1360679380713664 0.1342939339231187 0.136741521144163 0.1371373601838296 0.1328067292115485 0.1371280909123002 0.128597122059259 0.1357607159453532 0.1385114529687247 0.1361659416627117 
-0.09760433530403829 -0.1843713049486745 -0.3001720569133385 -0.1035613406090588 -0.385157907161852 -0.2254958459283212 -0.3075849707978006 -0.04915425443589577 -0.1410217287195287 -0.2771466791698307 -0.04110500097631753 -0.1987881761554185 -0.2387309924539486 -0.3558093670325625 -0.2621452602757142 -0.2547433647520086 -0.2624453621510694 -0.2491064954344619 -0.2547800184271331 -0.2618847872451197 -0.2880276535519821 -0.2902801001318 -0.2621267838120849 -0.2452230019202391 -0.259760462313842 -0.2517980571380197 -0.2639360159730006 -0.2909083659091775 -0.2604955394710946 -0.2777797319631906 -0.262706560017095 -0.2534495258952256 -0.26650721485531 -0.2568989753461931 -0.2628827168422523 -0.2597978209816541 -0.2708577066569538 -0.2591439093911946 -0.2752818289454802 -0.26683440839424 -0.2572435778063364 -0.2579742868012336 -0.2581209073454496 -0.2617354998673632 -0.2620803463600765 -0.2469049433055948 -0.2549284636203059 -0.2535409110734697 -0.2653542438057935 -0.262577882380287 -0.2637039591374198 -0.2553663158451198 -0.2609137092326989 -0.2636435260991843 -0.2609882791782809 -0.2619421148833316 -0.2520934282325947 -0.2633251734792548 -0.2603281730572548 -0.2487053923585033 -0.2598053213923113 -0.2614527525098693 -0.2545852263763316 
0.4082614152152886 0.2856286101551081 0.2273245934019039 0.213861407554679 0.123692956693295 0.2561858802093605 0.1372508112433895 0.2161713196424547 0.2584630843485286 0.2505751111037661 0.2175773311794382 0.1299532597717908 0.2729246312312896 0.2160453180672227 0.2732223288804425 0.2462494529764743 0.2635115519941638 0.2722701437781592 0.2713306229090132 0.2564992067255118 0.2408295424674576 0.2478529293257239 0.2579936885010457 0.287674959275293 0.2636661606094702 0.2650083045438434 0.2629057827483738 0.2263475921913705 0.2829950261276217 0.2446055562599673 0.2586236612003007 0.2781489549875324 0.2573560528467765 0.2556134436715179 0.2575255624378601 0.2601809583037737 0.2650921811097696 0.2591572055218974 0.2540819951647132 0.256625165088205 0.2545800365986544 0.2628092378097003 0.2742251066032984 0.2583871799273015 0.2609231807236063 0.2630016254861437 0.2560581055432768 0.2571056206683722 0.2567584744815711 0.2590769051099959 0.2599417988761066 0.2692368418522102 0.2568972977025996 0.2596174589292388 0.2592225472594714 0.2582217765598023 0.2586324393640317 0.261678393956582 0.2592170940394155 0.2475035853880681 0.2600008570683319 0.2605066746240859 0.2620277117318111 
-0.1141639080132547 -0.0649088394332247 -0.1075711652002894 0.07660892012145015 0.04264716439502649 -0.07375397442868586 -0.05842767071373392 0.2109188196268644 -0.10515963035852 -0.06754198848808475 -0.1970757451133737 -0.06169422867765637 -0.0755007127611555 -0.1543446671045408 0.0004998972154962172 -0.07674005721185362 -0.06979740146880922 -0.03852844396746469 -0.04767445832551 -0.07508283925779703 -0.06615092249219855 -0.05095120794899313 -0.0674769355265602 -0.06917884914503465 -0.06624329175963624 -0.06773975896449529 -0.07015919693614356 -0.04739289586017086 -0.07735596195560474 -0.06347685341008462 -0.06700364093708613 -0.07061516576191151 -0.06762061963531538 -0.0698472533331419 -0.07045233952434579 -0.06715661504855375 -0.07408183860071955 -0.06811345139032721 -0.05987765547353655 -0.0652253645382596 -0.07064627659568909 -0.06668062636831504 -0.0620786247273389 -0.06664394066967078 -0.06869221595445898 -0.06154093326653668 -0.0658934836670567 -0.06126131682040006 -0.06497771744558174 -0.06874615524697535 -0.06704126841356683 -0.06967710743214299 -0.06654929679813484 -0.06757314737373238 -0.06815377377953974 -0.06823732292957768 -0.07094397105863658 -0.06580899856682756 -0.06973748017332856 -0.05853757203701428 -0.0690507121933501 -0.06533763212919232 -0.06915464202019299 
-0.04222575044022942 -0.1330371070169747 -0.1556109054809176 0.06244118798175643 -0.289846319648938 -0.1543099465723226 -0.04146997423764459 -0.05199672238682763 -0.1403080150866922 -0.1040997061685367 0.0236074383662092 0.03141624407449095 -0.1186000281380782 -0.2715429475339141 -0.2181224601297861 -0.1148017420288429 -0.1168984827659016 -0.08072237481017494 -0.1304074159078347 -0.1164189420834473 -0.08271711284191449 -0.1110707875733531 -0.1170088534893002 -0.1268078642671 -0.1182533286762825 -0.1217530715696991 -0.1180397940166701 -0.09858394711401439 -0.1407676698162845 -0.1237377175052 -0.1196964298468932 -0.1286767575546707 -0.1164519622754276 -0.1143471156533585 -0.1175383855480567 -0.1184054954639505 -0.124710055630291 -0.1180775996000033 -0.1192875210328774 -0.1157276319366549 -0.1179121640822634 -0.1132895598417033 -0.1337263159600002 -0.1163436568596212 -0.1157643151533018 -0.1264444956885245 -0.09741745315399161 -0.1131081156828779 -0.1154809329922239 -0.1175962752933576 -0.1183891414955447 -0.158124381195509 -0.1174808327546934 -0.1152176066673926 -0.1152385479658292 -0.1171585636432136 -0.1183410505516635 -0.1211812128403577 -0.1188565171139152 -0.1260856087841312 -0.1197059924521711 -0.1177840833401567 -0.09188411078040769 
0.08104248927324868 -0.02079187550265199 -0.1147925895334383 -0.2240956732507865 0.05495793437700156 -0.04283450849756928 0.02314784862254944 0.1192866384290913 -0.03920511045556821 -0.06303319561039145 -0.1327581088334259 -0.01327663016166644 -0.04651137471727801 -0.01341054723972611 -0.05376359111516004 -0.04318144756828421 -0.05707264503569467 -0.0558426950852564 -0.05873048775405772 -0.04570715563199339 -0.1362377626907134 -0.0826448460847987 -0.0507894435631855 -0.06568655758048497 -0.04957768532494503 -0.06218683776979014 -0.05148344772659184 -0.05798310581699204 -0.08992954784647893 -0.05992058093232972 -0.05286683553842908 -0.04916993231384344 -0.05419976300253918 -0.05427550074761545 -0.05352693498173029 -0.05407038489072988 -0.05559634763382958 -0.05189366383891616 -0.05579682876314974 -0.0635458058819352 -0.05482309431926409 -0.05466490101266196 -0.0322615005025374 -0.05416181479891501 -0.05521537526122449 -0.055531831530619 -0.05671721716180943 -0.05837055605668957 -0.05384827207950199 -0.05265020681355624 -0.05357335062217166 -0.02498804865794835 -0.04986658961593277 -0.05261692107527841 -0.05189473247623291 -0.05163608302606861 -0.04748092169567672 -0.05623349093505976 -0.05211440168226451 -0.07005177884684465 -0.05550450598360918 -0.05124583479812347 -0.05232646518977382 
-0.02257720592875392 -0.08970758800824495 -0.1069520520070623 -0.2685934035363721 -0.1524490205497877 -0.1724940453534276 -0.1224169959605395 -0.2020199380770729 -0.1003645885083713 -0.1598674919418889 0.04235808261854077 -0.1442577323533836 -0.1263699581440444 -0.1058806900796537 -0.1010934898193177 -0.1363404318225158 -0.1395070745562287 -0.1473705595505843 -0.1492154461292025 -0.1340389302792508 -0.1474661462224792 -0.1620889878360929 -0.1432148422016239 -0.1454136344723175 -0.1406454156352967 -0.1457206041331433 -0.1376559538890439 -0.1425766966824514 -0.1245487885244432 -0.1366607087846001 -0.1403021157021458 -0.1398609820582991 -0.1425516379406337 -0.1348502344291834 -0.1420701322649158 -0.1398696651887393 -0.1378669843950582 -0.1411185266977217 -0.1462059323896456 -0.1485634167305753 -0.1465054479140093 -0.1415701928527197 -0.1212683139606758 -0.1401386327275101 -0.1397119403875184 -0.1358732354867309 -0.1413023895737662 -0.1466924386771837 -0.1433771646269931 -0.1407392101323669 -0.1419548459498679 -0.1540130898682782 -0.1410474694380334 -0.1387884785533318 -0.1375745860274454 -0.139721956440765 -0.1414816017265371 -0.1400269174791753 -0.1420708680957857 -0.1411996677021368 -0.1390221291587107 -0.1415792792064567 -0.1427213391882471 
0.1839381801269654 0.08661894622100783 0.06477696510589991 0.1253856683864347 -0.0004867753280903802 0.06050756950699335 0.1888035715553081 -0.217531823162903 0.2077248661299244 0.03852836555155965 -0.0568626467034389 -0.09434503017829113 0.05982188718979538 0.08224962642922086 0.07363835828492213 0.02023181905053633 0.04510773442028204 0.03986473003745845 0.04277100312068584 0.05151464924936195 0.03230061593353381 0.03773428138450227 0.04777836395515424 0.03798120628719145 0.04414766809598769 0.03505836595241574 0.04245019515060271 0.05213413979925582 0.0730289386344198 0.05523703333397589 0.04514538310103121 0.05689208747391025 0.0440366684262997 0.04882681634332935 0.04541342820772815 0.04772517630799608 0.0488370540958144 0.04704053925180411 0.04476475828367628 0.05038421220412547 0.0449100855805328 0.04255874264942838 0.05127294481592966 0.0472409765140495 0.0481882236821584 0.04337749078151035 0.03962658829148712 0.04035998843247564 0.04750908076574833 0.05017424308236184 0.04722520493958755 0.02368594661560934 0.04033500444076279 0.0465168449301438 0.05112298973914293 0.04622937158983794 0.04454724150616183 0.05042911914057579 0.04441928640751114 0.04436142550061018 0.04725508283465413 0.04707058777526515 0.05965297377141388 
-0.218068037914561 -0.0510180076431866 -0.0030334090250555 0.02622841414147263 0.06777111994876561 0.05116393353504221 0.03871638419647782 0.1961516968595649 -0.0507676791022565 0.03656434714577871 0.09995578766621566 -0.04368363923420902 0.009257221814338086 0.05906021434575116 -0.01039856638291049 0.03251048747238713 0.02137268471382952 0.01120521303545014 0.005059992975528846 0.02326492829986876 0.01729420395494198 0.03210359496321455 0.02168616386639728 0.02323840287951054 0.02504191994588529 0.02123426402255613 0.03286994010618328 0.03996958749398274 0.01708910753904143 0.02151172888103059 0.02276156362402057 0.01761348159657055 0.02425818600952281 0.03236982555872881 0.02143167533495737 0.02002629338100094 0.01495858063767446 0.02148588266502149 0.02908047017923641 0.03652644476410774 0.02776861526600911 0.02085218367133042 0.03232273349839265 0.02108978149654561 0.02309243053555467 0.01775223622393721 0.01920930550674131 0.02740685565846606 0.02152931200863187 0.02264892993255947 0.02050997319637532 -0.001100266939063466 0.01987979826656741 0.02020309499523115 0.0209760971616096 0.02378407085385242 0.02336990261021095 0.02130872015339427 0.01941165839563683 0.03328252830013676 0.0199706683375968 0.02174197506445237 0.008412537570194459 
0.01610834152258 0.1167955426990292 0.1342645502325921 0.01235849126076871 -0.0250995071904664 0.1376903863514775 0.1898624702001291 0.06106835364052233 0.09473897566333429 0.1465318038723712 0.1524749467056624 0.27815012823873 0.1368689816194384 0.02915272993017785 0.1877989625148521 0.1454225422449834 0.1378256510850852 0.1314973137772445 0.1473036161270336 0.1271627781607754 0.1418693527816652 0.1382810526495774 0.1405244458814242 0.1297318092202675 0.1462211007941787 0.1344882915368862 0.1292319694986286 0.1034134449713254 0.1316608270824088 0.1393562667495279 0.1383314053647849 0.1267692603164929 0.1392044513660531 0.1391595199111157 0.1393044251236421 0.139680955134932 0.1318500357614501 0.1393055001026598 0.1385574850137597 0.1377895270911589 0.1361590321056702 0.1373480184413101 0.1265496390373259 0.1398828930068228 0.1378017924826373 0.1304329092782904 0.1409254814778955 0.1326928293268025 0.1418886579509763 0.1434470184376013 0.1390898529036185 0.1354850965426642 0.139311861198748 0.1407871267252556 0.1374724408941898 0.1379879894369305 0.1392568439995859 0.135249286461788 0.1394241679393157 0.1353314721778248 0.1391240993583311 0.138847870172948 0.1456977095775741 
0.1625074215111367 -0.2959984335389295 -0.2502490874032215 0.07219794371489663 -0.3142925423324497 -0.277547750817921 -0.2515010973721443 0.07936834017614502 -0.3542867347104913 -0.2246925833411299 -0.3357769422847438 -0.3704196369345278 -0.2537563348849125 -0.2100268973112869 -0.2041859706157883 -0.2453596397119243 -0.2515466083291509 -0.2441902843231747 -0.2332235344333927 -0.2449414161466656 -0.2472917254711975 -0.2190346827803693 -0.2503235445674687 -0.2544746336570628 -0.2452902023111937 -0.2687555455937946 -0.2551850443798508 -0.2476438128066405 -0.2626874422910503 -0.2363484594897216 -0.2456403144781574 -0.2595301092203173 -0.2438378682780822 -0.2462899118765981 -0.2452953852336851 -0.2488581335330692 -0.2509378130696174 -0.2466736587487152 -0.2321483194917332 -0.2351566805063087 -0.2527609021285847 -0.249137995720158 -0.2400055837992039 -0.2453257505068205 -0.2487251519767498 -0.245508628191206 -0.244816074013092 -0.2414536582544112 -0.2416123226890038 -0.247728580294628 -0.2478126370887012 -0.2482483045004458 -0.2528917644720673 -0.249965446864666 -0.2483731055022994 -0.2512604057140793 -0.2509274333727581 -0.2503252930280387 -0.245223855789392 -0.247708250811666 -0.2466381532921995 -0.2468318512706121 -0.2611530791628549 
-0.09612300604853009 -0.158935255985463 -0.07022074703435517 -0.005719206466124565 -0.09083060119939899 -0.08314121108952792 -0.1061292804098962 -0.0968637148766586 -0.1369590923314628 -0.1097013426399313 -0.03908151435368373 -0.1303583547079218 -0.09749961895915098 -0.1472656045665784 0.02903949440558259 -0.1037297498658795 -0.10366914187141 -0.09437023312119652 -0.1125753268362657 -0.1012691694559904 -0.1268153999243287 -0.09946802823831116 -0.1081160096836182 -0.08017048720272135 -0.1064673896179229 -0.1202388239378751 -0.1003393502877139 -0.09520086105093423 -0.1412703169129773 -0.1116140018633063 -0.1065939005507509 -0.1061307623800297 -0.1070398801170993 -0.117356513265652 -0.1082950768927126 -0.1052790660752777 -0.1090513787883695 -0.1050796869994862 -0.09850621771539818 -0.1054059141045685 -0.09511702178415032 -0.1056445676779947 -0.1011424883619806 -0.1076943481014602 -0.1085332338238888 -0.120492180878396 -0.09524199471468286 -0.1116533495485452 -0.1088989026206292 -0.1069923456044227 -0.1073185679313963 -0.05332882248291454 -0.1073159680158288 -0.1087667640460026 -0.1077081147334472 -0.1070337103846709 -0.1045895177908209 -0.1059146023920464 -0.1090662606577798 -0.08681945560184863 -0.1061414129930536 -0.1064951471260809 -0.1213596913963499 
0.2454790080334885 0.3505576598944147 0.2896801870036287 0.01431935084364708 0.2945885806496117 0.2872844138367596 0.09779199804470301 0.01149315057517506 0.2274517882836216 0.2950910501196773 0.3135529514462811 0.2474236527586639 0.3240905191911956 0.3819017971396522 0.406072170267846 0.2969110047086416 0.3007346836522806 0.3212299497366874 0.2900137482672928 0.2984612035149987 0.2384591172854865 0.3046836673903717 0.3014730685182138 0.2962046091118838 0.2953603627984191 0.2850577860107551 0.3009257247784086 0.2949162146501891 0.346186493793243 0.299295348332136 0.3026396571002961 0.2938741943037368 0.2958478811190671 0.3005420327629914 0.2997939404125112 0.3023272540730375 0.3028324384579819 0.3018542903143161 0.3025258380012895 0.3008486556277746 0.2980371801605969 0.2983551776712268 0.2835465638706645 0.301813351440564 0.298703842089754 0.3047825351315783 0.2963628865161861 0.3009054681929939 0.3029966446295557 0.3006672584061946 0.2993388006364816 0.335120100208519 0.3024436538551691 0.3000353894856913 0.2991894846162224 0.3022027452068816 0.3007791362148682 0.3039240175840861 0.2992398316864846 0.3006998596250171 0.2975117001901328 0.3012167182614854 0.3068382030210701 
-0.1966305421984226 -0.09127748997142827 -0.09833001504822593 -0.1455268725245295 -0.1460495025940457 -0.07864621961249857 -0.08078689322292085 0.1142253839515208 -0.1160840914885208 -0.07517914507900063 -0.2384392958970563 0.01631084041489096 -0.0735440860271134 0.1173561591841081 -0.003542326064944926 -0.08928931965722109 -0.0837285266892448 -0.06601771621463444 -0.08281260088044665 -0.08093015398213302 -0.1273976018421433 -0.06393290996199494 -0.08139833793987977 -0.08280024308622698 -0.08084958892207368 -0.08966631613944562 -0.07775580478416824 -0.06201211816015927 -0.09570295936589163 -0.06677681945057598 -0.0827365468313709 -0.08137790062855596 -0.08163793245697702 -0.0813990976869693 -0.08424576619922482 -0.08447274988639154 -0.07918629658010463 -0.080702235713037 -0.0875588825859599 -0.08404925704332009 -0.08896913583844915 -0.07838274916464348 -0.07901037208442176 -0.08269546947113018 -0.08203982607491246 -0.08328284111493238 -0.08075413826373488 -0.08291996632413023 -0.08062957021385203 -0.08150928239651969 -0.0822583771870358 -0.08649959519299709 -0.08391628552544364 -0.08339205136606863 -0.0820975583855164 -0.08517507159470024 -0.08593131148752031 -0.08246206414991909 -0.08281825316221252 -0.08451334679688476 -0.08254411161833469 -0.08452622619461493 -0.08393268104171905 
-0.07338733548828 -0.1224058977335874 -0.1643845092484042 -0.1368946378120402 -0.1901536124631348 -0.1378920249460712 -0.03052317327996415 -0.1177479272179735 -0.1668679129096901 -0.1389834756439178 -0.159575183378726 0.08052066779097733 -0.1337155482651269 -0.2927594075261503 -0.1591127584240225 -0.1419751158047355 -0.1427534030359538 -0.1393766719784479 -0.1747772018321243 -0.1304471851328138 -0.08143265500056593 -0.1427972913085428 -0.1424570254752321 -0.1492539109821052 -0.1407315729255286 -0.1265709076618516 -0.1207808228276845 -0.1406995096786303 -0.137728667442872 -0.1234265429020473 -0.1394244280144439 -0.1432384664272908 -0.1409197358820801 -0.1452398455081088 -0.142918394689224 -0.1391619053200471 -0.1401155397141514 -0.1386772560667174 -0.1532767593228958 -0.1468948352524375 -0.14015505316449 -0.144767023295204 -0.1220863958580179 -0.1398201513954978 -0.1416065437228035 -0.1500151109816609 -0.1485443359423954 -0.1415860015874245 -0.1445069697194608 -0.1397910708711956 -0.1395529933145029 -0.1373576232628993 -0.1386918111132383 -0.1380771871071748 -0.139161409912894 -0.1410721510287704 -0.1372506777351444 -0.143646566805179 -0.1408702609231575 -0.1385152484085394 -0.1396168903885056 -0.1406077197170301 -0.1345268118128831 
0.1975614432139679 0.3372371053590333 0.2644359092044908 0.11844677967208 0.1544077163076337 0.3069519553293806 0.2383089849949026 -0.04045046545261008 0.3997520500658951 0.3267373121729727 0.2843911793054742 0.2927144099856361 0.3388350927068608 0.4509283781846253 0.2837453151060595 0.3279600620114621 0.3215391871703173 0.3373730225252873 0.3377347488346489 0.3267733192724693 0.27427082107052 0.3267237743400528 0.3285135735149226 0.3337070352437048 0.3146898370842812 0.3433408167036133 0.3228308510200353 0.3209377531412071 0.3630789374945379 0.3321987991320615 0.3268518375846808 0.3400668599359699 0.3264076725614467 0.3270927105629232 0.3276225543949785 0.327473396912123 0.3293363398392735 0.3300713014581241 0.3235431203623137 0.3259768950591871 0.3336222616706103 0.3268399148864389 0.3473307977431201 0.327950326298206 0.330338560132103 0.3344405035801937 0.3320210273163459 0.3277288435389707 0.3275979911483643 0.329169092530671 0.3276104710842316 0.3629191759893663 0.3240877685209015 0.3287371548110007 0.3274458515956823 0.327840222359974 0.3232298185287312 0.3320195103485832 0.327449604337537 0.3222986822068921 0.3295808556700446 0.3298640849992656 0.3254625430532592 
-0.1763907421043688 0.08946676099875525 0.1466371412190403 0.1615136914716292 0.01214432696715189 0.1174816980695165 0.2256953151467178 0.2021313869291647 0.1307154134928373 0.1272327577012761 0.1882785137811152 -0.02147929587609688 0.129771693399954 0.1880675813500474 0.1089118087273577 0.1168682551407127 0.1288099348503558 0.1091219796150878 0.1066513847480047 0.1138835238460513 0.1018787814666201 0.1239647660171471 0.1246353312641485 0.09129206604398628 0.1219499467404458 0.1252622125559685 0.1233697860357656 0.1379105504529973 0.1363805209332202 0.1364300724133861 0.1245757403586828 0.1205390360873547 0.1248701725778975 0.128539280017084 0.1253130568774972 0.1270086262716884 0.1174384595522122 0.1255257653631908 0.1217752757997603 0.1246510159346584 0.1209632967293171 0.1270470374643629 0.1118715677747801 0.1247908115681594 0.1227281164430452 0.1310821662387599 0.1245205760125595 0.1326949615710806 0.123117266018909 0.1261471303414269 0.1277081445150683 0.1038699269671795 0.1259546942375613 0.1254522053322433 0.1249918556291631 0.1252155775522731 0.1270015707945705 0.1254984792679931 0.1238679769431643 0.1309433605970936 0.1260758493775884 0.1248910415280225 0.1290304962366985 
0.03376675960873361 -0.06424688040619569 -0.05628686781356892 0.03747400235204507 -0.124738646687398 -0.0547213170396221 0.04016121902280423 -0.1248404982847748 -0.06314734538122085 -0.0544014927248785 -0.1441088088810121 -0.001209140679573138 -0.03201111401923641 -0.05569599453349421 -0.119104212020476 -0.04792393964984699 -0.05264235474496894 -0.04686158088236918 -0.06246465823097696 -0.04135692812655227 -0.07324939091504648 -0.09566984835433755 -0.05291634061751033 -0.05557103048178808 -0.0509330114142109 -0.06685516827143052 -0.06414819474296027 -0.07472255158005969 -0.03726118645628619 -0.05646948371549206 -0.05426948344106722 -0.05352693200614591 -0.05596258714772887 -0.04878503160152024 -0.05173801668807682 -0.05564918603950213 -0.05876053225213462 -0.05466640012986684 -0.04716072550970429 -0.06267082009496175 -0.05725427869077852 -0.06093754155754285 -0.04385293953035704 -0.05306317310920556 -0.05398735715493262 -0.05801721225291468 -0.04101345232966754 -0.06316267606174227 -0.06096914174561607 -0.05422706642645358 -0.05533396637713543 -0.01480786086064315 -0.05110336984124599 -0.05700124003253969 -0.05414034393136263 -0.05588160265816351 -0.04982005629002545 -0.05279535537168299 -0.05627224660306964 -0.05567821770197297 -0.0557355469574452 -0.05861274067252516 -0.0588989330020999 
-0.1556464871826077 0.123348968510256 0.1124375482662113 -0.1422761639951396 0.1953777117502065 0.1176912945748629 0.1438070924768866 -0.09398013935802467 0.1313477366901841 0.11699537686773 0.2731982501464178 0.2723909907271322 0.111355269184268 0.09254888042373695 0.1183274100050184 0.105254413812503 0.1165896148721837 0.109312452595505 0.1159440617844327 0.1157123856348029 0.1244331549143831 0.09872034694256659 0.115591686003567 0.1066403146303939 0.1143003443133187 0.1192251407081576 0.1084180782122239 0.09294885883515755 0.1345383130680849 0.1148992438176378 0.1138378214536669 0.1134272517871203 0.1146172399202023 0.1088859777561379 0.1179974321270178 0.1150628663019913 0.1140636683376496 0.1141000190179424 0.1173486275067725 0.1176057644305617 0.1208732893320722 0.117610594797646 0.1066263451533741 0.1149924541243495 0.11635329457788 0.1107077203003544 0.1149650587532486 0.1108149572341207 0.1112711327732572 0.1139597025413163 0.1149867399254959 0.1062047871895078 0.1157103990614822 0.1160911057919411 0.1152775237853116 0.1177409928808703 0.1161897430257564 0.1150040289509071 0.1142068008950275 0.115463875955247 0.1132929637682924 0.114987785014579 0.1105751848720339 
-0.05850711816714561 -0.02107088152197543 0.01914243641577738 0.1139898387784454 -0.04163520734388974 -0.003408811266174417 0.08210008177800536 -0.02298465763594777 -0.06004876495456822 0.005603556633049128 -0.0001975620851479062 0.04707259577974562 0.001943072728826538 0.03248460631415905 -0.04027277621263201 0.003578523223498915 -0.001500723496113293 -0.01234556969703601 0.006265056758682717 -0.01000883033422034 0.02424711892800675 -0.001470594709678329 0.00241921348640246 -0.004992741315744262 -0.0008052986754131511 -0.002032253460800368 -0.008263327140430946 -0.004006325679180961 -0.01439052308445548 -0.004758200725464862 -0.003326986187138671 -0.003483813834938478 -0.0001212073584384303 -0.003471944666080178 6.005042631377104e-05 -0.0008939105488209461 -0.006016561911289227 -0.003566859650052056 0.0007733344666792253 0.008032997826211979 -0.0002433132332205642 -0.001565836304395966 0.0008376399247382216 -0.001584083152888733 -0.001167452872187855 -0.004380422213698043 -0.001656758779566923 -0.0008778044657904611 -0.002593692077418921 -0.001445863494981649 -0.00278901237027515 0.0006842168429013887 0.0002933654423537568 0.000186186485149637 -0.001694108512914566 -0.0003890298575905275 -0.000563092010598065 -0.004380472781173257 -0.001934335322993898 -0.004283714129069176 -0.003902727580500496 -0.0006292012953847191 -0.003631807003599431 
0.1157483399040791 -0.06658521800197367 -0.05452949787790343 -0.222057140046381 -0.1405516400250821 -0.1070007790901788 -0.1046871840904572 0.0190416449303459 -0.01430615194146066 -0.06349818550472572 0.01139090651135906 -0.009672846996395326 -0.05116834511568735 -0.2003573087236966 -0.1565262310877752 -0.07881997142437744 -0.06105813882384346 -0.07318561323045614 -0.03982322677882827 -0.05998162798866458 -0.06381823451059324 -0.05128403404529061 -0.06652483086809267 -0.03565840683361958 -0.06055355820551215 -0.06607101573862577 -0.06901686655801403 -0.05786073534023774 -0.04564486922419991 -0.07095829425793618 -0.06611674099645183 -0.05972210434433832 -0.06539505037850803 -0.07409081945522457 -0.06737688346338389 -0.06341800685833422 -0.07637045874100994 -0.06648118302834295 -0.06968171347821987 -0.07307451753975207 -0.06223495692156832 -0.06147271486280263 -0.05925388888654066 -0.06391709649696296 -0.06345981864140514 -0.05607092018350743 -0.04411399688024491 -0.06782006641857219 -0.06564821438145864 -0.06348329371092851 -0.06527656821996468 -0.05749223819910215 -0.06370781111689468 -0.06473509166007665 -0.06533675006615362 -0.06504199550200075 -0.05824448162609477 -0.06529842924631063 -0.06555716939703021 -0.05834863863391771 -0.06394110567633467 -0.06582682426906294 -0.05270091272476084 
-0.3616540414876918 -0.2620390665448947 -0.2957385055820314 0.07925776363211438 -0.2506421059818434 -0.3216643321948039 -0.2259307354470016 -0.1231047544718282 -0.3052152815159464 -0.282655514895413 -0.2195859915749398 -0.2458286864557582 -0.2768077579084554 -0.3936221394857654 -0.1761486983083664 -0.2846353835778508 -0.2823854290095082 -0.297884092162703 -0.2652700178512911 -0.2776725372067726 -0.2462922527974476 -0.3057072284132079 -0.2840180668974863 -0.2825915456453431 -0.2930362212229172 -0.2763320022226367 -0.291260373333538 -0.3075184069510127 -0.2483644089673024 -0.2931307492775972 -0.288411326926621 -0.2976437236881561 -0.2831016755037369 -0.2883090266963801 -0.283388886694011 -0.286647968311235 -0.2892149772563831 -0.2860948502452549 -0.2846651196320253 -0.2788973721289954 -0.2852745066143922 -0.2857484939743174 -0.3050765432973215 -0.2877354369758681 -0.2848033606764662 -0.2929115214774033 -0.2892541052645233 -0.2859624765123877 -0.2872055720138342 -0.2889392216380154 -0.2891779172981814 -0.2762403118413784 -0.2855531111959913 -0.2899107493273906 -0.2846726003076666 -0.2864108279876911 -0.2884450226556691 -0.2891129184787075 -0.2809219391575284 -0.2847014533251152 -0.2834934814458493 -0.2847936550923703 -0.2937129593448222 
-0.1878694087844092 -0.2218903229948901 -0.2461440857046361 0.001324351441587403 -0.116484433337801 -0.1927774534207313 -0.1895715712075865 -0.1789433174485232 -0.1787061220558236 -0.2462219376420166 -0.1653937947372032 -0.1972169916097328 -0.2121122471791621 -0.3836233110069836 -0.2712440571865447 -0.2249267065119227 -0.2305263294019627 -0.2347996304493102 -0.2190851342692227 -0.2331697390820747 -0.1884909188002251 -0.2391973424661892 -0.2356752353879455 -0.2661930976599014 -0.2301007387225926 -0.2475926336029577 -0.2451808918844544 -0.2022928387914039 -0.2312595969820439 -0.2353690724086856 -0.2366154043787916 -0.2364644020899488 -0.234076102201916 -0.2345723261796814 -0.2347425443156047 -0.2383847596444751 -0.2235188481175571 -0.2385552923653423 -0.2444495691739215 -0.2446932966268619 -0.2332118868257077 -0.2385389406450013 -0.2139818875190893 -0.2377915341905109 -0.2345676128998382 -0.2500323801753741 -0.2405224388485948 -0.2277410770966614 -0.2410493302631879 -0.2343541791894503 -0.2346323229078523 -0.2194280176956156 -0.2287195017842193 -0.2329301315259393 -0.2345010275213026 -0.2356541697275646 -0.2377010806267624 -0.235532014184533 -0.2304879690702298 -0.2273451350649451 -0.2342601497180549 -0.2348315348249136 -0.2371151237566897 
0.07235067568431428 0.08300258809081552 0.1443672792645405 0.08962908521852016 0.1420909482469567 0.0570366656682583 0.1530027528518114 0.1777375657081019 0.1446233581214348 0.0653139707828484 -0.0600191714749061 -0.1264502331441822 0.07422795675872941 0.1583850351862054 0.1004844064134828 0.07850653372133577 0.08046510493274281 0.09085520368358908 0.08738738469864765 0.0764390100524901 0.01353042192661865 0.0772365486825155 0.07715496246562911 0.08255835792042732 0.06996596146200311 0.08286236062905519 0.08134707762108238 0.05857206509679985 0.0632768130125544 0.09417225844349569 0.08305096558955674 0.07911287789542054 0.08005948231090175 0.08933664494740329 0.07934793432636338 0.0789669729212962 0.08972086974302161 0.0806396896815655 0.08424247378777808 0.07497955097680466 0.07258132182125532 0.0821946298251548 0.08276221257698395 0.08025114891426056 0.08330780860064936 0.07691077042398653 0.08814406365564029 0.07887657939159728 0.08124963030384864 0.08062629852188515 0.08054077322675555 0.05627084142342031 0.08342247693320377 0.0792622757190686 0.07960934361396504 0.08106747213671546 0.08413819924839133 0.08287487026934018 0.08131478128327871 0.07813595075882838 0.07934037789810638 0.08311261122659021 0.0827632684253629 
-0.06838659019986312 -0.145346369134751 -0.1089522495519514 -0.06973938405859809 -0.1643175038797533 -0.1676471345314016 -0.2149611439318409 -0.1577734692655583 -0.1248315061640972 -0.1499984297626779 -0.05590538504987287 -0.1047713774182109 -0.1358591842909773 -0.208995698560611 -0.1157175172365452 -0.1513548131114832 -0.1524555248626261 -0.1208990765933532 -0.1450819514181394 -0.1532399863235465 -0.1402114393753966 -0.1573656468388927 -0.1474524396037883 -0.1584587243918756 -0.1498200427033476 -0.1366007693734348 -0.1394675786417991 -0.1180568481356215 -0.1289035781361069 -0.1364155453482439 -0.1467539681605082 -0.1433916865107204 -0.1464965668432289 -0.1490447217902447 -0.1488761528160098 -0.1466960198326313 -0.1510338933318504 -0.1479489456509116 -0.1475735498610116 -0.1431501164730778 -0.1471827554495787 -0.1449319936661723 -0.1423270525320139 -0.147208525681977 -0.1473211927007942 -0.1556969220216975 -0.1458282738067845 -0.1511001793466863 -0.1426187404245809 -0.1489353348792831 -0.1489625872311023 -0.1448031567781995 -0.1420156234662857 -0.1485562449553852 -0.1479311396183121 -0.1475201027427906 -0.1501191732472132 -0.1511551068006102 -0.1474845415637672 -0.1516436464180153 -0.1480669853012762 -0.1458283815289615 -0.141037648582412 
-0.1450412456508632 -0.1725657938887472 -0.174815398032666 -0.1208491011196411 -0.1988289978035731 -0.1960279166052443 -0.03951146614103805 -0.0566280664315006 -0.1287170015342703 -0.1652949063504885 -0.1441831075559399 -0.243056176261175 -0.2318637326793576 -0.09254372708350141 -0.3189944788750946 -0.1767527561461699 -0.188120284566851 -0.1859887387749701 -0.1754219822148132 -0.1776989235334938 -0.1571922375355274 -0.1641801128303886 -0.1874375947720036 -0.1756951790440328 -0.1839562496865728 -0.1836029767045964 -0.1900511071616859 -0.1871608344971078 -0.2196552655210691 -0.177098699434102 -0.1862902391565916 -0.1973738156900956 -0.1864635288489767 -0.1821361106016651 -0.1829573149240427 -0.185584861966952 -0.1971914033184124 -0.1851630748166603 -0.179548868777945 -0.1844681271646165 -0.1827329241806226 -0.1862648340662704 -0.1968236191200373 -0.1851000568716978 -0.1850898090092559 -0.1881167030031125 -0.1794793828680338 -0.1922101462349427 -0.1827621612331178 -0.1870464938140783 -0.18495843172001 -0.1671155858990702 -0.1798745837315477 -0.1824400692114661 -0.1816167995276255 -0.1861927522634462 -0.1807873073980825 -0.1866865555520357 -0.1861214969740012 -0.1629550232038793 -0.1854980339300837 -0.1827046628228475 -0.2120159992859231 
-0.2049014462868945 0.09298972918128191 0.122419313065856 0.04499670819350345 0.287104917588814 0.08934529362597893 0.06803835500534337 0.04948999861748821 0.09307758134419414 0.105909295402414 -0.07365103235083631 0.2504712252613828 0.09105023298945703 0.1659439673419784 0.08865174458084721 0.09208737274914554 0.1041399978257085 0.1078700218125313 0.0995663141056264 0.098795310689924 0.1073139801508379 0.122401824404612 0.1038998761207375 0.1020663167631339 0.09376171727160146 0.1222598488447249 0.08897897252691619 0.1117197444590258 0.1801968996968212 0.1039428084084397 0.1038531749623104 0.08197169791089853 0.1027906909648325 0.09489801962714957 0.1036350608342628 0.1024711529022116 0.1037876654973258 0.1016615213521657 0.1079028477166915 0.106207012042456 0.1056630096180702 0.1105099403659025 0.103626097680565 0.1045386247399943 0.1033740726875242 0.106611440611631 0.09326443383312288 0.09964575033329988 0.105164193025974 0.1047242201522283 0.1038916789819924 0.09927705211975797 0.1044794541906996 0.1009126575613991 0.102999301587848 0.101800110584014 0.1123481168024903 0.1015372739506925 0.101113331756235 0.1071043153785597 0.1022916521024397 0.1015405933072923 0.08865038102862358 
0.1037469371520977 -0.03054048708266761 0.01718403209807077 -0.09213180925734556 0.086675507499913 -0.03618838777739098 -0.004556963172962158 0.03186204819927101 0.02682782434389403 0.001081086648186436 -0.06628385096764383 -0.004559427664578494 0.001140738620375132 -0.1668761985595729 -0.01872237097326282 -0.003737364824007553 -0.002262455867331769 -0.00790878672998366 0.003698253062251641 -0.01123842942958558 -0.004684374451123019 0.00861663271338063 -0.004136174325317884 0.0003458033414261883 -0.005243761889061302 -0.01574456487548416 -0.01173500379493105 0.03921160919891077 -0.01428344686605961 -0.01174641250213496 -0.00281372706152486 3.508609408832018e-05 -0.003975334933116453 -0.004488391453238062 -0.003399960426979536 -0.003826277452295371 -0.001326476790099976 -0.002922139389736478 -0.0006896872244030001 -1.35027067451885e-05 0.001418079848570174 -0.003521610540050368 0.005795493807575821 -0.00226408998187434 -0.004748237822614121 -0.005564582673724025 -0.00700268127964418 -0.001349209403066251 0.004426114845986352 -0.003883018056611475 -0.003350514411372406 -0.01244226130961572 -0.00415495453294147 -0.001896634804535077 -0.002699233673949204 -0.004039137920141835 -0.001301290093628985 -0.005804798470514333 -0.003300460619942898 -0.01136943268218123 -0.00277312236458913 -0.003187172154356427 -0.004377286441497182 
0.02237701613589323 -0.1738087520637602 -0.1557172023348023 -0.2214370324537725 -0.1791806022038829 -0.2009891139406407 -0.1978496406169605 0.0596049360058301 -0.1373440827714643 -0.1757861571326692 -0.4122692939898488 -0.1308545776709922 -0.1522587717165507 -0.060618883105571 -0.1772704376104348 -0.1591526575529875 -0.1742256562354877 -0.1633572525736499 -0.1526975671117382 -0.16963917537464 -0.1640147947860248 -0.1547842520987934 -0.1700276683957267 -0.1873130183438059 -0.1720801307217753 -0.1774256247606942 -0.1783701528110192 -0.1733077741482829 -0.1866250150997503 -0.1661496935462986 -0.1682180266973783 -0.1767234549899242 -0.1710343955497806 -0.1647458829463718 -0.1699343295650032 -0.1719991794997709 -0.1798511128273577 -0.1692642455671195 -0.1634343109403798 -0.1661396593490139 -0.1679605503112985 -0.1723801500499364 -0.1738511327616906 -0.1695475721404493 -0.1711294509963505 -0.1614625622889493 -0.169074501207417 -0.17532351478533 -0.1689886802601291 -0.1702448672018312 -0.1711067609824097 -0.1862844999775503 -0.1738663749950882 -0.1684602320984642 -0.1706620504079023 -0.1720526242539457 -0.1694664782779467 -0.1727893206213803 -0.1678487952710745 -0.1671962436885458 -0.1707070854893071 -0.1694172924150184 -0.1677315361488479 
-0.05114382235593322 -0.05516350224788662 0.005536364425635177 -0.1674361993332612 -0.2260354538887276 -0.0397755561381844 -0.007542673462909281 0.3192564660769691 -0.1092982322212134 -0.02708776498648573 0.2761220611715126 -0.158353192583283 -0.02632566986125984 0.01160286787400788 -0.005753874319132287 -0.03029522341884479 -0.02673660383480922 -0.05443282707970702 -0.0152573437159384 -0.03309619624022127 -0.04012850972253081 -0.005239684529132756 -0.02825902587823357 -0.007620777326410908 -0.03320075979869175 -0.02014250144295279 -0.04165277616475101 -0.03554208838072283 -0.02326190268493174 -0.0188382800672497 -0.03013611817369182 -0.02571188393574046 -0.02766985574909665 -0.03558236945012382 -0.02909319682824129 -0.02766805140864192 -0.02727449738812167 -0.02797122306721734 -0.02285651174338485 -0.02564454749302236 -0.03147482697917452 -0.02136091751915715 -0.02535719061280459 -0.02702845600090201 -0.02555282411197122 -0.03698971500092599 -0.02516972470438131 -0.04044114613221758 -0.02720145896607414 -0.02851176888888932 -0.02823374388012758 0.0006355461388363886 -0.03082395885787289 -0.02925207358018826 -0.02953127843691645 -0.02625958261981213 -0.02862030704699089 -0.02737164240018462 -0.0277716626699314 -0.04125282190077525 -0.02810644746145489 -0.02928667725676921 -0.0397398186800447 
0.2492912705065164 0.192545688707615 0.290792788645252 0.1032476685595866 0.3011716813782406 0.2301708057772524 0.2292751642263762 0.05288959668364341 0.228147785599373 0.2115198088132408 0.251318580878403 0.1811227100202212 0.2497700950453348 0.1474450020809802 0.03519741333203251 0.2166700896437231 0.2227825980974732 0.2225540723621123 0.1927936877756828 0.2143474987604717 0.2082014946844348 0.2008215459958664 0.2171876904581759 0.2116841888002486 0.2170977680047217 0.2266761543763465 0.222721256679087 0.2300687272823818 0.2294005011950755 0.2037823641833553 0.2181196883646818 0.2172191532517729 0.2174073518270289 0.2163458023022011 0.2200924431191439 0.2221262428752929 0.2222255304169044 0.2173536333505249 0.2200610879955856 0.2036949175956138 0.2204128473342018 0.2100306897995794 0.2469570423863361 0.2194993452764592 0.2199202433285382 0.2152696661708844 0.2047255508384412 0.2158065896294323 0.2155082910980355 0.2200068124052857 0.2180308293423207 0.2110659354797126 0.2208990035302484 0.2220734361589111 0.2198293466812745 0.2200829181669618 0.2151488929168221 0.2188562093114597 0.2157841199580164 0.2342576876115868 0.2190603587849502 0.2183090612185653 0.2204829471016969 
0.1536543209361636 0.01018561200549763 0.06063694837194226 0.08260196872360957 -0.224025331647433 0.05594329653485208 -0.04054133575860145 0.01963720647176745 -0.02915510603642485 0.05374137720266382 0.2382951028067776 0.01553949803777976 0.02064789042511483 0.06986647326991911 0.06344951960962573 0.04144812904014706 0.04308583023096142 0.009558167897194367 0.05040960816620779 0.04159030482230068 0.09193383623893071 0.04445760637865939 0.04428655321324367 0.04354982187921683 0.04415647275728252 0.04994251330829736 0.04360253626504833 0.03653277768566578 0.02596380196103522 0.03275645972950761 0.04405698846002347 0.03324380560314412 0.04516171680765702 0.04817087275879343 0.04730774828102793 0.04427406928659655 0.04865372514744708 0.04519501978982044 0.05211624420957619 0.04566152747244413 0.04230803215475747 0.04639761299066386 0.04570256108364848 0.04486125118957158 0.04626422299416223 0.04834505783739638 0.05512961361641425 0.04541516809199023 0.04823835620775094 0.04464379973769474 0.04524212639292344 -0.02079390839169323 0.04150673712102927 0.04381044792967571 0.04585066912595262 0.04362112649046254 0.04242694296846199 0.04530661640972911 0.04510788745837956 0.04757643646572128 0.04344323380977856 0.04398471486659092 0.01919032513311426 
-0.07111176452962462 0.1379844998917182 0.123532193035562 -0.05246919425023594 -0.0286439374718718 0.1460333555480905 0.06833035995672253 0.292653230493824 0.1262479168190762 0.1153972420663125 0.3987632988239465 0.04338743380494301 0.1333966951869166 0.05477967464507532 0.1431337453984798 0.1278438557973615 0.1220159869899722 0.1078944848617323 0.09536690479827482 0.1228767556235338 0.1244409033110384 0.1093161043026392 0.1182266867923503 0.1193990972312564 0.1139106864913458 0.1302336514605266 0.1230310682307312 0.1234716983602318 0.1506003785062283 0.1288209929156778 0.118010208712663 0.1162482414907431 0.1180779752408081 0.1172112720548674 0.1204379512515855 0.1214313956761962 0.1240569492713349 0.1176696044807968 0.1096811557392007 0.112588353315008 0.1187768389975359 0.1222271134287084 0.1231053750828687 0.1172151398408089 0.1197566015424817 0.1074886684421161 0.1260870678572309 0.1311579387374411 0.1184456628085138 0.1202133985739744 0.1189537666481636 0.1179437162969153 0.1200514500960352 0.120327549551985 0.1183035916510494 0.1202538675749638 0.1188129699644641 0.1204003413146116 0.1199541388939161 0.1167869904487694 0.1186042268839738 0.1182347752509523 0.1279995833875545 
0.05915693786839832 -0.03574693772445505 -0.02529205043441793 -0.1099891253490444 0.08960476747874435 -0.01549917689948303 -0.03579157967728388 0.0807393474633929 -0.1368884812670514 -0.0270738808840625 -0.1816967857644278 -0.07096516619955288 -0.03934590236727992 0.07012724117241524 -0.05937066969802818 -0.04032232764231128 -0.03554047319667803 -0.003752841039215524 -0.01824174362473214 -0.03415490756055042 0.0003136374450860646 -0.0226111237961154 -0.03135380831491946 -0.03352243295454442 -0.03418214300208489 -0.04166116241223341 -0.03574962603571384 -0.07032492615050583 -0.020452175794535 -0.03557177589840543 -0.03155437838712521 -0.04560890327750981 -0.03086061522929371 -0.02674945101280354 -0.03157553116015877 -0.03184625586747004 -0.03449657544524603 -0.03246280374762998 -0.02603845201075976 -0.03071056371348624 -0.03493047487967204 -0.03698377961471274 -0.01954140868900125 -0.03051319088284335 -0.03351043764816645 -0.0320761979307581 -0.03382537216359444 -0.02414958659032834 -0.03130910694863959 -0.03162220767154952 -0.03202491317525472 -0.05992870349187772 -0.0362326564368053 -0.03383610044453238 -0.03139340870035429 -0.03292995193068567 -0.03676141708974697 -0.0320649045081829 -0.0340219141008927 -0.03492533544353104 -0.03176563704960349 -0.03226946572490379 -0.03575797183264902 
-0.07328061595599568 -0.003113060645449663 0.001578584969573391 0.0710655350491113 0.1574469334290692 0.0587633709313893 0.05040953987149505 0.07790615532234731 0.008821387847713193 0.03980845097354929 0.06029603476382808 -0.1261068918331348 0.04909798898530247 -0.04936641001646258 0.1359431546035533 0.02870982767598742 0.02510122184810833 -0.003960832638818199 0.05096111582562531 0.03989280767316483 0.04337414419491917 0.06349453664270258 0.02690699900115543 0.02649123243211154 0.01961657934112663 0.03421060623720543 0.03669833200385324 0.005489606487072256 0.01112754140787078 0.02740489016513501 0.02932532533234413 0.009161532560061351 0.02942875745942848 0.02656130472737256 0.02589888691642822 0.02949158441449205 0.02709555669484407 0.02584101328548407 0.03630784469984528 0.02401243262145797 0.02153485148854685 0.03282379144573022 0.01947478574295294 0.02864575691747376 0.02977944102565507 0.02616371150700247 0.03045748044618169 0.02834696517389686 0.02969798712896319 0.03105454721019125 0.02783949730137936 0.02546938047198424 0.02139698909770485 0.02944087434518216 0.02901240862682669 0.0302763817455905 0.03274468123450792 0.02765766892286933 0.02635559671598318 0.0343047739570009 0.0301540304655271 0.02817763184129407 0.01422067533868476 
-0.02528056546812604 0.1361024936117392 0.1328516118025115 -0.2292125528993758 -0.00960222346046154 0.09552228974863533 0.2976168343857986 -0.1429880419772841 0.1938548031327623 0.1066696574231743 0.0567107997933435 0.3165922690770684 0.1086629667456507 0.1515661744745563 0.2032665089976365 0.1151178163363929 0.1127197404967078 0.1066712872009336 0.09966851661224443 0.1171423180084655 0.1075634303701588 0.1281802696429512 0.115047588243529 0.1013100822690138 0.1105703880988056 0.1105031551646821 0.1199714283350699 0.07771209710491545 0.096656988914606 0.12454138115161 0.1128626398796832 0.1021302315317856 0.1142920577162289 0.1017502162505458 0.1145070158582261 0.1090833871181511 0.107022901278687 0.1119166656159492 0.1044904250442177 0.1081397825353847 0.1129310976466611 0.1159105113661717 0.1174873052517822 0.1146087200635666 0.1083410775562658 0.1113871514454511 0.1075589312235873 0.1220395825031682 0.1121419614747187 0.1122311250162582 0.1123199995155958 0.1127714495087515 0.1106736222235717 0.112336318134252 0.1100172761801809 0.1117038392632501 0.1035278025596101 0.1106265451827345 0.1170464274343587 0.1270264168806612 0.1138630584444338 0.1107672804600565 0.09262121921513343 
0.2259590454216143 0.2476306010344358 0.2745418820037933 0.1629412247296038 0.2046275496124264 0.2627707533538119 0.2067236542398351 0.1492028165153909 0.2469286735405199 0.2510437974601803 0.09399847189462079 0.2882687931168689 0.2354936646098634 0.1043401082994065 0.1575417331149783 0.2470217252591109 0.2477652582951003 0.2482909557273533 0.243820095724853 0.2392544770068172 0.2803579621533743 0.238672858804272 0.2476793022394041 0.2378961061401013 0.2443186583240733 0.2560882648529388 0.2454042652658536 0.2267551053429157 0.2552517518390127 0.2343046951725988 0.2479183501173215 0.24632746700502 0.2477254263199692 0.2465288411444893 0.251526943743354 0.2479434759961888 0.2439209157404791 0.2455730751634833 0.2497442920007535 0.2549118438710709 0.2494965117342151 0.2477536122091887 0.2450265602808541 0.2479894369522263 0.2449171098608021 0.2441798471423585 0.2486586199033171 0.2513052255006908 0.2450595010114599 0.2453467007936438 0.2474077951907824 0.2592115477686752 0.2492651161334251 0.2487355599769922 0.2463818920315786 0.2498376485790487 0.2497545398610747 0.246245305224614 0.245590497878802 0.2519556990228826 0.247489233933979 0.2460983281034538 0.2432191252717043 
-0.07696388457792412 -0.1783833759851906 -0.1316195748938923 -0.283010178632249 0.1866984938706724 -0.1556103854464827 0.03097121139303135 -0.04391536287482479 -0.08987943653670863 -0.156389062272008 -0.1894784628815041 -0.1180740489933877 -0.158590139766868 -0.2289890250883053 -0.2016771738373599 -0.151535596272331 -0.15892320593846 -0.152320454654474 -0.1470303897023024 -0.1595242971164158 -0.2219529799084002 -0.1572243936158196 -0.1589937074555434 -0.1695051643994113 -0.1728391224299333 -0.1619975823154621 -0.1553957408235691 -0.164217968238617 -0.1871042085730777 -0.1517211025213404 -0.1585318985254493 -0.1581629028804749 -0.1594067227500159 -0.1611484223538877 -0.1566517537128833 -0.1578983269326648 -0.1633833479213957 -0.1609003181007433 -0.1561234596221458 -0.1645265622684151 -0.1659438238909209 -0.1590080169170611 -0.1718191095290779 -0.1568802619426608 -0.160158334781995 -0.1692515196538845 -0.1557663046312191 -0.1543801043716255 -0.157867956595947 -0.1601564292549627 -0.16183043321218 -0.1605840438731862 -0.1570353136296422 -0.1593063548777889 -0.1592619945291658 -0.1591465440782815 -0.1583490804984269 -0.1605031808850212 -0.1611469890276063 -0.1521399247204309 -0.1615331034608624 -0.1601889395438208 -0.1618023821723109 
-0.08217751009692259 -0.06995989051356649 -0.1500259635137899 0.04581032300362226 0.03747956156581491 -0.08517517382496796 -0.09651513326966628 -0.1297709276166838 -0.02622220625655415 -0.1319689487954138 -0.1553949138286356 -0.1495284688104573 -0.1496769905468654 -0.2206250501747747 -0.1170195935342105 -0.1216013327694038 -0.1260717760717763 -0.1095321789685774 -0.155906962220404 -0.1277316073802413 -0.1424047152158929 -0.1417583888590606 -0.1293451290133897 -0.123330396238922 -0.1323542648794909 -0.1223099423281639 -0.1235997909975777 -0.125825119652172 -0.1231516314917414 -0.1256217891578088 -0.1286359580495283 -0.128204872560889 -0.1289764811052602 -0.1193006737798639 -0.1302623250035602 -0.1280311137936546 -0.1266566917451049 -0.1275226442599335 -0.1326177180019626 -0.1376069507778201 -0.1226904950371691 -0.1309046286446227 -0.1396989049382541 -0.1291713824215977 -0.1282588527245459 -0.1170990748529658 -0.1270520127826663 -0.1235673380151466 -0.1316411784737191 -0.1253569689046639 -0.1269871036972692 -0.1266131727537692 -0.1227315471384826 -0.1277069430587883 -0.1274874882365827 -0.1267589654775795 -0.1245179439248677 -0.1256367035773813 -0.131318149779409 -0.1225898602741701 -0.1281491060179787 -0.1299589063565369 -0.1283634680000069 
-0.2120323232485563 0.05941453586237341 -0.0494532820615546 0.4041986857932158 -0.1345082693698629 -0.005462141549609056 0.008220897402091981 -0.07540055472135562 -0.04363460078518754 0.00659501364847131 -0.3277277344736363 0.2321525718915683 -0.002587156980375642 -0.00272288355098863 0.08209580542179054 0.01132383616894597 0.01185251282027855 0.02086799047080199 0.01562115995499679 0.01381463163586847 0.06859092486703941 0.02085051113605414 0.0139722455304093 0.01829830620764536 0.00763910427091534 0.02171222869304512 0.02453685378527032 0.04500164070820557 0.01904103614306735 0.01535341707608504 0.01822747375348121 0.007807504473584031 0.0131742463826752 0.01031489106068156 0.0110353659613001 0.01488765337490461 0.01367500428057472 0.01543248828320724 0.006399409434201647 0.01002997343745804 0.01627179482869836 0.01361336735389058 0.00369426347410428 0.01195198200665498 0.01298642686830574 0.02396312184271745 0.01552882977435847 0.001685121228563089 0.01624692206468249 0.0162432849527598 0.01378465329076158 0.01881156869444315 0.01318862375517787 0.01447858789562215 0.01700012936251753 0.01350769120263063 0.01684543707022281 0.01341297525546251 0.01218303491070724 0.01326028394603682 0.01449631627878955 0.01322437241688477 0.05556502462446324 
0.2715183712218689 0.1747508120601785 0.1787270631881523 -0.02726406281856152 0.123936503243248 0.1756547888750897 0.1567005981873439 -0.1219942297985341 0.2302469222413994 0.1692812166087326 0.08221389411246753 0.1821351475293744 0.1587621645537444 0.2833357222599645 0.1688342396781074 0.1841516400198185 0.1792225463523756 0.1903119945774676 0.1633410611349531 0.1777255200522588 0.1293576314481965 0.1798521745428267 0.1790544323377594 0.1801121679690464 0.1766520234654271 0.186133828532672 0.1797855891692551 0.1735019520824926 0.1500824656600571 0.1821252403377896 0.1774379935074946 0.1821945730683815 0.1771541281009631 0.1781220967655538 0.1770799898365898 0.1793571352255231 0.1830479917097358 0.1789864308899702 0.1756466166359213 0.1685694869475103 0.1780432899686432 0.1788922399613627 0.1759537252630219 0.177162222691394 0.180278367792036 0.1782248698911346 0.1859924746817686 0.1819826991643529 0.1779139931896557 0.1800391262782859 0.1781056428042417 0.1650310429780663 0.1778774829807839 0.1786876909084119 0.1786190915809563 0.1785018839754263 0.1774729164950586 0.179015753872846 0.1780621333458293 0.1670992290633679 0.1801976149996922 0.1774559401922856 0.1867336493974537 
0.07457166793102868 -0.005805389818294071 -0.02549970405672843 0.1230681032499203 -0.06312925712509994 -0.03775461358573715 0.03164114852446612 -0.06913369149768676 -0.08998719131812516 -0.03620962055862471 -0.3287455165376585 0.01304795931475061 -0.01117902648554701 0.1186957809953084 -0.0790950548781279 -0.0362352648563098 -0.02146910177226825 -0.02156018740370319 -0.03894272403107275 -0.03819504029889601 -0.04723459500666366 -0.01033471529753839 -0.02695135385841295 -0.03847304404301569 -0.01390746691355638 -0.03646483876094161 -0.01922485495936976 -0.0135609522930712 -0.06955019982913097 -0.0286015237705463 -0.02645056281211618 -0.03432305282739112 -0.02547567017816895 -0.02136391153941688 -0.02665316545646855 -0.02509763106228496 -0.02880996321729223 -0.02421413308682692 -0.02108231982048812 -0.03563574495406965 -0.02360390658968316 -0.0211780996426752 -0.02521752983645288 -0.0265929651736851 -0.02672679942115678 -0.01198738784232103 -0.0369079314255239 -0.0245957773970092 -0.02338331881337601 -0.0263845080568146 -0.02622497938005776 -0.01621954037192908 -0.0288965122980149 -0.02598409786693675 -0.02689923703302071 -0.02740124236651494 -0.03112231926802274 -0.02460008892835084 -0.02716642174052362 -0.04521372939214738 -0.02773640166810517 -0.02668749080238794 -0.01161415642816206 
0.3661194267754393 0.02679901334307158 0.0323813991526518 0.04679328232415789 0.209540752027267 0.06859151542682802 0.05351948158211194 -0.1052693398253035 -0.03287711782030328 0.06295984937500065 -0.01973159493219803 -0.1536570170311488 0.03590049379503633 0.07580183151997306 0.05897721482433579 0.04783444349980895 0.05468224769922594 0.07070663353044045 0.05624685770358983 0.04516762734907724 0.08796619889692096 0.07835755666709927 0.05409757498166686 0.05817439501798866 0.05842765860243365 0.05758767232597569 0.05754704036598779 0.06311782705629172 0.07280110811743565 0.04734251871363788 0.05670917159420776 0.05165260210961244 0.05660789372134375 0.05690231499962817 0.05536067968475075 0.05666795692907303 0.05088733770745791 0.05477870322749902 0.06154966212960251 0.05474048409250618 0.04650780973461848 0.05491908921995773 0.05335442205762361 0.05689696847082627 0.05609711003877721 0.06235691538508516 0.05467754905550793 0.05574832622636199 0.05468470147396088 0.05559709017488938 0.05639020083319759 0.05462158805997828 0.05477451573414271 0.05654947849374055 0.05447680506902395 0.05641535138588367 0.0569519984466951 0.05535537411721741 0.0574676682911605 0.05254734664007166 0.05391281502930156 0.05945102553480889 0.05541452334443476 
-0.2367259638958628 0.04610694662082249 0.01761773237271629 0.4293657450828857 0.147201899510687 0.03191860336424755 -0.004129204944770632 -0.04008002359110553 0.07937605189014248 0.01513922490691287 -0.1286622396833476 0.1023082123752326 0.02589951535328269 -0.06112959812665117 0.05354865985422019 0.02909026481208517 0.02820077627511626 0.04293108399203369 0.03841492016165127 0.02035873451217728 0.01399779452060814 0.03655858211252691 0.02978610927588774 0.05260122719816562 0.02260681357527802 0.04408104774556242 0.04508034315069489 0.04355850977751228 0.02120105115300959 0.04482638610083549 0.03178978459725104 0.02265965120723189 0.02920439089084788 0.0265492778951807 0.02910255708232384 0.03177733765269829 0.04128908591723672 0.03148913252690287 0.03382382173026294 0.02438874663843142 0.03765213216764925 0.0267617186224607 0.01601618426786173 0.0301609161086471 0.02735175796721289 0.03689213530231458 0.02228303455883969 0.03856884309066527 0.03102901786842338 0.03432444465780844 0.03098440235784474 -0.00945999020093399 0.0313411184745545 0.03317385339299243 0.02965036734868095 0.03107426349325052 0.03772047101620434 0.03087794541653482 0.02997410584429051 0.02365616447814276 0.03136954264412237 0.03108330632675836 0.03432323582120084 
0.02899666697909636 0.3737637443315703 0.2817410779355903 0.2304913248224527 0.02454670608532113 0.3203966865708868 0.3051548061278588 -0.09639381549306969 0.4057233996142841 0.2686619770193512 0.4203649615482239 0.2686050705539261 0.3126362431404583 0.3468298079530112 0.2802696552141828 0.2963970483554331 0.2967494588136128 0.2998586286139875 0.2821793640925306 0.2907888187563473 0.3075294384910797 0.2542440776118285 0.2958228275822549 0.3041689120104908 0.3109374693761054 0.3224624366616973 0.3021038309372949 0.2786009997203346 0.3223875931974353 0.2835331870047109 0.2934025076947665 0.3054840000156216 0.2891922998942031 0.2896093313722922 0.2918484854630016 0.2969352195685623 0.2939801861133489 0.2928975364265 0.2810598965259107 0.2851852259137785 0.3027980859321956 0.2984912280575862 0.286663719319603 0.2903903626328893 0.2974135703963851 0.2916133149980781 0.2927019283562089 0.2896151419842897 0.2840015356194351 0.2943453913673876 0.2928598040627697 0.3021712686648121 0.3033482885303856 0.2976754213812869 0.2939991214419078 0.3013067697540904 0.3005101638155345 0.2973510723683094 0.289452806329509 0.3041471430454626 0.2938084021882213 0.2941944156568382 0.3058837153998136 
-0.001734048972281216 -0.1288275877885856 -0.1095595707402959 -0.028882288968959 0.1421840175985997 -0.1235284746002683 -0.01882055622721596 0.07614244578607968 -0.175347909389922 -0.1222802193591976 -0.3047688062759099 -0.2418697931292522 -0.1293286271154604 -0.2236625175238074 -0.09518800444293055 -0.1220687953984013 -0.1345353379824505 -0.1227669885474248 -0.1150435966406076 -0.1421967439781681 -0.1395171428282596 -0.1183983971998225 -0.1315240346796338 -0.1319302014303141 -0.1339446266909698 -0.1263743889201941 -0.1467242769862174 -0.134190990662038 -0.1367887662051261 -0.1389693814867742 -0.1332449390583047 -0.143620604397281 -0.1294835699178177 -0.1341147778042558 -0.1313063127750789 -0.133476160657495 -0.1369164983004208 -0.1337159722279091 -0.1272779334513062 -0.1209479994562233 -0.1354856541043469 -0.1342319165075934 -0.1256247122441244 -0.1324519222111201 -0.1333696382428209 -0.1308823903438342 -0.1313453085519837 -0.1281670254257812 -0.1286949121226169 -0.1318140853589125 -0.1329308618464588 -0.1121028188745941 -0.1348006075269561 -0.134544343031645 -0.1347548665842533 -0.1323579234553019 -0.1354812387306564 -0.1345463990064534 -0.1314356223089066 -0.1274955325219949 -0.1344272912262823 -0.1310680612583441 -0.1463099641597433 
-0.04163253480538794 -0.06100784493629474 0.02822584153296341 -0.1778494552965093 -0.01497049673262653 -0.04095059823737564 0.07747891798062437 -0.07115972129687467 -0.05651914190518204 -0.02449270158104654 0.1470349774110251 0.1026099867436971 -0.03352642078667935 -0.1256772740622441 -0.04369384513677865 -0.01591944453671967 -0.03035924631970864 -0.05674086554457285 -0.0403656465621777 -0.03215694778210147 -0.03944146260055686 -0.02299039828166393 -0.02920314491756596 -0.04922739019071394 -0.03529182786562458 -0.02567721071119726 -0.03506932545145447 -0.02987328416138467 -0.07932745473444866 -0.03073684933347121 -0.02743147026445654 -0.02789292825405928 -0.02820703163195297 -0.02511561571046222 -0.0283183308264463 -0.02802111791597811 -0.02486273383838184 -0.03021805732009918 -0.02750643083678899 -0.02519753625049901 -0.03534012469528693 -0.0266731675844674 -0.02040118484064951 -0.02710785100876824 -0.02809861775614634 -0.02746180626044144 -0.03145801735617963 -0.02483144448585246 -0.02724600338861757 -0.02861751291578893 -0.02873992487922104 -0.05012160254119378 -0.03002627338215662 -0.02939256866442993 -0.02815598087748031 -0.03032611459293338 -0.03224427639395669 -0.02840517168102636 -0.02930230511050835 -0.02784923628094045 -0.02828594193052329 -0.02679715518621062 -0.03317758533413033 
-0.08677662939192411 -0.1245633782568282 -0.1066795810810892 -0.02878959119902254 0.0793686415656672 -0.1850968038856944 -0.09803582409819746 0.01658042146439006 -0.2143616072688415 -0.1167667291300443 -0.197245956061773 -0.2788151441688223 -0.1356590755825251 -0.06006014461649047 -0.1782831800335852 -0.134678508952659 -0.1300002317188634 -0.1032479446834729 -0.1342708903116216 -0.1279561747782319 -0.113297790233259 -0.1393510380584728 -0.1316934022529425 -0.1314015355054402 -0.138312772626889 -0.1556145202020505 -0.1340820595980188 -0.1273892663772525 -0.1230475613314497 -0.1492414141590452 -0.1314839439882769 -0.1363943511511908 -0.1313699842954338 -0.1340702438269292 -0.130593196160548 -0.1315542528355292 -0.1332887331304873 -0.1334209218487243 -0.1228056508506323 -0.1230936978603656 -0.1322677743866868 -0.1358358914948148 -0.1213416498989685 -0.1319675586511987 -0.1327522941234339 -0.1318130339122697 -0.1387741834838531 -0.1289853886924364 -0.1299869746854409 -0.1323448223756448 -0.1323331057702988 -0.114554298220912 -0.1323270278514094 -0.1302827673546259 -0.1332898337378972 -0.1311982089833753 -0.1310803383239109 -0.1339992306612841 -0.1296017179903866 -0.145438926343978 -0.1328057857618615 -0.1330504959519066 -0.1303121716169426 
-0.01843721394715252 0.003209343005172058 0.02989429088244517 0.02460544700566978 -0.2289994367871713 -0.005691111938350538 0.07112266792661703 -0.03054039492873408 0.0416690947687872 0.005338006529850005 -0.1282772420289468 0.1426744180515493 0.002514367157928752 -0.1106324802219365 0.03050777556484769 -0.005765277560707332 -0.002063603300000947 -0.01854662429584882 -0.03142789752787606 0.0100150343210041 -0.01695044657558522 -0.007818390765462584 -0.002523231945925744 -0.001542328174558473 0.005761752953885474 -0.02402556873313421 -0.001737083653854542 -0.02231161638584486 0.01037439323981787 0.01001469502497876 -0.003023883857273118 -0.006714389595243646 -0.005900246763199957 -0.007821981325960216 -0.006623419345994037 -0.00183583463575661 -0.01023075533103186 -0.00420962225550188 -0.007831472070653886 -0.01271345858789855 -0.00294332895864017 -1.719701034762818e-05 -0.0002983679017050144 -0.004673644870982968 -0.002456855201298071 -0.009592654619282052 -0.01008732463652955 0.005952214762047856 -0.006061240748534234 -0.003025726242962079 -0.002829674680551279 -0.03074398087828698 -0.007182029710462725 -0.002630088191634799 -0.005285607910818569 -0.001735626278211605 -0.008716145764461655 -0.004383814931222392 -0.004183873294493678 -0.009580613847457408 -0.005393492922372975 -0.003986197293236705 0.01636070857344659 
0.2933568951107532 0.3741450439568522 0.3494014283298706 0.2200109975727181 0.5396792728634147 0.3682880022085175 0.3142413219003201 0.1001393585292837 0.4253426103066171 0.3346476566626774 0.09975936353633065 0.1519965490502962 0.3464645227666494 0.4325913823652114 0.3395986058488957 0.3493004081234473 0.3524950695011572 0.3341129654553242 0.3366710111613627 0.3519588581959038 0.3496079126353008 0.3234762680813105 0.3496062351035656 0.3576656602919563 0.3439455936745562 0.3554074416642393 0.3523726259323121 0.3490895963853039 0.3689455227624894 0.3464165102502089 0.347033797000161 0.3534474446604439 0.3464137389304094 0.3506541787924417 0.3494314918470901 0.3492391250461251 0.3555938237696863 0.3496725199649058 0.3369428200174322 0.3410079982393353 0.3526920066943628 0.3496821575357942 0.3380765616943625 0.348405861723814 0.3503326931999551 0.3485369402413541 0.3457877753758143 0.3400613569647659 0.345357566834897 0.3486348152045789 0.349838528711405 0.3485221737901963 0.3518874938804078 0.3505072308175687 0.3502632330012439 0.3513192221916424 0.3506299160947629 0.351559227952036 0.3477354575461492 0.3448937059598076 0.3494173976331761 0.349051963207051 0.3572056020337826 
-0.002449146539342388 -0.1076670450071029 -0.08302629675244683 -0.09972257152461478 -0.01812096763243774 -0.1097789778832901 -0.07930268141303672 0.01293609871688439 -0.1442372483950227 -0.0917692761901226 -0.1323565092554146 0.01993062981307068 -0.09340222150119208 -0.2587653204179821 -0.104887976018351 -0.1099292031956707 -0.1069197974593864 -0.109525975689202 -0.0986031880076684 -0.109337589961596 -0.05677865276162095 -0.08952896980035444 -0.1027699384180347 -0.1175564640963618 -0.1072628768743496 -0.1033501815838025 -0.1076187760198321 -0.09016884744061486 -0.1004311341814042 -0.09646751796536163 -0.1016702840842031 -0.1071769308697627 -0.1029155864363531 -0.0974925653562056 -0.1028859260821691 -0.1023675863881811 -0.1071520197729602 -0.1028146640137447 -0.09988135218009606 -0.09879350012303388 -0.1007548362813204 -0.1036114800198466 -0.1035873515221978 -0.1006838810107376 -0.1027807339760278 -0.1047953022160186 -0.1048630021846467 -0.09595248259834713 -0.102153043451653 -0.1019578443277588 -0.1009153749286665 -0.09485921813319044 -0.1074320531532351 -0.1009674356207425 -0.1027722439561128 -0.1030177731862358 -0.1066238497731518 -0.1042543998679841 -0.1020497173998275 -0.1076514277465157 -0.1059189983814814 -0.1007769368675398 -0.1014809040941925 
0.1070257232297189 0.2469625488847464 0.1824495664009854 -0.049311145682207 0.3261837874329374 0.2238530322594143 0.3927369288544635 0.1209931577085429 0.279035464997069 0.2370319658357446 0.2390869761071258 0.2229392000089644 0.2524314503075655 0.07298685764515095 0.2566418678463088 0.2401919120581834 0.2371984082916505 0.2318731225484713 0.2556172281783051 0.2413256536966776 0.2277017238908497 0.2318633480161088 0.2349895985744666 0.2381898863670716 0.2426050267234051 0.2179923380970898 0.2326747507776201 0.2446750824093376 0.2380122561512933 0.2399407785510123 0.2349396460576323 0.2298749915282008 0.2337973755748739 0.2408853031794017 0.2355318402215668 0.2371036281692799 0.2240367582733809 0.2313370670165903 0.2394985622966937 0.2379795407761317 0.2344307956265889 0.2363944136770595 0.2282225005481016 0.235956782309245 0.2378302973134436 0.2441933360484022 0.2380144581413807 0.244116055483698 0.2318653149171318 0.2366680425938667 0.2356420532331675 0.2645658392990521 0.232438565007367 0.2398077834935173 0.2355066391055516 0.2362435607726008 0.2341278482798415 0.2379607626478143 0.2342186785829883 0.2284696196695808 0.2362058713670081 0.2374490534420163 0.2221196249665996 
0.06714351853447711 0.2099954237294437 0.1911246093434207 0.3508799202127746 0.3105736752117284 0.2215994684980725 0.09784813556693295 -0.0725872432485334 0.1363357358040947 0.2015641189644432 0.02007829304767156 0.3783346738751763 0.2167042164027089 0.02290367972279773 0.3078800715561011 0.198372211204542 0.2073938848910194 0.2002263670424936 0.1967475176466982 0.2013814570926133 0.2359808842763374 0.2127264018447781 0.2093029643862353 0.2113414469255131 0.2164093676797307 0.2186609587270268 0.1962428315233314 0.2569827185306241 0.2086424545796167 0.1991013104662762 0.2084922995885152 0.210983108024988 0.2053064922807003 0.2098132701653072 0.2056926520416442 0.2081484398760073 0.2079177735715253 0.2062352103442539 0.1988669630782471 0.2084510403744119 0.206475579148998 0.2073841515327895 0.2129229086627598 0.2073258547985909 0.2078973388023426 0.2099017667389004 0.2078230030586346 0.2109395160189674 0.2041201583863237 0.205900881807054 0.2074308950331808 0.1903618062844169 0.2074712565930088 0.2071468280897975 0.209030382486713 0.2095065565575734 0.2017408387970225 0.2083338070103654 0.2086896774033737 0.2094526648222304 0.2058865334071087 0.2057612449229323 0.2020266912647832 
0.261534230984056 0.1522111761144037 0.127725872279674 0.2915154180387156 -0.2706456620844402 0.1316742604844434 -0.02236908432538097 0.3327635325380652 0.1498838172398772 0.1313245994437961 0.1773233150801211 0.06248258132775671 0.1348775153191415 -0.01166815590401852 0.1665402646538271 0.1245944698590315 0.1297918076621497 0.1548153204945523 0.1203752419675973 0.1325767541479328 0.1141604052175814 0.1278578592801832 0.1262829849429265 0.1339402495453953 0.1242426856852365 0.1245459501709538 0.1374938171714598 0.1149990498204457 0.1275082969148577 0.1355316197794733 0.1307639613082933 0.129996596943642 0.1295293557122542 0.1255842727873653 0.1288350988711295 0.1271676844008972 0.1305164210083406 0.1298188586200366 0.1265421768988436 0.1196022309341311 0.1276516541743062 0.127977592161724 0.1275359238380958 0.1288445427427255 0.1287327444409149 0.1309691769728319 0.1336054259725685 0.1276411525189584 0.1280304785246236 0.127554057358438 0.1302425079626687 0.1236930826216852 0.1291782161269047 0.1270842380627698 0.1291630840429025 0.1284825187212445 0.1264093400623569 0.1309191125139182 0.1289263561023285 0.1318207043298513 0.1289692649063311 0.1262704753218404 0.1287807425116164 
0.0252470221240827 0.1332087081599469 0.1790367279625306 0.1655683282008819 0.1632949282559389 0.1951617371027062 0.2160511270564046 0.1005989652299309 0.1898624299200216 0.1671710809130812 0.009674452592808936 0.1173285861544596 0.1779712015667356 0.3243084263405172 0.1438538549787725 0.1778145199425758 0.1785011359490039 0.1833738773800206 0.1845737019329698 0.1814494218818941 0.1510781955914635 0.1686803385837853 0.1752713245650042 0.1840191594774507 0.1778123945106353 0.1798147797175628 0.1875983911853029 0.1743974294715305 0.1585388097491154 0.1784708142288931 0.1759659516480046 0.1818666783983559 0.1754617489245242 0.1788869250281862 0.1737570562225413 0.1739405588552029 0.1730672495081609 0.1771128718261557 0.1750437370509854 0.1672100993026417 0.178921023995888 0.1655355846474454 0.1601999785402695 0.1767939150276399 0.1741795493709275 0.1817465132732639 0.173178941200946 0.1704451019940222 0.1708562972143113 0.1730584369241094 0.1776536150258461 0.1735860953210294 0.1782483135982352 0.1769313437454722 0.1772326144630887 0.1755015046238448 0.1814929634482693 0.1745994439775354 0.1754400181728971 0.1756542525553787 0.1777565538009648 0.1755401420989998 0.1787585187704779 
0.08559620920320243 -0.1194644384869996 -0.17276280259204 -0.08444738298715615 -0.3157300996081017 -0.1263595163137448 -0.101978230035545 -0.2097744983195331 -0.1080657352598562 -0.1327713661442531 -0.03946305243259896 -0.1800465466296825 -0.1232910944256523 -0.06747317758221852 -0.1021222288170184 -0.1343337834604271 -0.1276552557730967 -0.1138102528646033 -0.1095386199345493 -0.1153357906124458 -0.1446638440639486 -0.1020677639263524 -0.126164724882263 -0.1263134401244269 -0.1256491285278753 -0.129623595259737 -0.123482059283328 -0.1100690159981164 -0.1298054550048962 -0.1163345293380708 -0.1251462714836735 -0.114353249571132 -0.1256393521223396 -0.1250596117802723 -0.1292368093576254 -0.1251901466482027 -0.1232668288089565 -0.1249891926984445 -0.1238628256278122 -0.1300783785772878 -0.1277215054204193 -0.1282909734122218 -0.1231820611412232 -0.1259392228705602 -0.1238017074033726 -0.1250341114969883 -0.1263082387632347 -0.1159559589497895 -0.1234236711405458 -0.1239542093140869 -0.125558261619563 -0.1215712025375378 -0.1281098723550018 -0.1262854884084672 -0.1250785120554051 -0.1297951160152924 -0.1285134968639874 -0.1252938073418773 -0.126607331913573 -0.1280155184248571 -0.1244830450376607 -0.1261374308209074 -0.1243711648561951 
-0.3666237055884387 -0.2622907568804129 -0.2792996342237348 -0.2400271808811122 -0.1469949829617833 -0.2269015060264312 -0.2863949594254109 -0.08080008975024329 -0.1930510655103956 -0.265859051133856 -0.02064987503387536 -0.1297964044123049 -0.2567411664722022 -0.2531881934842476 -0.2227407416730993 -0.2604709203548803 -0.2627964786683566 -0.2785572888683061 -0.2451146987506194 -0.2552382518822277 -0.3197845809547687 -0.253189759596806 -0.2576249277181221 -0.2553043978729019 -0.2488641625342697 -0.2366901311436572 -0.2537860247329522 -0.2719928956482695 -0.2390069844693339 -0.2717524763876583 -0.2607794988454774 -0.2624183121188121 -0.2615790804980092 -0.2613350456360207 -0.2598046106920454 -0.2637973531395185 -0.254049290416171 -0.2605810730692308 -0.2670055475033266 -0.2637527711257255 -0.2562742525157197 -0.2595733076967179 -0.2605478333834204 -0.2628255434173635 -0.2597958749180673 -0.2646248232318125 -0.2529463099306395 -0.2745740109144045 -0.2640081670921651 -0.2639167254244749 -0.2624479512769406 -0.2490850100095433 -0.2593672733624248 -0.2621692136577859 -0.2648011502672205 -0.2605183565906475 -0.2675018299369769 -0.2634279263640537 -0.264380828115223 -0.2638349635550803 -0.261634524712876 -0.2610853477973943 -0.2641541783633063 
-0.498230983603725 -0.3508944175038335 -0.3693059434157113 -0.1491652223204755 -0.3184468687223579 -0.3493855145904918 -0.2925025640768682 -0.2230870667288332 -0.3051727481271799 -0.3275221604832828 -0.2518471818420145 -0.1335718202653701 -0.3217300635276184 -0.4151578416224365 -0.2985068352683382 -0.3415963223460371 -0.3391923440170015 -0.3520341424248398 -0.3260310431367471 -0.3457780390572014 -0.3692620963460141 -0.3133399378630046 -0.3411098266277818 -0.3367822427124321 -0.3405892009522781 -0.3470225524782444 -0.3451209915310752 -0.3207254471086354 -0.2925637431626347 -0.3433732316077815 -0.3399416063266792 -0.3370346374849977 -0.3400673728216163 -0.3439270576916909 -0.3398710687869575 -0.3406165997747332 -0.3351574171443963 -0.3394668505686197 -0.341686459502114 -0.3298826524942854 -0.3447199875267707 -0.3424146913067262 -0.3355442882290924 -0.3414887289888537 -0.3397859113423081 -0.3285763310271391 -0.340291601577331 -0.3436723192509115 -0.3399251675022776 -0.3428967158037334 -0.3422029856480518 -0.3197373432105853 -0.3370451477742608 -0.3378862095849002 -0.3402804213812213 -0.3406789250176094 -0.3445903096554129 -0.3431315094848029 -0.340323363498572 -0.3445359114797428 -0.3424398075744512 -0.3393629467041157 -0.3386280434071606 
0.02470903314038023 0.04068524750846635 -0.0128234581232267 0.03342804856880893 -0.3101490387164987 0.05071670496166757 0.07102221435604274 -0.178283905978263 -0.02436589102679887 0.01962574453600961 0.09067439519479753 0.06308821941747428 0.03509492009881571 0.05215675941059808 -0.01508183675206051 0.01996090164885678 0.008233868884065304 0.03024621718780365 0.03454754635912047 0.01884515667380675 -0.02448528012889494 0.005557801742298913 0.01097879438978022 0.01692420076922948 0.0002439481981939074 0.001594743808861479 -0.001025346900531211 0.007309727234406714 0.01605449271636259 0.01159773916097349 0.01339306851898904 0.009188586146199131 0.00992374856655835 0.007380419128697213 0.01331622544860248 0.01174121639866372 0.01081748986461806 0.01190164667875818 0.01063630988740075 0.02140479397644696 0.004918481305519025 0.01239239911836062 0.01028529130442792 0.01278102678634742 0.009932082904247784 -0.001641468060576919 0.01238003331020226 0.01706555342412487 0.009442997060029958 0.0101368899107718 0.01085737127968873 -0.02054537047824274 0.01509653085354576 0.01377143799548911 0.009215820363934198 0.009835673082427637 0.01439066778032239 0.009847675342045328 0.006527015444569787 0.01041516471630053 0.01151427922994359 0.01263821637752722 0.01460420787958197 
0.09977202640858522 -0.04059470246504089 0.008705377042036964 -0.3400617877104562 0.05896541793934162 -0.01962921473187032 0.04684811233209538 0.0500270682423902 -0.05858296875286925 -0.01734881553712456 -0.0667803644373817 -0.02705712689558151 -0.03786060887000966 0.009172953541926241 -0.0519559445220191 -0.02389725445493143 -0.02300064915323858 -0.02236984771436543 -0.03203975963934818 -0.02021724427671583 -0.04385740422499761 -0.01237906486255783 -0.02016401478409957 -0.01083797696897317 -0.01675316807494407 -0.006644984183897402 -0.02704706916826354 -0.01134272645496987 -0.0033063706543063 -0.02246122554267711 -0.02049520300762787 -0.01616845889707741 -0.02004139088236809 -0.01863238188922893 -0.01875400467973925 -0.02149336302959732 -0.02834888000325856 -0.02082629539833594 -0.01240784416817409 -0.01541143598296727 -0.01629814663205139 -0.02539899549101045 -0.03169745591517736 -0.01925122097655407 -0.02027019668170388 -0.01840783822815414 -0.02072792590967465 -0.02247342384596119 -0.01714820344213513 -0.01983088046501758 -0.02008764682141205 -0.03911798888477761 -0.02047984274891275 -0.01799972048180596 -0.02009622337525712 -0.02253306020983438 -0.02583779457053546 -0.02145922215258857 -0.01996415514707914 -0.01697109230164463 -0.02063327877722458 -0.01832120964133918 -0.02384315210416462 
0.1041286875603698 0.0431545143921966 0.03351806781103453 -0.04236575986498336 -0.2861130335834208 -0.003056988821292258 -0.08283707066023092 0.1829682469062902 0.08369856185684525 0.01485374630978391 0.1232030399859071 -0.1018983613862341 0.02187289471234672 0.03172527577223197 -0.03001821812154659 0.01399589298787854 0.006569704470597322 0.03873367202776702 0.02649614395010089 0.006056784891766099 -0.05497334235045796 0.006374511206449564 0.004930194199303017 -0.0009545174742003678 0.002600014154492184 0.009301405554139689 0.0008858455147152358 0.01189765277355123 0.01073980795705382 -0.01863646691772832 0.005349660339790072 0.01225767240637345 0.003625529297158593 0.01067805993026894 0.003597274425008763 0.003434718030387534 0.004987233771250119 0.006698085730024707 0.002057507259566927 0.004515433662916644 0.009464135144024709 0.007729692386278048 -0.0007164032852980335 0.00449580521277375 0.004382051174679069 0.007197435441278007 0.01245553847670662 0.001167174699320078 0.001207073011151121 0.004396634566267831 0.004975391871731211 0.01975385492776826 0.001132380460776751 0.004997601391627056 0.004532796181993924 0.003732997896692098 -0.002264023721523234 0.009519825096892403 0.005195835401791966 -0.001420873890786836 0.005576855116098817 0.00570489248568695 -0.01232383718244666 
0.08194469863507621 -0.03945438259197497 -0.0485652383186525 0.1922510612308649 -0.1761752461216283 -0.05987171127860179 -0.06959868339809967 -0.04781188692312405 -0.04155788176132938 -0.04203078081913042 -0.3148410564261374 -0.0006293411679169584 -0.04182249944619745 -0.06269220701309679 0.01910898841933739 -0.05819806953103883 -0.05356333499462636 -0.04692111951706708 -0.05679858425961458 -0.04160871807651015 -0.08647311694837574 -0.0439270362977258 -0.05424301282574257 -0.04602314068432174 -0.05497524675738822 -0.05783145808935513 -0.0509802390566224 -0.05436346878320183 -0.0500899037568048 -0.03498241583445898 -0.0519886463739283 -0.04925195220566168 -0.05301897251680567 -0.05241982098429979 -0.05397219749379972 -0.05463229113001725 -0.05246746610896845 -0.05113582481950604 -0.05458728146073202 -0.05665631402327742 -0.0585501687232924 -0.05047331385409744 -0.05051349520487923 -0.05307874671018446 -0.05117474245278368 -0.05419803612788502 -0.04944110560771918 -0.05480967098186916 -0.05345978275595473 -0.05229375868644674 -0.05285237479584741 -0.05614052064835395 -0.05578419028285414 -0.05363895550400133 -0.05273072147739186 -0.05477623540759797 -0.05333164187803768 -0.05165244162841742 -0.05420147505748173 -0.04740858851460319 -0.0522814903335871 -0.0549097253134815 -0.05379818542280821 
0.2996216925919409 0.2429654646996753 0.1848593022522922 0.20169362899197 -0.008116993223506973 0.1478425761111392 0.1067549199870887 0.4236969277035845 0.1343562405655205 0.2017870105051272 0.4182780503651292 0.07993119137864005 0.2118192850422571 0.08197094820907126 0.1490069317475989 0.219019626941214 0.2065674814160061 0.187186489646494 0.1877557512414015 0.2186329436746162 0.19547525138524 0.1946607823981349 0.2057226535546151 0.2141876759715535 0.2057070614071512 0.2049319079198262 0.2185435811495096 0.1762529981994623 0.2057516160309802 0.2074811818745621 0.2094848766401696 0.2179421470336859 0.2050899951480387 0.2040110149161938 0.2095486872324256 0.2061103520686042 0.1973226044820927 0.2080400389167051 0.2068618191396472 0.2091796481999572 0.2102165967343437 0.2103081235183539 0.1836897614442371 0.2079973942109524 0.2070810992277751 0.2075188978939018 0.2046676110919332 0.2078901601086875 0.2024805890734801 0.2076930306436138 0.2062602427337105 0.2187231327813036 0.2054031549814391 0.2068263511547179 0.2058789006234905 0.2058126488467031 0.207305317493967 0.208270576040324 0.2056332777045737 0.2128685309577618 0.2071985650871717 0.2068066338475173 0.208099165949121 
0.04716669496210663 -0.1121517471039694 -0.1754703757350865 0.01721939111908283 -0.2193731178506255 -0.1385016303559634 -0.2197158895247021 -0.2157243729952514 -0.09945874867300797 -0.1276737404786926 0.04453315943568357 -0.02254691584426193 -0.09223868630790316 -0.07235232619557207 -0.2096311257622059 -0.1239880868922659 -0.1138127275927215 -0.1088059960824234 -0.1182120198697224 -0.1087771564753093 -0.04401537624447606 -0.1075515301124977 -0.119219428681525 -0.1314950812843129 -0.1113995638177982 -0.1201098144599504 -0.1166180177947879 -0.1207990633562722 -0.1329924104859536 -0.1118453776407348 -0.1139627040123444 -0.1169158529019917 -0.1180654639745541 -0.1139055999939242 -0.1171010494364883 -0.1172057102423973 -0.1201581487217075 -0.1142099479294341 -0.1218793224697268 -0.1158713675243783 -0.1227468708997634 -0.1177167229913195 -0.1179332788934286 -0.116415997815871 -0.1191447394608149 -0.1142645516420129 -0.1301836703398033 -0.1107355989903485 -0.112794181374338 -0.1118753989440784 -0.1160914399777242 -0.1060916340528145 -0.114487600230407 -0.1171617035669155 -0.1129874253619758 -0.1146374143316434 -0.1032663740460776 -0.1138571809885512 -0.1138395671668553 -0.1196716912137905 -0.1127860998273223 -0.117066617882572 -0.1202357462278659 
-0.07295640759976992 0.0196237590420233 -0.001289751867053713 0.2131869408642761 -0.3364236087160581 -0.02165646682574851 -0.1440764486213955 0.06873557637750656 -0.05318570783614249 -0.0141178648218996 0.01445724749282611 0.1247421457364248 -0.0009457771560529612 -0.0348540629646219 -0.01440035990297993 -0.0160871107504891 -0.007085412215602049 -0.02475442734342709 -0.02583517564638384 -0.01722830342902531 0.03125563181033731 -0.02370586544349033 -0.01473855942087889 0.00226234102748368 -0.01297825263758079 -0.01726408429061851 -0.01100055192901652 -0.02596350883799865 0.0001712274558987811 -0.01502989252072282 -0.01494335702058346 -0.01660538762853451 -0.01745382092140782 -0.01688410267347344 -0.01610392803185279 -0.01465757625202719 -0.01891222826969951 -0.01659876231619345 -0.01966356685309335 -0.02179579608433261 -0.01141916065558539 -0.01317955475640558 -0.02392429392214113 -0.0159353217160011 -0.01521232193991793 -0.0190983204162385 -0.01112636652756813 -0.02056376726124196 -0.01962499132880734 -0.01693871495144057 -0.01584780517835709 -0.02174655274133556 -0.01412966906007634 -0.01563300903980459 -0.01779428345737941 -0.01519437604575654 -0.02087430227690154 -0.01306484724459936 -0.01895162277736256 -0.01516236900230506 -0.01542174573784338 -0.01706358807433839 -0.01249869707808858 
-0.0540206313784233 0.09278075527655491 0.03638071685146019 0.298013465102143 -0.05292972442409768 0.03507241335127302 0.01625075490508037 -0.03259693326693111 0.09530030655054622 0.02752104240121456 -0.1398081160290709 0.09052141906949618 0.03530598077307266 -0.06540573094251245 0.02251267868281494 0.02557861663329659 0.03424166591247607 0.05834832259270339 0.04114061299614287 0.03326691067583275 0.03531477002703233 0.04587087351822876 0.03084303665325604 0.04642194030900221 0.03800464414612844 0.03605023085753573 0.04199881788271966 0.06517261530101638 0.03036639436978151 0.02555581962347209 0.03370555328920545 0.04116603660358105 0.03228076276409341 0.02327825577265037 0.03230627360217659 0.03496825495073162 0.039547333706566 0.03248706784816124 0.02174387078462944 0.03386181683375596 0.03217217815332965 0.03875574388581433 0.04748933795488994 0.03374908027151591 0.03067037560279812 0.03023165196648147 0.03539645816991203 0.04364863341208383 0.0317348509415298 0.02802647185602095 0.03388005101948192 0.02732258229779305 0.0366710505031741 0.03186203640982972 0.03196805444976389 0.03237662916627954 0.02472494915923927 0.03295686270686175 0.03029407163178424 0.03244488756684247 0.03019993795005026 0.03337027930239747 0.03339272714580473 
0.150876920832209 -0.1938777303513374 -0.1624519737511019 -0.1889769747214377 -0.2587951089963698 -0.2087669154232327 -0.1594198690483255 0.0434843275346942 -0.2197856178854943 -0.1740323019926218 -0.1317165277843104 -0.2386329914856389 -0.1824871562430779 -0.2548363612315664 -0.1902526667839994 -0.1817125041981457 -0.1861820421406102 -0.174679355175832 -0.1774591411393741 -0.1868612395185077 -0.1776473294259495 -0.1676375480590012 -0.1830424920296114 -0.188642494929801 -0.1801866780756209 -0.1823170892508559 -0.1910046139981572 -0.1796615133698997 -0.198241048311989 -0.1859061092184244 -0.1848913854319944 -0.1895920437782374 -0.1829597017256461 -0.1877256919992573 -0.1840295499347984 -0.1855549116273839 -0.1901190276091734 -0.1855459736925348 -0.1793312493108263 -0.1777122604687812 -0.1904337382707897 -0.1852978283004207 -0.1792064895503293 -0.1852259612197874 -0.1843042395796417 -0.1911708013879748 -0.1851478289908704 -0.1899038568536217 -0.1824776920627049 -0.1846574901235449 -0.1867168976284592 -0.182001197382827 -0.1833879177650646 -0.1844528240950504 -0.1865191215570846 -0.1844774345178641 -0.1865153233809721 -0.1877567255123369 -0.1855347622044763 -0.174809634687997 -0.186082985688897 -0.1849268854033189 -0.1891583775064876 
-0.001471103752925355 0.104148461193297 0.06069473472002262 -0.2578530426634928 0.0003896263154143081 0.1062642267031773 0.1013056544969264 0.03930630067239272 0.06885285025961445 0.06512589112032897 0.1299735599995333 0.1236407670200056 0.07311603436995623 0.0946520245477262 0.09395968508277751 0.06946003165696403 0.0732153139202928 0.05952529203518501 0.08655110006608038 0.06961692547743251 0.07307782813100366 0.08665518353939823 0.07237371236789213 0.07756686999273354 0.06569804087805425 0.08236520680129522 0.07995787866631859 0.06244006310309477 0.06295285212291478 0.06085108177038793 0.07487778299626618 0.0644213316153783 0.06996725243863533 0.05866122627970469 0.06991012932551649 0.07234001310717797 0.06265758216737412 0.07320938677545566 0.06218134783356672 0.07450579973995869 0.07198813172051916 0.07510725069389133 0.06035425305770666 0.07130242001787077 0.07316103995231313 0.07207730815856486 0.07501681361127925 0.07349575531629091 0.07027317615288077 0.07104124300724385 0.07136653067697422 0.08927164028403249 0.0737844853455417 0.07241884060284297 0.07319571523067921 0.07180098782494385 0.06989630528923423 0.0763105808372037 0.07054123277245752 0.08252120292209091 0.07298673171365862 0.07069986267218482 0.06197558813992039 
0.0003434269787339836 0.06188196825027983 -0.01849099185386032 -0.219127893781276 -0.1353931477745796 0.03039592537316103 -0.00370549322276226 0.008106107676221315 0.09916722400822355 -0.012693773320925 -0.05562210486036016 0.1028693047740218 -0.00807165712408214 -0.05106903890617936 0.05080484759963264 -0.008539169774624383 0.005109645712315082 -0.009996817942620575 0.005660306853466083 -0.00212493377179799 -0.02326765549730943 -0.01044955649493962 -0.001670303909885669 0.005365945021837624 -0.001818955993734381 -0.005060785616683903 0.009024719666749559 0.02971081183742019 0.04235244135791014 0.01720125011927321 -0.0009893265349490889 0.01074471108456035 -0.001587266950002102 0.005433077763307747 -0.002661823847596901 -0.001008205305512819 -0.001065877489985251 0.0002243975360737777 -0.005785278914379635 -0.00675541411732465 -0.004310893366947066 0.003831250868085908 -0.00844349218134406 -0.001374091516850848 0.001480553023035422 0.006786450608684387 -0.002299713324983099 -0.00317235588049195 -0.002728730838810135 -0.0002318628562369071 -0.000703128589925049 0.001573021837814986 0.002634596635634627 -0.002275507135375001 -0.001815044198592811 -0.0007557397115496258 0.004249698806261503 0.002401807007361716 -0.001776276815852968 0.004563305357616781 -9.435563901299092e-05 -0.0006580480627886582 0.002234919641932571 
0.01333074064357699 -0.1060942209770035 -0.1628712104167243 0.003601299217748276 -0.2804153788228321 -0.08707655270611528 -0.1773215530394727 -0.1241861846365777 -0.05774580799894311 -0.1236618940820576 -0.153750701809446 -0.1968085961223271 -0.1218310012149773 0.0445538698470478 -0.08105553945526757 -0.1095139058635964 -0.117893266335759 -0.1265043068879796 -0.1144146223657807 -0.1097046000601952 -0.08386548579362914 -0.1107612863042625 -0.1128978413695351 -0.08901788166380528 -0.1077896345765607 -0.1020390141525279 -0.1258111992653809 -0.1190537865607481 -0.0967096306912632 -0.1211109697121447 -0.1146567461614374 -0.1199656503517658 -0.1148717004935891 -0.109076431212799 -0.1153523813668089 -0.1131522993752914 -0.1127770936008844 -0.1114193568993146 -0.1119737583033485 -0.1180038019522407 -0.1203111760840986 -0.1118674449864531 -0.1123292456118848 -0.1139508178051277 -0.1109180529471651 -0.09807051010014635 -0.112035770968821 -0.118979224238614 -0.1144791913708815 -0.1163063349877538 -0.1101600458390183 -0.1174570514931773 -0.1119135024221041 -0.114069927931439 -0.1101409182221905 -0.113285649719026 -0.1181326157769165 -0.10946393166751 -0.1150817601754927 -0.1103246384517717 -0.1121897561375089 -0.1133943620248947 -0.1100800125172892 
0.118077234709968 -0.05800084135328912 -0.02980795096964521 -0.02033303588903258 -0.2875431752266464 -0.04157272874000909 -0.02529685106606927 -0.2354796552205539 -0.005910566027962702 -0.0375300334805073 -0.177086509161148 0.0279758929960441 -0.04414221922604732 0.01131446232705016 -0.06269415589256382 -0.04600858618006366 -0.04952377957781724 -0.05065548513510866 -0.05479405246054777 -0.04869516838215005 -0.04733093130394629 -0.04217346075224318 -0.04871801899739896 -0.05075906800117858 -0.05122394618563864 -0.04921296931606699 -0.05412029540134618 -0.05009933795061684 -0.08740387547440946 -0.04555535927029445 -0.05274201026985226 -0.06057816649261202 -0.04643855718134728 -0.04561615648147684 -0.0473391079185604 -0.05178164620694648 -0.05216699221330639 -0.05085367410352053 -0.04766121217584349 -0.04374092015246582 -0.05271641153877451 -0.05100893635568638 -0.05136244849966806 -0.04896842676933784 -0.05374081880632993 -0.05451375527635478 -0.0504883827409011 -0.04894945390361856 -0.04795263121505337 -0.04939803936539983 -0.04966914548280935 -0.04727197339793343 -0.04937437752116075 -0.04811251350773822 -0.0539231287253307 -0.05091357617136807 -0.05714478615506507 -0.05304419671624321 -0.05021741287040814 -0.05278726972381576 -0.05120236105858432 -0.05076541527899667 -0.06356826575606654 
0.0824407821524601 -0.3056343021131346 -0.2188147282116735 -0.2292145584065307 -0.2015726769418875 -0.2448827283041723 -0.1841484893922598 -0.1858317846322033 -0.3091195371354414 -0.2118901678005224 -0.2639432187238011 -0.1555153519272348 -0.2567932152231516 -0.3442802822389389 -0.117567792225049 -0.2206221776799951 -0.2421976794904298 -0.2368902726939659 -0.2527260129497582 -0.2455792185267547 -0.2234381759171761 -0.2332794696101964 -0.2413246816300422 -0.227931836722285 -0.248953901934979 -0.2448310898523657 -0.2420160305645796 -0.2240297080598322 -0.2631759071149984 -0.2382920557127752 -0.2418610455300133 -0.2414194014513779 -0.2408939364866684 -0.2451384512355101 -0.2395954769141175 -0.23893648853024 -0.2431514117967765 -0.2409306999104266 -0.2351715382301545 -0.2406897006089759 -0.2452613848120675 -0.2427630978780904 -0.240034026778668 -0.2410602457832972 -0.243610308322423 -0.2515149470946911 -0.2396359585370619 -0.2356736171366328 -0.2461097782899785 -0.2400538388164561 -0.2415000622793536 -0.2468817544003568 -0.2384306211111258 -0.2412433684531066 -0.2397377224868096 -0.241365933441051 -0.2384960294876018 -0.2431095173348659 -0.2375479702028392 -0.2338065266273142 -0.2406555668536326 -0.2399401503573663 -0.2562514437453572 
0.03497200066550635 -0.100843634092563 -0.1255483560496718 0.003794566416046794 -0.05463292461946566 -0.1422898197224344 -0.0566138541922076 0.01235683486176164 -0.1354203625133127 -0.08744671122922583 0.1126458502025584 -0.4828506903401432 -0.06415438287520321 -0.1085711512655651 -0.1309803055587131 -0.08937000513559476 -0.09619178645787285 -0.09278265938336219 -0.08730064712105992 -0.08164276983402934 -0.01185060564876229 -0.06608215042617754 -0.09698737788024063 -0.07610019879391548 -0.08441936251068746 -0.07618476080539438 -0.08832464488209822 -0.07810630774969539 -0.1214122465412944 -0.1048021265742195 -0.09715858917043561 -0.09603370460515116 -0.09719387796745052 -0.09679447384733125 -0.0910793062340982 -0.0942976110220224 -0.09242895437480481 -0.09739845056072832 -0.09218074389678779 -0.09135015020046144 -0.09595146763440886 -0.0966852727778197 -0.0910609064419724 -0.09677913075729851 -0.09690569120311572 -0.1056578656274099 -0.09951448151129887 -0.09523004711801522 -0.09530242294822665 -0.09891016952203929 -0.09817483928362943 -0.09538936795489329 -0.09490900222748308 -0.09843389586932902 -0.09613402726078439 -0.0952687682629447 -0.0939905800136679 -0.0985931645741376 -0.1004343783575675 -0.09473944914648269 -0.09701867227208444 -0.0954030193678814 -0.09847709198636528 
