solver_type L2R_L2LOSS_SVC
nr_class 3
label 0 1 2
nr_feature 128
bias -1
w
0.03465825128597292 -0.1840826101741936 0.5096057003234814 
-0.5693589158557928 0.06189062927542202 1.020454977823209 
-0.24570793266258 -0.0407805491722919 -0.1021393561589488 
-0.1304744906044682 -0.0327169838471366 0.03797679037578182 
-0.3664470649798579 -0.08855369615137273 0.3256844115731052 
-0.2064334138246381 0.07438192238710985 0.3034477701800574 
-0.3407968044902075 0.470958043629394 -0.1706689186512001 
0.415446374974999 -0.515899795612427 -0.7292060366754717 
-0.2095202352037673 0.1106392684238762 -0.0206082060193966 
-0.08445663936006785 0.08226056890759949 0.3020885756005438 
0.07899251203836805 0.1993236359994711 0.2793327771581023 
0.2191949282837434 -0.2199854153504524 -0.2262141542758724 
-0.2759752244398458 0.09644070852378651 0.02142651779272022 
0.5871481773602077 -0.5386341907366802 -0.3741333129377695 
-0.0216676595947149 0.3246478796066442 0.08127170192487675 
-0.2923857006418328 0.0596259263840906 -0.1710914516066276 
0.2684032253647485 -0.4979684966228577 -0.420805867317855 
0.02943193553355884 -0.07515237722349125 -0.0352830906494075 
-0.1530153958841519 0.2415033739515393 -0.08808078094902387 
-0.3571950724874349 0.04614692045867205 0.3617358194582237 
0.548156497568095 -0.5075705740649201 0.8062480783490075 
0.241155783444351 -0.1036352737403623 -0.2237753603349891 
-0.09646242779828612 -0.2156972416769441 0.4830440698662501 
0.3434670953210192 0.1378723062582396 -0.1892238308620268 
0.2994951577906971 0.1395877872814984 -0.2620038135164865 
-0.2425447624106236 0.2806696811314585 0.7080909252535215 
0.1141482031026278 -0.3182009681471464 0.4116392976952196 
0.0606975248998688 0.2911802485263927 -0.4968898777088277 
-0.1164835785245506 -0.252252562596388 0.4023711741481896 
-0.5221330264664117 0.5007108342599206 0.3549233495154814 
0.1210177812879976 0.03190422629862628 0.1706586560516569 
0.3221956501203685 -0.5425017668414347 0.9568348759469077 
-0.03358618331220728 0.3077382658802558 -0.4458692353508287 
-0.2510263790525751 0.1185174365630579 0.4849583268183255 
0.180138724907449 -0.1295923754254298 0.2102654843893595 
0.2840590792826415 -0.6009685289916112 -0.5772762687820047 
0.4423742835060261 -0.01002425366498776 -0.4360285448931342 
0.7271040658939765 -0.5575980794505327 -0.7668356726528002 
0.1763834516159365 -0.131493885963544 -0.6304327456844633 
-0.2760490849594133 0.008722197590591861 0.4860931091143623 
-0.5787444734185967 0.494378959129925 0.7851330456422519 
-0.1518312382665202 0.4236040618533434 -0.2243795718867505 
0.2438906164485746 -0.2290543959890707 0.1637192399541523 
-0.1890051290579185 -0.004938509584637523 0.2731944729083993 
-0.4551429105677163 0.1577310444801053 0.4776504114184076 
-0.2799913762198318 0.1744977625876453 0.6085239171198996 
0.3461913459164451 -0.138248846125371 0.02985811266038202 
0.0359604903615214 0.3814110742701241 -0.7562455326174543 
0.4085431376522597 -0.09895704541208647 -0.7575451039932855 
-0.4523399491690051 0.4191384542997928 0.01272668491794691 
0.1830002671219678 0.09839567980281054 0.06820561444780159 
0.8806252735012313 -0.5812780371961533 -0.09515670400037232 
-0.05063263115390505 0.1100376704174859 0.2711017799545394 
0.393409265364439 -0.4179530566781585 -0.04640979272797471 
0.04174269543735799 0.06628960346682429 0.02339517711735099 
-0.9481904642406749 0.5346842834497425 0.9584361510193095 
-0.5348284310922155 0.4603140513354712 0.6941400854131962 
-0.03238962475264326 -0.0160945047239875 -0.2849988880090606 
0.2202060807781124 -0.2043744115876099 -0.221328067285144 
0.2891264502670894 -0.4876169644470658 0.9816558062400824 
0.1803539812171399 -0.1371750147423788 0.3768503959524933 
0.2897855962109916 -0.1580510982888362 -0.09221669921508681 
-0.2707593310447015 0.3159095847815192 0.03041757431745912 
-0.3586548608781545 0.01473762000568296 0.6579479755193636 
0.6186834593138979 -0.4438818875322992 -0.5660652418625428 
-0.1674735951762275 0.04889902862461183 -0.4185570381893106 
-0.1818293369712023 0.1942258153914559 0.08947772552257968 
0.1967325317269375 0.09034505158045331 -0.8157848114844983 
0.2929105302293408 -0.7929660289893415 1.062573052099489 
-0.4345045141760772 0.1176531032484951 0.8015817108167512 
-0.1029718919437963 0.3970646618153792 -0.4137964959866294 
-0.1680321047933865 -0.003560272114766297 0.04436676459239831 
-0.491397949146068 0.409749659804683 0.0432382974562568 
0.05258192837327756 -0.2811322137513899 0.4525821065970574 
-0.5682207447116395 0.3050704867441085 0.4769777582909622 
0.1320580845067511 -0.1553164722583742 0.3279127159048617 
-0.4826545650380674 0.2245397215747096 0.2435328173688455 
0.1109162814559079 0.1676527467517575 -0.9337653538933001 
0.03132601144313254 0.3013110130036026 -0.6271852795825774 
-0.1199393459599314 -0.4101379107797183 0.2284618701654458 
-0.1214277123637292 0.3874477492855184 -0.4341965726684518 
-0.5596904632021042 0.2942824935532318 0.6683318941976316 
-0.2390828945897985 -0.2696234238434212 0.4872278913233606 
-0.4998917016805949 0.07445428172472757 1.299699284453792 
-0.3009632976950303 0.0250355509235958 0.306092071214024 
-0.4678441985538678 -0.3944634070722594 0.5080201237116069 
0.2629507846150112 -0.3941864193743705 0.6795734269487553 
-0.163468483692216 0.1804714664403183 -0.1401409199596573 
0.1842254056301438 -0.3078181868469106 0.2279487102449772 
-0.5592432916221726 0.2279229430228144 0.5377517702326274 
0.6447206848791416 -0.4371644451105408 0.2926959846685933 
0.5212424635979198 -0.1801309868351505 -0.4719419649812285 
0.0419000808799261 -0.07443298326844655 -0.1188498901342506 
0.3557419777747101 -0.1292476859702398 -0.1649409125525956 
-0.2888620613669986 0.2083267605050794 -0.2383366490877178 
0.05380214587789314 -0.05025151257174951 0.3227282223242095 
-0.1462853596289152 0.1068155520858314 -0.1196049474854456 
-0.3012115529537201 0.3477033709737602 -0.197432102835228 
-0.2658799834600882 0.2682250731096708 -0.0223724774444213 
-0.01823733034085289 -0.01446572088334733 0.3184451064405913 
-0.9190800503145886 0.4293485403955424 0.6866371235105992 
0.250805903543879 -0.1193389366590891 -0.3029462840667412 
-0.07687551707809748 0.07605654741450184 -0.3434999853887193 
0.2297865145251672 0.1949838623195573 -0.188479208640384 
-0.2214632639634652 -0.2152519164224113 0.2526915628177396 
-0.2042049114462723 0.6242854186913197 -0.2625067564963323 
-0.3021728069483263 0.2829790560471916 0.2508790259457793 
0.1852081470731859 -0.5440266636454416 0.4955178589435468 
0.3958744926288266 0.182393218873384 -1.241315192334071 
0.454034591982988 -0.3964306575807711 1.046284743801245 
0.3425891671190541 -0.2266983982464861 -0.3320422651032442 
-0.1766618888025938 -0.1016338079690563 -0.02446790331948355 
-0.04856230271366582 0.01411397182489262 -0.2596380248960078 
0.03841797650405507 -0.3954580703835424 1.002504186819322 
0.1182076756560575 0.1661746097245161 -0.2722617828687579 
0.1181417091586485 -0.04171276869363964 0.04628901246951014 
-0.1724251263823727 0.5768386364011489 -0.09193786621724943 
0.2301446361702195 -0.4734961016951816 -0.1158523001334466 
-0.8077464876875633 0.05293611382406971 1.583504873714696 
0.1060991695248691 0.08900216044177713 -0.1150874050172224 
0.04350648568345686 0.02626780766477878 0.2373032229909091 
0.1905308053204769 -0.3185416080803293 -0.1993413248443016 
0.2049080308995478 0.2253293116142817 -0.8117375606547996 
-0.07619476858170156 0.1251915064359475 0.1504978163840703 
-0.04328178288635867 -0.2462370679755683 0.468405459812767 
0.8496573469311987 -0.7258995101677302 -0.1769530612791987 
0.05183347483092003 0.2090535429219485 -0.65390318793431 
-0.04486533490344989 0.4757526625980547 0.6700817037341109 
