solver_type L2R_L2LOSS_SVC
nr_class 106
label 2 13 21 7 4 5 1 12 14 59 6 9 40 101 62 29 41 8 19 68 15 17 33 28 10 57 22 46 49 24 16 94 95 26 20 38 66 18 30 70 31 25 45 48 11 3 99 78 23 93 102 105 37 42 56 32 63 50 69 58 51 82 90 71 88 73 54 74 87 109 47 39 60 108 36 79 103 106 89 76 53 100 104 85 61 98 27 97 64 72 84 34 107 80 55 86 92 77 43 75 67 81 65 96 83 91
nr_feature 128
bias -1
w
-0.01096441920711781 -0.1639520041545309 -0.3291878099608161 -0.2747316384693338 -0.02702240812241711 -0.1548439758475693 -0.2517721082053772 -0.2691873673757397 -0.04130686485494028 -0.2032513446375404 -0.04168525170157908 -0.1100535724418607 0.2639408748835657 -0.3449226242792334 -0.4105745211208618 -0.02801742532226882 -0.1092222446133241 -0.1508274790292192 -0.2433073572999745 -0.08838620760148734 -0.1350771073232842 -0.09841517477726534 -0.02162023668383069 -0.07888386009536427 -0.5084406015746394 -0.2761811718684343 -0.6627712198004968 -0.213858174688919 -0.3119334038159374 -0.4057636007893204 -0.2237062502805493 -0.2483647984922289 -0.1253177647814866 -0.2769676458017418 0.06617177523297543 0.07028790181259245 -0.1331603852880264 -0.05424885640074921 -0.1200563723238338 -0.2242040773229535 -1.100759373953632 -0.1196605447513761 -0.1808979096536714 -0.3068555129676511 -0.006002747670849958 -0.635435452373648 -0.1180504880482127 -0.2650627407238485 -0.1325431449580509 -0.242967543091709 -0.2241724112471329 -0.2619450143526081 -0.1408826151896133 -0.2045410493061231 -0.3367483144666241 -0.09035291923202501 -0.1026121138727066 -0.4133714140012172 -0.2074837479362372 -0.1343948016728538 -0.04503987216876355 -0.4233365334718733 -0.2502160741315032 -0.3840747025436778 -0.2181168241321876 -0.1205705277499476 -0.1934375599432799 -0.1525863793135985 -0.1425742824357261 -0.27834529417402 -0.258876657289899 -0.15946242261179 -0.2284869801045974 -0.1341611244864848 -0.03178106502882438 -0.3166253249915516 -0.1542498016329064 -0.3237455997547301 -0.2599075510842818 -0.1069701506846619 -0.1801904356618705 -0.1475201446050301 -0.1620421042662971 -0.241243931103766 -0.1838948009915615 -0.2686963987799721 -0.07633898909472497 -0.1904686016636646 -0.1508352399510804 -0.05292999978931723 -0.2043835641055609 -0.2465814218958157 -0.1617828227289106 -0.237383031304797 -0.5596815107489033 -0.195393234536469 -0.2638829291904716 -0.2394207050851724 -0.273083376552597 -0.130316043861202 -0.1287605971832339 -0.2370313447321434 -0.07493133353472266 -0.2114480143496728 -0.1411488444743539 -0.1174652530033349 
-0.101013129834292 0.4679670784517257 0.1875552993463482 0.8820723185270084 0.1597772655182459 0.1394072209464507 0.230070403508414 0.2307016708351005 0.07351003866535093 0.1818838435444368 -0.007127114416998159 0.09097549227084874 0.2133968924389725 0.2426036664821571 0.2227654939059146 0.08993271615280503 -0.001517216399058033 0.1373755241052529 0.3302341308459686 0.2486145801212314 0.4520834962550486 0.1958955216126627 -0.03519473778577474 0.1780034498015448 0.3651966450521618 0.004844534046488476 0.797605935345982 0.4540205613220209 0.178061427110221 -0.1514258419920111 0.1296277408191791 0.2257054832401834 0.1237020817590758 0.1401804232323169 0.05011715560686898 0.193592600825609 0.2174323127951394 -0.2417534381430231 0.1619011751497132 0.06293544552514517 -0.04588113853810381 0.3632090258596154 0.09629432499505548 0.3083888988562603 0.08203178997527644 0.6687142488034796 0.2593276864276473 0.2263493097037436 -0.08327595815447265 0.3656434842027025 0.1939048107212443 0.09614775538575028 0.2218671489175626 0.2308589007443872 0.1912052282155677 0.1434765820761799 0.2137747337658419 0.5300234970664655 0.1919489073283049 0.1637318865671549 0.1265051960206233 -0.0966716275778762 0.03567294823061086 0.4091163260099283 0.1718105240398938 0.2981675255267913 0.2149897582565078 0.09377418478999967 0.1678809423685561 0.2022728557268186 0.1967779398956943 0.1552544330974032 0.312019253261256 0.1710602889807168 0.5156812260260628 0.2838845291837697 0.1958368388409862 0.1281418846939875 0.1525548542853421 0.1625772250746206 0.1880053747898205 0.04256403563762573 0.1799558876864708 0.1961455871499 0.379445115479851 0.2249713765294447 0.1036471290888085 0.1750050029279524 0.2390849374875031 0.2141073932926986 0.08269225165578951 0.2280551027027982 0.1246801588349586 0.1869240657689196 0.2871423157865123 0.125827167875768 0.1198206715629463 0.1348851500112289 0.1264226834647377 0.08794597509784878 0.1905694365561143 0.1805012349310478 0.2336235906850472 0.07722382817022166 0.04882677300764031 0.2939222754852401 
0.01022665213450272 -0.3749522896151106 -0.3125406875353427 0.4554630044426748 -0.09515336014846353 -0.1641023737022579 -0.3259625571769553 -0.08098799144527337 -0.1448304959231664 -0.1500743335005678 0.01052286499859583 0.0006936946287335766 -0.02094305657072896 0.03427166309892153 0.07776585936345207 -0.02436683932090963 -0.2842390257484834 -0.1051911410200021 0.2044746400899335 -0.2581210052430496 -0.1296698624232274 -0.1716263662117593 -0.2232892213548638 -0.01737405522414683 -0.04055203629900393 -0.1934110260897526 -0.724118084835136 -0.06331039719165024 -0.1478524690670376 -0.3446137201703445 -0.06335215693921577 -0.05174397514659648 -0.1110502344569367 -0.1829948681869299 0.2912870688153951 -0.688154041359583 -0.05459896388293709 -0.5391762540893329 -0.1274242517519978 -0.3088285518262481 -0.5443961657057038 0.2892336888491407 -0.06043156535906758 -0.1857560124779391 -0.139570442005361 -0.4356310868246676 -0.1815022168721232 -0.08929551111800654 0.1105200258245566 -0.1755407303522258 -0.1583098585007515 -0.0661750142407425 -0.2821832777433972 -0.2173671876524018 -0.1871124794871485 -0.09703362319921821 -0.08917382103866731 -0.1496607781693636 -0.2884695632517867 -0.09480142308574446 -0.07005594803155826 -0.0116371600199812 -0.2018886740952318 -0.0544404221038795 -0.1813231441591793 0.03218198220916913 0.005481461794596337 -0.02143540632467915 -0.01214176536533112 -0.02228835508715233 0.01581090736389597 -0.1928190041552424 -0.1110323622406692 -0.1209003492193676 -0.2559676265546511 -0.3690292314975214 -0.2175786063816535 -0.02348845304409752 -0.03642045800918457 0.06123769252251239 -0.1661045846412944 -0.02568892172291258 -0.03045250185133717 -0.02308120487327812 -0.1628827825355564 -0.03716347691854505 -0.2162095256357717 -0.1005121744564609 0.005604441048064266 0.03088279799377632 -0.2483193264425169 -0.0123604063278129 -0.04849722247075244 -0.298129990292869 -0.1575908894114713 -0.1493947111943381 -0.1732448181004961 -0.02011997332391719 -0.08584297112162206 -0.07553393960812876 -0.1414900491349554 -0.2149132565051932 -0.06871609054878985 -0.09724448663411964 -0.1258044150397108 -0.2502636686897834 
0.1133141691534034 -0.3465948235274344 -0.2452530813974745 -0.4769443678677256 0.03182601032756551 -0.1343702485046535 -0.07887229962170035 -0.2668694436463964 -0.1536244207801511 -0.07594442142141071 -0.367584588414138 -0.1233527328937225 -0.2841871594328057 -0.1965989567939324 0.1001785551858373 -0.1692100692423392 0.007680913365090117 -0.103678230372631 -0.04756855542596122 -0.2093218215373225 -0.5618850321229985 -0.06357089182789945 -0.275945557707691 0.004057986023380919 0.2682615337782219 0.1305781102908157 -0.5090073453417092 -0.2332628612575563 -0.2618741459442396 -0.2668759144379954 -0.2760709363985012 -0.2093671189552551 -0.1384622926120391 -0.06131483322879745 -0.1246234544992569 -0.5354085389951101 -0.08182602920815368 -0.1719134069169835 -0.0885916085909952 -0.07443690508215643 -0.5988866405914067 -0.4043388070309788 -0.3420513176415 -0.3035903080315452 -0.3804754453844981 -0.4946087648718664 -0.1638266135156605 -0.139608612450715 -0.4282874027586395 -0.2634462812698814 -0.0638749329880417 -0.2569168116391299 -0.1647504879438804 -0.1609918188284401 -0.3239745411093846 -0.2335648273648794 -0.163823918711314 -0.3880825509152294 -0.05579236141093504 -0.1102475791652282 -0.1750272687670701 -0.3073447544576255 -0.1085287642560114 -0.2349094805246459 -0.2462670564144463 -0.04632280018278645 -0.1284886011662541 -0.1628835415572198 -0.05238041424953722 -0.1172870393928144 -0.111769200771182 -0.2545955152758604 -0.06657176528799416 -0.1668972923148456 -0.2145082851738797 -0.1471480668292661 -0.08074341794571818 0.04176063881895431 -0.01229690074766535 -0.09203178568450499 -0.1084416182918138 -0.1129429267200212 -0.1242788133384018 -0.08814849294701932 -0.3084505154558581 -0.105190902855989 -0.3121590414051394 -0.1767126822011487 -0.09223754496722787 -0.01512949253314854 -0.1559821341465522 -0.3177619983373554 -0.1971301939800298 0.08632446142692217 -0.4747763756691811 -0.2703258634649686 0.03812172185217031 -0.1115621224122585 -0.05824084508558858 -0.1730195989164559 -0.3820118318445468 -0.1890826080351988 -0.1604210515781692 -0.14316646059132 -0.1836892692116537 -0.08770110653531535 
-0.06562288160903203 -0.1036568475473292 -0.1299090850654574 0.7546527840769718 -0.1428308536004094 -0.126404790910765 -0.0575099874951595 -0.377916362609428 0.001960870083028502 -0.3418014431262038 -0.008495061294713273 -0.2130300710094903 -1.000586576370608 -0.3282143239758912 -0.3902292021262139 -0.1134012948032455 -0.8911521541804726 -0.1884997002815783 0.06410941469887022 -0.3570633906393205 -0.6389151036712567 -0.1688547182801609 -0.1965650400858716 -0.2510856764245152 -0.2854826294858416 -0.2389668254561203 -0.2099747008562131 -0.1772050633121068 -0.2207069556178819 -0.1545033777103997 -0.109200557456798 -0.245933216950022 -0.1947210729834402 -0.6419187939911722 -0.213949842508118 -0.5292900659683192 -0.3328987599778853 0.005015987617019366 -0.1005709308024651 -0.4433328209304853 -1.027760689066191 0.01417132396747329 -0.2000075532456262 -0.1976967951468519 -0.1104718469472337 -1.087822099596541 -0.1437764489208602 -0.2394726553332302 -0.3062982359508731 -0.08909404801724143 -0.1828866381095241 -0.2139778465432217 -0.2363873247513984 -0.1678435719458008 -0.1364269590388952 -0.2241197422028395 -0.0506564575668313 -0.4524864944374641 -0.5297639818480901 -0.1744437625614017 -0.259624981291102 -0.1258034097387409 -0.3751310305983397 -0.3776411310670877 -0.2334422523728764 -0.1236803739911815 -0.2804449234992911 -0.2223469732027681 -0.1882566846447994 -0.3077936529652201 -0.590427716693716 -0.1885420625667611 -0.1722044764497145 -0.173785018181026 -0.1288960310559048 -0.2084460035048691 -0.4160104122996902 -0.1457499258607643 -0.231427599676492 -0.2517560314648955 -0.3704748023347478 -0.2458186387048895 -0.08458687024143745 -0.3937054415144091 -0.2086996949648752 -0.1553906943526941 -0.2056368304348105 -0.2450931535416419 -0.17158133223821 -0.2298928722599934 -0.4154969983925652 -0.21510276877831 -0.2571611336020609 -0.154440465083807 -0.2379299591202186 -0.1520798992855734 -0.1865598434673174 -0.0833259407964604 -0.256017190165392 -0.176926728768956 -0.1816311306766191 -0.2481018340308004 -0.195050701768913 0.04035261559431452 -0.1125370248377412 -0.1977592894846691 
-0.07990919289621104 -0.1643526173317439 -0.05407470835820877 -0.03993947913201523 -0.09283702192591003 -0.124451709219127 0.1684417503653567 -0.1127553924427616 -0.2232832281922851 -0.3128613229109194 -0.2258750326152241 -0.0834519370542353 -0.07342557759941291 -0.1386687172696236 -0.3811861445231711 -0.1673391849473076 -0.4654704044314715 -0.1146029656367845 -0.3227123517202632 -0.6457589466010207 -0.2429329987296837 -0.2326188850706045 0.3340755321883353 -0.3128428981649293 -0.2860776106770703 0.01246527571657498 -0.2826584807832639 -0.4320721127078142 0.03947613918510679 -0.08897507813260297 -0.1511607808680554 -0.0750571606740868 -0.2551039321278058 -0.06198112035015493 -0.3302410744030128 -0.08538477453775344 -0.2640083930433594 -0.5272597088106205 -0.2276272495005777 -0.4518791104156282 -0.3190879086862351 -0.3864015227319028 -0.2041980752207664 -0.2186221138968145 -0.0505879482344983 -0.5933123817896371 -0.1697098422441547 -0.2792831731091161 -0.246353617697382 -0.2245466693799434 -0.204385036393101 -0.205758175602124 -0.2486878314412152 -0.2813287611653627 -0.2816100104001733 -0.1911600579421539 -0.3306766597102202 -0.2193261155676166 -0.1885281194727529 -0.08802949302522046 -0.3877046243788264 -0.3541848517838659 -0.3345243647617085 -0.4573181384040356 -0.1233033769757993 -0.1764072400926704 -0.2431403100648232 -0.2259624217369677 -0.2305794271011607 -0.1688500736805279 -0.6628007036961258 -0.1934905517254301 -0.107472978814753 -0.1462475816012775 -0.2394437673776054 -0.3073263345725636 -0.1421209814251477 -0.2342371372196964 -0.2440561998672956 -0.2153307544148219 -0.1184015133302086 -0.2306615346057955 -0.1676644589720266 -0.0172170183298081 -0.1678539657437263 -0.1786636437775134 -0.1964505121809388 -0.2168642951485948 -0.2319244970181528 -0.2634568290933162 -0.2128794910107244 -0.09204995846882925 -0.0818246159535321 -0.347993780828916 -0.1665721025483539 -0.1433340430303006 -0.2822272933570978 0.0644818113912044 -0.1080949597831365 -0.2512712375842669 -0.1662874093755825 -0.2629651676920988 -0.1345921017860724 -0.205923824693845 -0.2039657913586515 -0.1376045266172132 
-0.1194825768082074 -0.459243900289024 -0.2535391585519976 -0.7995710479370546 -0.1482704996223097 -0.1210621432242897 -0.005806825257881202 -0.2646026167191123 0.01091471636544328 -0.2088604554694027 0.005760850812120326 -0.1274511384937697 -0.470530973126242 0.02770912182863235 -0.298173511288425 -0.1870512266982309 -0.1881337836181869 -0.1138859904391916 -0.4584294460408683 -0.173253025512089 -0.09852569112928924 -0.1974905450228487 -0.5088597272552118 -0.2805108343641484 -0.4498792727321272 -0.2831542679230011 0.005812092203564993 -0.1896544629083093 -0.1663672816669347 -0.09966779508458314 -0.03678171298316821 -0.2452984654388859 -0.05607211116021103 -0.2005229990046719 -0.473817647448618 -0.1490954819896175 -0.2631106157741749 -0.04434034131473013 -0.2416372641915813 -0.1217363826260688 0.2757084623366531 -0.06535757479518499 -0.0631947338006667 -0.3708748076552177 -0.2075448391374415 -0.5483417337105141 -0.1496082231013938 -0.1228155574549924 0.04858626701051653 -0.2528013728537601 -0.07990918701135215 -0.007197969781933777 -0.5260250270626236 -0.2918483056149156 -0.3126497653259823 -0.1102936569334893 -0.3195758495506605 0.02194464094009787 -0.206112876071768 -0.2465200148872612 -0.128706434024433 -0.04371655455194066 -0.09276025233644228 -0.1826875469324917 -0.04900584141807904 -0.1836182589658253 -0.2559757200284916 -0.1630817481015302 -0.2633964017801963 -0.09947605039010293 0.1330519931251983 -0.0753370765242669 -0.1841649262128668 -0.2356167094841332 -0.1123835573709608 -0.071529569868975 -0.1477098078834214 -0.1696398117402889 -0.32144289525077 -0.221723910419017 -0.1249179509049776 -0.05694424443604281 -0.3998840766570637 -0.216732961672951 -0.04432791087710446 -0.1598620718111397 -0.1550729158098647 -0.1603608615006367 -0.1415410457275258 -0.4154416249126162 -0.2256223501109032 -0.01167332510699784 -0.2595614197872373 -0.1614171124522336 -0.4376845256277769 -0.07744870056376102 -0.1894947065247351 -0.1739162446544349 -0.1424499210325283 -0.1814690161403661 -0.3307557472176698 -0.1493211639049889 -0.02680828485988456 -0.114991338257228 -0.1727987923280433 -0.1908939525439232 
0.02451715165603882 -0.06253110175268642 0.1282819251367716 0.1172979705642446 0.07230475060590348 0.1912337744590844 0.1599350592001063 0.2043233196084229 0.06786637926023127 0.1998921013479922 0.01769586066720618 0.1997375947042208 0.2408975475165409 0.03939168886325069 0.1730666372645466 0.2817439378082051 0.3504822348603339 0.1484515438324822 0.09612094328190779 0.2532442927262653 0.1349386221733138 -0.06860960192617033 0.2387131436326866 0.1269346833005417 0.391063234326477 0.1691710957399498 0.3122908555288943 0.3547498981735238 0.03626674357429202 0.4669724692450318 0.1958994155788178 0.1828045531320075 0.2198696620688767 0.2313625120573517 0.4522104251613346 0.2382370590432802 0.3065685064469946 0.01857660972586426 0.1994889856516044 0.5372016195518166 -0.2531395189150649 -0.311403527365921 0.1359854269048859 0.197954417651537 0.4029465464367183 0.3860191155966229 0.07129734321130365 0.134646380332106 0.6206411524931176 0.2095445106545379 0.1900618100727874 0.2603227492854409 0.02152497471744137 0.3145029722556889 0.0923885994718586 0.1839819797770266 0.2455348050395323 0.1269564864296217 0.08495777565851166 0.1705627765638134 0.1288328160770107 0.4157470618398455 0.2201560109357435 0.1485641729467807 0.07213569789538531 0.1351666956500393 0.2641860644249077 0.2495217586185049 0.2000511736193125 0.1598002136765417 0.2733237107789111 0.01160956367806854 0.1259162791659314 0.3375252141616459 0.1822899593246385 0.1512728011551944 0.2617632474478042 0.1165209425806981 0.2801895149682425 0.2656883767217759 0.342587926063649 0.2718939012118559 0.0885150088482614 0.1199708254610094 0.06449833745748376 0.2046880868764696 0.1441529042168682 0.2765385955600006 0.1570972051599798 0.2401542399101406 0.2959925307076287 -0.03795512785034954 0.214334193446079 0.08993421652665409 0.2011478951221335 0.2018759353179649 0.1477728131815274 0.2498614254122052 0.3651814110202499 0.1630425703351422 0.2247216566484658 0.07629501144677958 0.2183656274994293 0.188165624509985 0.04755132570088999 0.1794817818508602 
0.06259090819288654 0.1287816009240278 0.2856324160376444 0.4849906783828685 0.1003110656959164 0.0776508021097591 -0.04864789532381052 -0.01690921281327266 -0.003039120173970982 0.02716580387586284 -0.07940241462019434 0.1484520725251614 0.2470377123536412 0.2300509906030984 0.1420687917495988 0.1897750467807275 -0.06977993594055433 0.02999955592698652 0.2752416297620609 -0.1266193281484824 0.03270900381771484 0.2983790405904406 -0.1047744551902212 -0.03286448420173891 0.3624395608962373 0.2282445216019713 0.2858544261716202 0.1566046211170538 0.3513425592676118 0.05880195716131328 0.1685472839985681 0.2382394904603086 0.07727679561445601 0.6192994432610871 0.03921457525860449 0.3237684911170267 0.08782156577128838 0.4953360354531725 0.2188876596058067 0.1523591272927622 0.2458984817016883 0.06352305203570342 0.08309902353666793 0.1309871270282645 0.1328104232152607 -0.01660767865273757 0.1571959336231807 0.1152781398652324 -0.0424317700380076 0.1047344614143872 0.2471521713921376 0.07276226475221911 0.1294085609003034 0.06771864574824707 0.1376108585407027 0.1954532256256109 0.1064630635292323 -0.1163592284892356 0.2827800095878623 0.1142775314035472 0.1963894254078578 0.1278639498622408 0.3514187175064087 0.3409896708895825 0.1860625076691993 0.09241730965379513 0.1674405227202798 0.04028999562220126 0.212320381091741 0.09986920375320016 0.218093010386744 0.1037591666605288 0.12768239665895 0.2422020064759951 0.2514145331001646 0.07452310475574257 0.1583229623704627 0.1979916062853846 0.09789856260348893 0.1361618223866684 0.2202086045443581 0.06260452201395775 0.146659692317727 -0.01997962576473534 0.06801100712813687 0.2013077245305577 0.1530264016707163 0.07011047230509247 0.2327996921788432 0.2429970633750393 0.1065229465991562 0.1338045044780097 -0.05113997052217802 0.125647246991299 0.4001579354684736 0.217691190858421 0.2224266599280635 0.06604846912945854 0.2432019264005235 0.2969585867391648 0.1185233325947719 0.137091740594302 0.1007996059444217 0.05306734025028155 0.08845888060868175 0.07208210393588041 
-0.1790147770164965 0.3252433897168894 -0.2287961050127961 -0.5545627041244965 0.05888507515935876 0.01464735267374043 0.08112709610218913 0.06458489709262834 0.140479347817627 -0.01420096097154967 0.08947947043711257 -0.07964171565286197 0.1304121889593551 -0.2216580019558546 -0.05306910928742627 -0.0158306765235186 0.1198811614067603 -0.05589605549109995 -0.02306874213938984 0.06448113136198619 0.04361252668673516 -0.009483057142033957 -0.2634693869197873 0.2819499171958178 -0.1503286195162463 -0.01430772720768298 -0.06842591613275451 -0.03142911517209204 0.03363985816685126 -0.2524460407582655 0.0698815736080441 -0.001633749596818585 0.004655081368241114 -0.2310250820620774 -0.04693890979805892 -0.08073757766766462 0.007090758828069636 0.1865551806001009 0.02887229314478217 0.1784926553569078 -0.1740999866976848 -0.3216445739083454 0.05150905287633027 -0.1396682092093889 -0.2553925945573294 -0.2345534599748061 0.0144914566087073 0.03145054197209116 0.3859923962934947 0.01007138361910695 0.007676731441437986 0.1733194015970685 0.04236377249285709 -0.1149810759868886 -0.08136602622779915 -0.001230877130095478 -0.02278496245710315 -0.01331373325805755 0.1859864906115186 -0.003467387616559458 -0.01139906216515906 -0.02310605602908388 0.2583591142890558 -0.3192241228488662 0.08354930810642557 0.1509432682635238 -0.03268899421461885 0.1941556747862858 0.06781635135274713 -0.06583562619992223 0.517529462963595 -0.04815128587651079 -0.002794216443509693 0.07684048466999069 0.002764155663829643 -0.1331566311659757 0.0643611078748199 -0.002702181354378396 -0.07887926642948617 -0.04012724061239693 -0.05415369285402546 0.02051896345132371 0.04062184411116289 -0.01087199323043276 -0.09721052090749868 0.08421549470374128 -0.08915217007786279 0.08747063525833979 0.02388943728716062 0.096954592839749 0.1942437499567241 -0.2168428746842619 0.1561393621426047 0.01063359756693124 0.1204179810149785 -0.00500466386287395 0.07581812464397804 0.005563348730407676 -0.07453166092824801 -0.0663365198744089 -0.1431221769076307 -0.1137291477287739 0.02844388129564544 0.02534082976010459 -0.02346378714137983 0.07624340402274142 
-0.1858112927251811 -0.4325874736904681 -0.02763370559894285 -0.07835405158436719 -0.1947266805252 -0.08664930130267048 -0.05387415318364491 -0.2073076989469451 -0.1870481441267338 -0.1400967038781163 0.01514572535621479 -0.04464458760929727 -0.3424195261877971 -0.1943355597769007 -0.4327225157924878 -0.02312245704692416 0.1496797942862434 -0.1420267411411808 -0.00012630585509388 -0.2453197981474446 -0.0815567377638884 -0.2401438419544014 -0.3852282669206833 -0.1560762347810235 0.4708867860288258 -0.1772312286653787 -0.480062458774039 -0.2438532961105214 -0.1525920247904846 -0.2070480978392125 -0.3199535215738684 -0.1297366140082507 -0.1317275690656685 -0.1293343249075405 -0.03755934841243274 -0.3910895038835098 -0.1650283179356018 0.1858952265457138 -0.1268297144645674 -0.184313242875704 -0.5332940131249344 -0.3160517758270251 -0.01668332626956897 -0.1311726977427762 -0.2588921557549703 -0.002763729599959671 -0.1539620107185913 -0.04647012561478563 0.05671983786174416 -0.153385817711587 -0.1094720601755032 -0.2657722370569989 -0.2130307568777168 -0.07290858971304609 -0.1229444701811915 -0.1974306589849371 -0.1046978470388902 -0.2293206118851762 -0.3287577902829613 -0.1903644905908279 0.01950082082448078 -0.4684556485228896 0.08522979567533445 0.000751821117984004 -0.01509063332429171 -0.04604529969547676 -0.04672064886181534 -0.0846928842830646 -0.08961073858510363 -0.2290598274645367 -0.4956758107030049 0.0480030621301479 -0.141918888207768 -0.2487494457226868 -0.1840175669386907 -0.3091888340484775 -0.1756633595662273 -0.02869308854124332 -0.1343741016540522 -0.1070396211115594 -0.1287097862818406 -0.2287579208519957 -0.1373327200088445 -0.1521327804787235 -0.2682663982630857 -0.1374871183337656 -0.123710488772609 -0.1174314182189849 -0.19296773448875 -0.1876246620058006 -0.2357039651521889 -0.1882237978284741 -0.1870433272958243 -0.2649181447751689 -0.2671420663391803 0.01893474630805294 -0.16063009449719 -0.1648400452120996 -0.2409253558837916 -0.2221722016379754 -0.1093254359863841 -0.2569066373382444 -0.1335014923177363 -0.09340471420883281 -0.2131024181621793 -0.07244503992824547 
-0.1501033169123039 -0.1554129884340369 -0.08541082058569539 -0.1469723418930031 -0.1651396869410852 -0.04311595236301323 -0.02720688587058259 -0.07834702328692979 -0.1077853421723256 -0.2073438560454175 -0.1356771204653154 -0.1696714064357069 -0.4144086862653706 -0.1811324541777481 -0.6262208387462275 -0.2369235045895239 -0.004812752203999314 -0.2356288140162932 -0.2200610011674485 -0.1849921891491098 -0.237781121727384 0.01654194685331782 0.2627301810246531 -0.1176249333044368 0.005146106752584473 -0.1433788033931805 -0.05060177661623438 -0.3035181567394979 -0.2300818497830128 -0.1117316600526581 -0.2933554782451324 -0.3004155734767099 -0.1902021334329534 -0.3015943050891634 -0.4208236645708315 -0.4807846200012271 -0.1713928933447161 -0.5220075317623878 -0.3124140292635931 -0.05661691738167232 -0.300816480487363 -0.353753350089365 -0.06773914305152882 -0.205610589152302 -0.0546720806583525 0.2129577437018283 -0.2248247680795164 -0.1900077979915116 -0.4423538582690958 -0.1887743606922723 -0.1432759892714311 -0.1847473631999974 0.004597302456392539 -0.1339612324898518 -0.07419557413307679 0.005425090563108716 -0.2014775705476382 -0.1605540178783881 -0.1977459671463069 -0.3258721543082604 -0.3482694956144824 -0.2857235164831424 -0.2797696150487239 -0.1694206291165732 -0.1266742747505862 -0.2577847974569931 -0.1519615965259866 -0.208324660957344 -0.2644969988363424 -0.1515308849106649 -0.1786973838810382 -0.02916696200525185 -0.2555596964121508 -0.2404991294129862 0.1299544845762105 -0.1001194238065027 -0.06276984731911085 -0.2008696722294882 -0.06110181193946507 -0.2606016350598858 -0.1812010290736315 -0.262720861583977 -0.06652564496909029 -0.188225539132937 -0.156104653881527 -0.1541583176350388 -0.2663195384560809 -0.2626766983202385 -0.09013197001756054 -0.1603681610940495 -0.1675513011042991 -0.4203435535237215 -0.1388383067297697 -0.1520394625410467 -0.1215978838955137 -0.2664861040597014 -0.2705131076581969 -0.2028783146837289 -0.2988264265638909 -0.2652335463837923 -0.1010687180244397 -0.1222942405463735 -0.145134005608576 -0.1341824341201922 -0.1463735038517198 -0.08555688197043367 
-0.1165649690678809 0.3002252168526405 0.3785230743687827 0.4969775769097895 -0.1664976748235378 0.06196432657647725 -0.07212506841794565 0.1393545420903819 0.09156823618573699 0.1942560095470431 0.3536144294513429 0.1610902049765976 0.5121370916746844 0.06680018033674869 0.4118248988414053 0.190623232591454 0.09678893714784807 0.08240454686249299 0.1615145437888637 0.2545475137418881 0.0117302251767513 -0.02355730705530359 0.3363041909980619 0.2554128950495082 0.4777887830684204 0.4205771329951098 0.01296912799497886 0.2718014854991902 0.2230845561046264 -0.1156463855657049 0.348531476277155 0.1295309103924391 0.3266288232287776 0.3486728291332667 0.1114194882696666 0.2430084659961335 -0.02452730547423572 0.1166278033597846 0.08337157813823781 0.4926585159193373 0.4803612741021012 0.9144888683835251 0.09382121542111614 0.07210717113460972 0.3908904080270069 0.5591220605783844 0.1353930243261725 0.04710063373373879 0.05029291143843887 0.09603901644661282 0.219753854465051 0.1349691368288735 0.2622965240762297 0.2150197855673543 0.07694540578658078 0.187949581667561 0.1674046707177505 0.5274885472217381 0.3573100234069438 0.1331356559446655 0.1516258483085381 -0.01940600855944487 0.2972218043510574 0.4869028632203063 0.1019824079108392 -0.0139755557575006 0.1168566438187782 0.08256457936783557 -0.04981057842897748 -0.0751459222448663 0.392668908764529 0.2343875242813895 0.1223000584736145 0.02819342917256222 0.3539736747430958 0.2884687119740288 0.1724243800605119 0.1095908532326335 0.1957359471435565 0.1825642491944931 0.1677942833915752 0.2641944822352349 0.1819070369557334 0.3346790372518184 0.1182932265946773 0.3179508769488315 0.1168142263661516 0.1101884451196808 0.09229577294512256 0.1156847270740217 -0.02684899011883546 0.2374004784428377 0.1762032852097575 0.2363406689543349 0.3092503514258628 0.3238518251538611 0.179606684646755 0.2545200504627835 0.03086519466698893 0.05909979110920782 0.08064522260843918 0.03733219346509749 0.1855599511529605 0.1581354803609823 0.1618147173005949 0.09235319932873419 
-0.0451631100658355 0.1740055047881243 0.4207461088372491 0.02383013773682945 0.09859405448475432 0.1567419267925069 0.1040142906589265 0.1897492250962903 0.1825311861485159 0.1482721384252253 0.00673711001308719 0.05700064655000041 0.5254832180473458 0.322976800373532 0.2917422584938948 0.1451730837251353 0.1509031576587195 0.07010881500395215 0.1777985114811006 0.4296876947508013 0.03151800693646278 0.1767855861377272 0.227895693135489 0.1716826953087407 0.5217616645882449 0.4572676649385131 0.6063234653619494 0.3332752775313242 0.0603186328654816 0.196086082687653 0.1262105022151333 0.1850321265635708 0.3081773138371367 0.2700561229987312 0.3054630768717125 0.1338480604883308 0.1827219992380688 0.09902603063115654 0.225300833211914 0.5085248177836922 0.1015115263110674 0.05757824997623524 0.2775917929130496 0.374272712682566 0.2048096023538909 0.472572214741689 0.2021773780179087 0.2205089215793325 0.4411866439614105 0.2140258442950907 0.1946545444066407 0.204808181436969 0.2062801421814713 0.08521910726127728 0.07775901462556768 0.2027994326779934 0.1307853027299122 0.4792596831627103 0.1156717992633784 0.2090995996525611 0.3876854035645529 0.1553819543440946 0.1897528613558573 0.1597769502124186 0.2034949706799228 0.1698790861345341 0.2954705798990336 0.1380415284476131 0.2768596701715176 0.08281308687632302 0.1736300179114431 0.05498608604373065 0.2337710744584625 0.1491205968926196 0.2662052216999016 0.1775684330248686 0.2205955353503589 0.1626815699199705 0.1657192002001802 0.187549719429841 0.1982424209908464 0.1206374463053221 0.2690888180652756 0.09063465673028033 0.2173605282016315 0.08800697068764127 0.2929048574105818 0.3433645488008612 0.05056297087961405 0.1787592014866403 0.1694999344577381 0.07930394004408604 0.3120311828569832 0.167661073556845 0.258887800566464 0.3065823909937916 0.2461502887117547 0.243726030634117 0.1545300762439156 0.2891826093495306 0.3021161834543566 0.1260678008872066 0.1979250068803038 0.4353184468282623 0.204813494153682 0.2090631171529806 
-0.06721784428446269 0.04544814123833435 -0.1659798286379073 -0.5533262644785653 -0.1384888541437809 -0.1917291199605285 -0.2272363436596233 0.06132085957315424 -0.1602028433286918 -0.1659478299351024 -0.3032862816452297 -0.07150887356204834 -0.1754859797506867 -0.1219757044615113 -0.06380379313118013 -0.1646892767995103 -0.4512949966875264 -0.08399665946940159 -0.3551607090105903 -0.3030920696393896 -0.04146469588877189 -0.01029798481663646 -0.4378713027630455 -0.09799493227534967 0.1560381144990879 -0.3073922509085293 0.01433733033170637 -0.1683844970841243 -0.03285610802272946 -0.255500589337267 -0.3048881000509558 0.03332593836676019 -0.1488557755499434 -0.3546071868152709 -0.5343211631962984 -0.1503939758718157 -0.2457296728015533 -0.2361809765249449 -0.2181803899235762 0.07607307136926812 -0.1928421319114487 0.1709933250400864 -0.2001257173690605 -0.09119508930687266 -0.3386319608087596 -0.3203608569652313 -0.2612606352606731 -0.1125043222832421 -0.09272584241013773 -0.1141562822400322 -0.1383668534326522 -0.2503730192627208 -0.1171069384385555 -0.2556227791277223 -0.06200732118459489 -0.2488599513103455 0.01235615369892697 -0.1426850946279437 0.2849757056698725 -0.1455282313093973 -0.03944959441448111 -0.1633458394709884 -0.1833319334012352 -0.1079558455731118 -0.1575562478678085 -0.1179802314164698 -0.04793336456872645 0.01747429794112781 -0.2570800771051163 -0.07783656702010577 0.01292232668684185 -0.2115185764536082 -0.2229877688257562 -0.1300786673842693 -0.06196151432457759 -0.1770593993210219 -0.2031809671312493 -0.2759807202207943 -0.26059986070069 -0.1310225085539678 -0.221046619325046 -0.3321347549402219 -0.1736618880111746 0.05680131413489021 0.0002975067738011598 -0.14674003292996 -0.1385892905525682 -0.1701958929319817 -0.06579529857748187 -0.173438265437351 -0.3309752089510549 -0.03315278304963384 -0.2167415379128871 -0.2218736410003518 -0.4458499131131413 -0.2527957628579832 -0.1673758542125488 -0.09307364521520058 -0.1700214180477547 -0.1795600165433406 -0.1913709924327444 -0.1783778528375506 -0.2555475714941856 -0.2581055443725385 -0.1132541528418394 -0.1588888931635111 
-0.1981724913645074 0.1684892130440446 0.5169129575685335 0.5533224864077534 -0.163653230874397 0.1186867618820197 -0.09904737936991045 -0.04120326542268721 0.1699214891496154 0.1605141707615642 0.4069417390738511 0.04945005823974122 0.03693195712728246 -0.01833018521480727 0.08235396068775984 0.0784402658955595 -0.2910860325938026 -0.0655274835299231 0.1061851086888922 0.3211844264009422 0.2030077380323004 0.1198872281994722 0.2874549058529915 0.09352637534224968 0.2840518805085753 0.1021856761851756 0.1873459318613783 0.0647688927794873 0.07115109202917454 0.456930492116133 -0.03842015350438623 0.1927555602496141 0.1863050438581733 0.5655420372383325 0.172395474556072 -0.2076974429437476 0.0791245626160394 0.1489572239404336 0.108435607567986 0.308395274575443 0.327817883109328 0.09061583309954561 0.2649521712561587 0.1799625736154613 0.2184716997719574 -0.06053953687134644 0.07337522364933574 -0.1091626013959898 -0.1212916898924884 -0.05703377379428343 0.03385761866332749 0.04816857098517691 0.144941973180249 -0.004069714048413785 0.1300000347684472 0.07802034530369827 -0.04547414406158432 0.03760210828530751 0.1141494094268808 0.0410368502236948 0.1571896361124059 0.1785018674884105 0.2154217592362408 0.09696374915553646 0.1483087688116948 0.1455807069730501 0.1362395049849947 0.08161923485629168 0.1292110525193174 -0.06720733855912539 0.3608919585269809 0.04070747522656572 -0.02830144886796285 0.04350067574386099 0.2430761168288809 0.04427752177176179 0.1014175068969888 0.1497154135773908 0.03152282497066413 0.1963519040923295 0.04609973621640505 0.1264752048194601 0.04278236679187073 0.04603959902429316 0.06137267764093005 0.2446803985236497 -0.03308433778570273 0.01749982606857339 0.08193284680812499 0.06562624509362265 0.07037370165714826 0.2959388578740162 0.1303457548791755 0.09146430193607642 0.3176149964016299 -0.02728240066558131 0.01147318768604314 0.02942165673500271 0.138553718668327 0.06234464695524788 0.08444028452279169 -0.1087542234497264 0.08404007599011315 0.2223382883641395 0.08607276191251012 0.004309902774309756 
0.1802849945583153 -0.04025894546077226 -0.4602667333101828 -0.2871595727202375 0.0225431018456564 -0.1637326106985639 -0.3070419342731715 -0.004897143803911222 -0.1979308612851522 -0.09740924253784009 -0.2851761261572219 -0.1364224107071875 -0.1485931047037672 -0.4563866694526124 -0.03474695236833206 -0.01635171847017025 -0.1307414683296224 -0.09608633972655567 -0.4439890866670501 -0.4806664562217397 -0.2205181041980908 -0.05960501236386508 -0.1683148194889409 -0.2452613950649302 -0.3333983680386899 -0.5884769396751712 -0.3627436268077849 0.06826575613311875 -0.05759947400887402 -0.125771232577806 0.05975960257360348 -0.1622412829158336 -0.1096007835462548 -0.1965887082206502 -0.3889542312582712 -0.5679614849247866 -0.3358563190043544 -0.4057683944078412 -0.1136955309391875 -0.4268815069292012 -0.3224481201773277 0.1199856016658301 -0.2341415409979366 -0.09770223203270437 -0.2877198502942145 -0.1326570579606343 -0.05611530245142587 -0.1898636084630745 -0.007850515442931475 -0.1964109413276936 -0.2772114670628568 -0.19523832177402 -0.02440673982174553 -0.1419476299020711 0.1373045990577964 -0.1945922489085593 -0.05777372907343157 -0.1355714200012428 -0.4638333065397311 -0.3017478287718334 -0.1959796127825171 -0.2289539799889282 -0.3450121854317474 -0.007907220372905636 -0.1003891293791584 -0.2608294741744827 -0.1862750484876437 -0.1796557534418655 -0.2220548288388223 -0.1435922047233942 -0.6674580196006817 -0.1239515919761258 -0.1309825011605884 -0.1651356801130511 -0.4748373961606087 0.08492865313651214 -0.2852262121227434 -0.1268611486655464 -0.2579875495386282 -0.2221847124918737 -0.2237919231211028 -0.1673032590910404 -0.3076308121526281 -0.08969737594685592 -0.2747248009475455 -0.1474989992581334 -0.2011748587795283 -0.2089795310319889 -0.1654536930267459 -0.2582368705293498 -0.1619781180336622 -0.164571510097892 -0.1936969263900624 -0.276334911970984 -0.3356221372399864 -0.2452014799303508 -0.2041320020820211 -0.1133726480468754 -0.2677247474713118 -0.2293312834372421 -0.2189253412537854 -0.1624799609731697 -0.1129123902301054 -0.1829291230177927 -0.3443200688679688 -0.3553906354101792 
-0.1032791813526607 -0.3431285159492339 -0.2570991190350498 -0.5161825131995403 -0.1151511870194385 -0.09694522284213276 -0.1401261391262897 -0.0325512113127627 -0.1331868610953549 0.01032677101203017 -0.07108724437875423 -0.1865702187463454 -0.5313068467629984 -0.2641496516533972 -0.3614848068042449 -0.1615564320950064 -0.4161067295419113 -0.0795477382191357 -0.01975651949750052 -0.1623059216476539 0.4757234354297508 -0.002260070831364974 -0.06176718149916845 0.002210435342752507 -0.1230454996220569 -0.1358846479383662 -0.5831436357789633 -0.1505428156097221 -0.1066254039981653 -0.406481772453152 -0.1178774899713567 -0.2245785084447793 -0.1888636316706763 -0.1899021265854991 -0.2873651424294086 -0.4867101251408935 -0.1582615979823948 0.04218468841623371 -0.09722427830480927 -0.2374591002773465 -0.4885020799983328 -0.5811042212210566 -0.2869328149565378 -0.2303905536284032 -0.2514231140431688 -0.04600831170312764 -0.1047258825896424 -0.08001826829842952 -0.2887904203119892 -0.195338028908208 -0.09004790815192767 -0.1207423184425854 -0.08907798342120651 -0.1469716032005434 -0.2144283336946089 -0.2634608849969788 -0.09043087862166049 -0.2444149368890366 -0.1892100612020891 -0.1591969231378132 -0.177840223081296 -0.3136851736666291 -0.0934047788319782 -0.3168979575160893 -0.2715263219519986 -0.1142030105224291 -0.3140723773392111 -0.1969879078326121 -0.3531588084016374 -0.09953390719414423 0.2171491807486118 -0.1043692414440408 -0.03616312742379127 -0.2403505936649246 -0.1694645457073526 -0.3056532562460649 -0.2113978679290412 -0.147171046508824 -0.2008258029763426 -0.009283913885826356 -0.1940564447029877 -0.2197792751425447 -0.0897213590134151 -0.1532480309256886 -0.1674722701208886 -0.2108209860001086 0.002348900231025679 -0.1049212525207026 -0.1019926912117534 -0.2822174599767625 0.05559837898665822 -0.2404957971822834 -0.124904887381381 -0.1016625374252149 -0.2461745889729443 -0.1320288599163338 -0.06517012317720164 -0.1697341449007796 -0.06567556436728783 -0.2271043541867591 0.06605781176201006 -0.1989781511585363 -0.06509410250106851 -0.1839950679044336 -0.2459013991473659 -0.03888887028715909 
0.07372811555043304 -0.214376814138502 -0.3864253939337615 -0.793701547352904 0.003356086637659017 -0.1988473323989694 -0.1118018373871081 -0.1635973635613486 -0.1290312619675128 -0.1709056609960146 -0.03672380748495151 -0.2822690761215926 -0.5234195497301367 -0.229951350071881 -0.02564268641611433 -0.2107305806263019 -0.3748533137553666 -0.1249325525551065 -0.4229306623121819 -0.1375474114900752 -0.3163796414146922 -0.07804848469395353 -0.06679567882104979 0.009341390729926978 -0.01206169509075931 -0.1667938145502707 -0.6049228999648263 -0.06341740273024003 0.04214187693940388 -0.009563866312031283 -0.1182790299474179 -0.1607978799477013 -0.2442125590362715 -0.5322089864669872 -0.1721488644223891 -0.372356438822358 -0.08232911461700863 -0.1597186331342932 -0.1075589166747908 -0.1195151518763626 -0.3166339120606855 -0.3604261215232384 -0.2965129750674144 -0.1671321956060512 -0.2916534771432708 -1.019041476855327 -0.2741455167522653 -0.2010838412498291 0.1409074968430699 -0.1500295572250093 -0.1342749698109185 -0.03303877624622428 -0.01620409822203401 -0.1777526786048272 -0.3581735965530968 -0.2273578571265424 -0.01207581958772959 -0.02829515500629337 0.04058165075976397 -0.141846773870089 -0.216013765231713 -0.3299415962896142 -0.1820997750557487 -0.2117308321481405 -0.2012957261171415 -0.1598408418367744 -0.2288752283407127 -0.1026832730341745 -0.2521793292367579 -0.1686373018854549 -0.1615822579514444 -0.105018798509335 -0.1657238888353508 -0.1872412255568394 -0.4022613861504103 -0.2707069215516442 0.08029115151492769 -0.1019695260725293 -0.1901599797041058 -0.1025215652123194 -0.07843050066608538 -0.1443629792245422 -0.02490877470242495 -0.09318953936583257 -0.2810949472024299 -0.1258535587972618 -0.1109354879683663 -0.07195846510463653 -0.136885411087513 -0.1547524786371998 -0.07299387001203818 0.003722020732616936 -0.04968449994193713 -0.1406989781651543 -0.1956988806624491 -0.03001470088889634 -0.01840718000164054 -0.2325603903351768 -0.2173839616003423 -0.3677267084318979 -0.1473361753116986 0.02554977562430101 -0.2076436463961089 -0.2804782827703148 -0.1689281444144666 -0.01522380867416624 
0.2902188721262031 -0.5383166789639737 -0.2535570950387196 -0.7050031727450282 -0.01732200902322059 -0.1266954142935144 0.05443998249668898 -0.04570070792296334 -0.1164235383384681 -0.04860684299825532 -0.3805629552860723 -0.1651183360818157 0.01454152599736902 0.06032700830683087 -0.1288345898283613 -0.09302769958159468 -0.5924095956900818 -0.09562883338855313 -0.2221406094249633 -0.2003175400719647 -0.2665267451990005 -0.3378448522368905 -0.2930923734037778 -0.2172220054565187 -0.5125289959355452 0.09594861311265464 -0.07640156586325095 -0.09857703801710993 -0.293493311005281 -0.1206742618817139 0.07579366772162849 0.03307433547033928 -0.08034247901310423 -0.4907316659598591 -0.2452301379784125 -0.2049269610916864 -0.1534692564549423 -0.2916390418171563 -0.1502261225875263 -0.2248672964012406 -0.2526914069456097 -0.6346042620921053 -0.2735350308512873 -0.1798366749730637 -0.262137317658223 0.317263477119496 -0.1067136764048084 -0.2603128318310801 -0.06277189364418788 -0.121903055743069 -0.1836036983339401 -0.05576779227969655 -0.1562408344940575 -0.0611261556489965 -0.05703277225564077 -0.168462115827318 -0.09132355924424465 -0.1120848295492885 -0.2428820447145431 0.02050530659033937 -0.1688460383683495 -0.214323459610036 -0.1324796119922501 0.1836928392970901 0.007153439547027454 -0.08767243740756581 -0.1240495326265375 -0.2276961751735394 0.04846666744623154 -0.09080202599260126 -0.09000560731179817 -0.03516168592712401 -0.204647519688736 0.002742977293663748 0.05302053160685332 -0.0549271610977145 -0.1710798604056317 -0.1834835285000575 -0.04829657353125874 -0.1232804042979151 -0.2371009111524587 0.03859132638867094 -0.04505285382927043 0.06481321854403954 -0.3369371553383811 -0.1109879997512432 0.07193507018448528 -0.2083750218238894 -0.1987974697004973 -0.2054402898018702 0.05258090094546319 -0.140718646768146 -0.08818669716007486 -0.04948167128758522 0.1713999084338287 -0.1816147786463573 -0.2312285827504724 -0.1325602889444954 -0.1286976359024827 -0.007546164316912356 -0.1580918740715857 0.01502383188573453 -0.1324641270294837 -0.1377960605468955 -0.04513237548096981 -0.1532242658981442 
0.01228939928360262 -0.04535148542209522 0.2057474513814163 -0.08928408297610435 0.04088369361361407 0.1358992133188646 0.1668468724801483 0.1773935587366196 -0.008108549055415682 0.17394599707964 0.2023200292684049 0.03191367154517075 0.422772467075519 0.1926782198031478 0.367694984489024 0.1468823842217467 0.2597621120210314 0.07635648127562598 -0.01047500236559781 -0.04023762353620229 0.2488138828558434 -0.2228879776226603 0.1004265470675203 0.08554850476198629 -0.07719968313608397 0.1935420928215549 0.2224001869083851 0.2820825177203144 0.1384351504004336 0.2544109723029294 0.2122648871281644 0.2098208026179663 0.2344472499402266 0.2137804391717378 0.07500136579094269 0.1926402002928306 0.1160146347311473 0.7495666488964651 0.1418196855721629 0.4004369399658372 -0.2122989095513881 0.5201516355229375 0.1068399796998901 0.03382459678480364 0.3336619695171145 0.5403326261181166 0.1771941448802452 0.1381459500170126 0.3739017272935476 0.08892160685735219 0.1480765515691767 0.01950070699185102 0.1632424190862592 0.2345768678744891 0.03773785506662797 -0.02167622898295994 0.1506220567442054 0.2586948583631952 0.2115731231958687 0.2388217963377017 0.2289723250418922 0.3464989957166633 0.1861188041139975 0.1210873502808367 -0.02736954051103565 0.2241681194909082 0.1671932147987648 0.04729974664724992 0.1317652184973803 0.07635343134240392 0.6642564024680224 0.071672372835715 0.1844804712304247 0.06867118711569078 0.3499825730503002 0.2291085234466747 0.1228922015443158 0.1054920666480935 0.2606063596034005 0.1383232964324473 0.1009505227914926 0.1175453746780041 0.1637289998154869 0.005271205165455587 0.01235179229682103 0.1491168220805604 0.1455896529001764 0.09879248150168148 0.141244148249171 0.2503853598562992 0.2053633906391304 0.07272995891087418 0.1880520262353271 0.1389668037662196 0.3715374663549593 0.1792656353977526 0.09999681771902583 0.09149572763739108 0.1678936719463471 0.1943809754841093 0.1253348661358658 0.04436219000622136 0.1620131779404225 0.1048760597915839 -0.02866961063908862 0.08502949219430128 
0.04313676219659923 0.4799895134608494 0.05404570358456724 0.2942581055352871 0.03142527187549106 0.1965720416816214 0.09166797322446842 0.2542777078175596 0.09584157831425619 0.1550592402709909 0.1594084007477803 0.1785989890301553 -0.1960258415812189 0.3575273096987853 0.8346883994918591 0.1341325762508267 0.05030604754821466 0.1092413293396613 0.2896514518161128 0.3214224842409117 0.3248938226415791 0.2682480185023272 0.406473634948197 0.1736048055260244 0.3987295255128422 0.4812776213585248 0.2930189485051144 0.2350370047447664 0.2057908153999265 0.1631094613586271 0.05193884470128683 0.2118632538921401 0.078770192134412 0.08582198088244053 0.5825672902840933 0.06303108874581875 0.1941371857005916 0.3616735662878748 0.106282356618291 0.5552534651728226 0.1653637938672989 0.4866425896777017 0.08691801822824068 0.1572945108025473 0.1705276469455115 -0.1128228911052003 0.1366088637947077 0.2047720306101694 0.2011780517425437 0.3042985977994296 0.1903908828608325 0.1437350108422537 -0.01598398080934767 0.1117490251114186 0.03428579504583719 0.1636115181013542 0.1424499258633041 0.3305632050484752 -0.0155889271045453 0.1670555275514129 0.1830017032320269 0.2214950584287699 0.4785955398022862 0.4146856665702779 0.2033923943544411 0.1931759098751782 0.07801246009907731 0.05299523151310059 0.1333403233278661 0.06308212636471132 -0.2283349050796076 0.2665705572191926 0.05834307335645457 0.1142664341349059 0.7790039071635565 0.3592220376452053 0.2913906426042281 0.04729337786366141 0.1888333528431235 0.0868429271569507 0.1684190963732674 0.214680774164457 0.1690408842573227 0.1218082186785776 0.3576644494694276 0.1287034488300823 0.08686231936008086 0.1690503725292757 0.2887341310994909 0.2210224273596134 0.1514214234106943 0.138771476302572 0.06520819017729404 0.279746004351083 0.153156029479543 0.3137932564162431 0.03874053822216296 0.2535937284951992 0.1990847110395667 0.3566863338252272 0.1274347217402829 0.1486510447499942 0.2112592247103448 0.05008380653923359 0.3073060108300131 0.1215157973935104 
-0.1456480902194593 -0.4091443143458684 -0.314178135708386 -0.5181130385434932 -0.09113861828860961 -0.08139703640987662 0.06130895854990193 -0.1030121842851967 -0.07351163493690106 -0.1025696470465847 -0.004547719179422411 -0.1177583185031238 -0.6982612299405431 -0.03295547507973839 -0.4396758669057818 -0.1532537057014585 -0.5950101927655329 -0.1450623754401751 -0.2818539687548908 -0.2962137216020252 -0.1499402804863575 -0.3428222939591399 0.2295393061912973 -0.1582548843354245 -0.2181378471467818 -0.5245552389739457 -0.5377416526372362 -0.2327998345905399 -0.1505358075476742 -0.06206470458212821 -0.1218007680080564 -0.04233316770344197 -0.1462976788962461 -0.3375159735624258 -0.2931536192729534 -0.3629882366306544 -0.2338026850556534 0.01915041344282005 -0.1374309618400368 0.02313603016904559 0.09638964104580061 -0.1195007593682779 -0.3866801191397746 -0.06597433470078257 0.01404598737677318 -0.5303221292105625 -0.2428723226130892 -0.1721731915234204 -0.2088364670600639 -0.2156498845978309 -0.002769549768420118 -0.1441174536863399 -0.1998319137453827 -0.1771470333136752 -0.3030251892720729 -0.1725477902692398 -0.122487971444425 -0.2415621228265902 -0.6526061706293875 -0.3217432064500678 -0.2023292988539812 -0.1554549349603716 -0.2512920620970912 -0.1730477907863174 -0.1662316799203476 -0.07824312857248607 -0.1507233004904834 -0.1811780962061013 -0.1136447544350083 -0.2301633502655621 -0.5869171800374479 -0.0569060980189899 -0.1988998489271952 -0.05694609109591868 -0.01919788478857025 -0.2069756968380134 -0.2694535818527405 -0.2247063761588091 -0.02867760784855493 -0.1471240527987616 -0.1707652526917959 -0.1244820884011997 -0.1189634458364573 -0.1305456201394149 -0.234914722209247 -0.1598967354842326 -0.1336561168312036 -0.08013262010787658 -0.3252615089887585 -0.1705408597223688 -0.3021839477328468 0.004649225847851952 -0.1050082097578045 -0.2087323911404781 -0.3464836469191636 -0.1127864828184466 -0.2808852017007955 -0.3068759009556508 -0.138774890251172 -0.2584959517629426 -0.1550645380686167 -0.06125260829761777 -0.2466356270921903 -0.254888493893627 -0.1198010090271932 -0.2575484073402041 
0.2518411073121022 0.1415385293505566 0.2886937087555173 -0.2410187949903498 0.1408933431575417 -0.0579220008988124 -0.0886757556894249 0.1040762202337099 -0.007549262781690014 0.0007339835531506033 -0.2115375134241272 -0.02128361388213054 -0.1575388676907267 0.1973591371418035 -0.07067968436962063 0.09352725656570411 -0.06002363442077462 -0.05012262667712512 0.1538842559234574 -0.1738933004457291 0.5845306908958459 0.0636956909334651 -0.004226351690400124 -0.007411622595757838 -0.04830677796770296 0.1269653293626239 -0.02002245890421917 -0.01276800672825863 -0.07578060506222982 0.2721439316209929 0.1193647212344284 0.01987319546343891 0.1171640969437386 0.3453419970831385 0.06030972856013329 0.08357806317043551 0.1372430155601269 -0.6873003865571724 -0.06131418758576898 0.2523608371811504 0.02420740879663966 0.09916959683141677 0.2087764567612595 0.03376241693829658 0.09829527783946405 0.1151069354241918 0.1050332684954941 0.04817170831444711 0.3464667844573254 0.1336712431142721 0.008500219697655784 -0.06715858303314932 0.1099388958972562 0.07225161307834828 -0.04077578767437919 0.1186002385358495 0.1051995742240616 -0.1494613236320179 -0.06825430944631754 0.1099411824256817 0.0754924688722925 -0.1224786324504088 0.40866020918527 0.1234338890049368 0.1288941187011441 -0.09329864293119851 0.01612594257980192 0.00326650725889625 0.1418968138461039 0.02426591218463935 -0.1298704539240732 0.01249381102676202 0.08422588688626159 0.1887525827456183 0.311174172879007 0.06778683057115557 -0.002991187205796392 -0.01446268325131296 0.1960335809532555 0.01478627807154506 0.03487540568873292 0.08938267787576103 0.2032987154896898 -0.09234077224855715 -0.198926780151879 0.1231231598449847 0.1047769629087226 0.1366719845667487 -0.03049903133868736 -0.04618877368209089 0.08433466519779315 -0.1246172870875297 0.107280175292344 0.08276325304155469 0.2064035322450544 0.01271373290339719 0.2362383741765474 -0.1358975906870623 0.1205379549598647 0.2254629603667632 0.06008947457603424 0.09898062903225069 -0.01039372905063923 0.1414714879659012 0.02393409481748006 0.2678442094551154 
0.2430312918341813 -0.1818049402524856 -0.5357710945566204 -0.8793211137204751 -0.1449490816541363 -0.1593455595524793 -0.1471425223066541 -0.07659772808690567 -0.1674025519613505 -0.1333882725205532 -0.0952918760655839 -0.1268215592170807 0.02032557061629325 -0.03569412485194812 -0.1826669705891885 -0.09260100528301608 -0.2768091539278392 -0.01426071727871474 -0.04039644305033042 -0.2145625468971706 -0.53395710426323 -0.3158215542965383 0.006492192985720303 -0.1193003596692342 -0.1262355724988725 -0.4254674945739954 -0.7698062967092306 -0.1831080514733762 0.09578320258446485 -0.1023795028834585 0.1471915531862347 -0.09962705591112517 0.03166788794459734 -0.09599404448886714 0.1338820812534115 0.2150680993901788 -0.1485607053646034 -0.3062456269519735 -0.1475218914335375 -0.2722587004825497 -0.3807440530297652 -0.7379457136393095 -0.0632151348494444 -0.09224198027804387 0.02353061141662719 -0.1779710724964981 -0.1165865539585059 -0.1109983926586111 -0.3340272068102675 -0.2288525629390383 -0.1426172567479078 -0.2195517300344384 -0.07295046346378833 -0.0341636398230894 0.0275900262105378 0.038674986530125 -0.0439901746702542 -0.2309919273106922 0.01779071001150097 -0.1529526875187721 0.03575902846550955 -0.06614961016478668 -0.004419694288864044 -0.4457926405118771 -0.01896156946882279 -0.1448945467732738 -0.03725244503343769 -0.07574227014979773 0.009713770796492407 -0.02762046334432863 0.09681653834092813 -0.2247217979398487 -0.005044185111068792 -0.1109791525003629 -0.5602269937422242 -0.08189008235746478 -0.1290199374105671 -0.06777983881672381 0.09346148156775909 -0.0468596461908713 -0.1475224450658701 -0.05912269883284156 -0.1677161509303268 0.01624873606140268 -0.1877896715751719 -0.1811914425515596 -0.02563831156149217 -0.01488347967739879 -0.258911399698633 -0.0003630190775781906 -0.3002189786898343 -0.2192565647823082 -0.2171523714116874 -0.1493449937634179 -0.07662753809890627 -0.009402682694157109 -0.1748642065432332 -0.09981562910865126 -0.2083560729564187 -0.04613369764184914 -0.111149890762095 -0.09320740222720497 -0.1618726432404455 -0.120280628010128 -0.1130396052989328 0.07885662083337931 
-0.1141274894922616 -0.4408463373394442 0.1702557037549102 -0.02679952383544931 -0.2223146444296755 -0.01182987945768088 0.1207189181789187 -0.2203272207556397 -0.07969363584386051 -0.1230914997681414 -0.03504169389633712 -0.006925929443481878 -0.1188254555152554 -0.2103672663831945 0.005367140539967126 -0.0366884208936111 -0.2983918193711906 -0.08620236093390615 0.2005342170744096 0.1399529007667135 -0.4111991755922245 -0.1978146074350768 -0.5075202512010527 -0.01936868910151443 -0.3076971278474729 -0.288820984316937 -0.1603305048926883 -0.05014532776476577 -0.07783671132808122 0.04881966651169398 -0.07358722705005842 -0.1770715646520533 -0.1399595193116572 -0.01798516404280106 -0.2516986636115905 0.1062697704247107 -0.09045360483808093 0.2864145701405504 -0.1352735380680714 -0.4699951504620851 0.1304661517117308 0.02612661278046677 -0.1249061992249922 -0.2295065141112931 -0.08844273956676227 -0.03437334254694825 -0.003672916207486988 -0.07624462119558774 -0.1330967649723966 -0.05034312651757708 -0.2240724739993183 -0.2018098219776215 0.0371756470566971 -0.123334163071414 -0.3255332660553334 -0.05977152914883399 -0.05681043035123946 -0.5048438933337646 -0.06906135804520042 -0.06834787417794454 -0.2035128891935755 -0.09833506292013623 -0.08590677637764821 0.08271000424598642 -0.02532839305326083 -0.06252740054287384 -0.1966407133683729 -0.0272666693471986 -0.04934158399945916 -0.05922651160505064 -0.303701090460905 -0.05497059200983209 -0.1158430503665745 -0.1684508211579447 -0.2392374844618304 -0.006651776295608598 -0.1243348081524248 -0.1417433022277085 -0.2100505856409318 -0.1324443494655456 0.04686861734052947 -0.005857075421699755 -0.04282985514496428 0.02319322000493299 -0.2993101132244501 -0.1303285740984202 0.07824998112266981 -0.1520735347952237 -0.09909246101639649 -0.3402691944132903 -0.0958875911694301 -0.2803921043004121 -0.08936281130612482 -0.2078918201008987 0.03905532543382675 -0.09485189912810287 -0.02035668395568985 -0.113583710836632 -0.07545025302219315 -0.07253641311778157 -0.201775013028283 -0.1713967469270968 -0.09070538769686604 -0.04971791629167579 -0.01308706474988518 0.0001792240859920611 
0.1064074392353669 0.2127202079056234 0.2133605051631733 -0.2916728819063615 0.1000903950160902 0.109561936765926 0.06121702320612479 0.1766306934716486 0.0786054261849308 0.116016421809118 0.1711214707628247 0.03201848584778885 0.4232973674460592 0.3665360245535297 0.6480829416921344 0.2426005228938575 0.589831663767994 0.1115868550593376 0.1149628601681057 0.2299791895365022 0.1601122863749427 0.07807494662331288 -0.1198762771703696 0.306651144951905 0.284052313052161 0.3404545629464766 0.318525825292839 0.3540454649510374 0.06531288288415385 0.170487326082692 0.2056063070958901 0.1109155371513158 0.3426932370073096 0.03121077208933897 -0.169297226796483 0.185379849877728 0.1001821221954016 0.2704934532830469 0.09162401647509831 0.3752577400467048 0.3791238299145224 0.2054815684769043 0.2564918466370437 0.1857863833107965 0.09387090701876952 0.1225994759619444 0.1273865896210486 0.2213605993558701 0.6020958735708655 0.1620277507475029 0.2743683705187482 0.2026266692201565 0.1003644695413506 0.09826808791178683 0.5517250605042817 0.1659696365236991 0.1890451756296558 0.614183473246564 0.05486398716389019 0.2092229353614212 0.4261716809211333 0.2243299373423917 -0.09726471881965749 0.2579342975087079 0.1472411569698621 0.2330750613082333 0.0329676197905824 0.07908364106171417 0.2230265881615554 0.1158257345176991 0.05697766386064984 0.09622719539099577 0.0782746676803083 0.2711588980565676 0.1854759438694607 -0.1545736518017153 0.1861863116781148 0.2328705986204373 0.2469689062011679 0.217765243137108 0.3027372039580133 0.1698173436303014 0.196429831431519 0.1663840232133814 0.05875211145622982 0.02868559259557115 0.1988758150611191 0.08794255279327452 0.1049826901069004 0.1508096305379478 0.07948046008491956 0.2051194061789921 0.2893109774221228 0.1161537738001 0.2820219808915428 0.2161467509651277 0.09204542642819863 0.2442456359210487 0.2588209636068574 0.2835442680190434 0.4024224399152308 -0.005230067778731313 0.2435641795277661 0.09648163540416135 0.1513741857547949 0.2145124986850828 
-0.2976165179520011 -0.2014944893792628 -0.1289573469085936 -0.5852874221839199 -0.08638030907934011 -0.03749737060569158 0.07698154356598245 -0.009655382202629324 -0.1133764749965863 -0.2176544668728979 -0.0107523973349954 -0.1318199200269737 -0.7405914912250764 -0.1538262757138533 -0.3474997040475556 0.02720457039853745 -0.4789281817551563 -0.1557252070362433 -0.1687247748024871 -0.238295544702498 -0.4676455945549093 -0.1002232939032438 -0.5467829690259577 -0.2598969010559939 0.1122927684512671 -0.2483700925773873 0.1262134839889991 -0.3833749315196171 -0.3752962381741579 -0.1079822084686013 -0.2624203170534654 -0.1461786313455313 -0.1230735894176758 -0.1389206332017018 -0.04439007536939922 -0.4094134828307927 -0.2507867003162849 0.3997581246319009 -0.2745744634536512 0.2219418549963749 -0.4326811571925478 -0.163661806403075 0.03169265533319856 -0.1522030281740583 -0.3328594505287304 -0.3120142047298273 -0.1027652515534792 -0.1916070618523012 0.1174864684673865 -0.07906264476224809 -0.07805199901066524 -0.1207250663245552 -0.02419858057979834 -0.2230889158877669 -0.02178418951774739 -0.0101595168959195 -0.1839313286852435 -0.06040987424563726 -0.3207134615723095 -0.1899289053551455 -0.2215616663696446 -0.1983874906521665 -0.3707054333413459 -0.2712540257197424 -0.1440162075257948 -0.1969846290851736 -0.1872612677324851 -0.2050957035793484 -0.1614620630450652 -0.2280733387336226 -0.05532448858601011 -0.1337670557418811 -0.1618665498715456 -0.1560120597089378 -0.4659360185235414 -0.1903540178259706 -0.2080311162051231 -0.0889907988422418 -0.1421573747602944 -0.1619179677284246 -0.1019279183670229 -0.08421831738498653 -0.08670953109065006 -0.2498751381322089 -0.2772520272851756 -0.02420870937431895 -0.1568683903352364 -0.2116793018863291 -0.1471896146435813 -0.237542378000813 -0.1288104149224124 -0.08443712116802354 -0.1854558514158917 -0.1843662966437633 -0.1947837992843131 -0.182212596915124 -0.08485288371727229 -0.202862807566235 -0.1397290331474196 -0.1147541114845541 -0.1961986072317735 -0.1205199734484905 -0.1467054823680866 -0.06275472554416872 -0.02252587284449578 -0.2263321241603281 
0.185547498127586 0.1547922205914488 0.1186915966346614 0.6922492949526516 0.02818800625815898 -0.06550258587696356 -0.1030465089719549 -0.1812963580216936 0.06170040787825057 -0.05165518947566308 -0.05785752420600346 0.1819555815613128 0.4593996720127638 0.04260812703322849 0.3318592085773797 0.02278488717956274 0.08130293088367274 0.06581989327853111 0.2935513228719411 0.1422876110311642 0.108052509555913 -0.211272191815284 0.2455793417750795 -0.03430154898450079 0.445919786732686 -0.02379993704726603 -0.3554847551965075 0.1355418790041732 -0.02025413481019175 0.2374625463747488 0.1933927552182175 0.04544269696497931 0.01049339079143254 -0.1063338451984055 0.3220630643165007 0.02173854394310199 -0.01884319611157476 -0.3850073064402141 0.1306599318766696 0.1773814226787682 0.1200324380113031 0.3286345363002826 0.07470593050533533 0.2171629178035932 0.1539122055717564 0.02113829014139213 0.2015450158974125 0.04436569227718803 -0.2324150076457267 0.05372060113783661 0.1453846176633111 0.04461574077583982 0.01419982957453113 0.09810756164435805 0.1336646827814698 -0.1053392610300935 -0.0744151297944466 0.3418179247468883 0.1729686738270347 0.111809791075258 -0.01609546657197358 -0.004839138810521127 -0.08450974604238158 0.09741566275304663 0.03240715059535204 0.149883474596024 0.002151341965092941 0.1032153216972432 0.2374400578476355 0.08932747933610498 -0.0513523348424011 0.08380428016699412 0.1126257364764766 -0.003605817462388692 0.2669848141571866 0.3171178873682941 0.05481058970641879 0.1448713701503725 0.3801127907929678 0.05395393433591653 0.08703400346919218 0.01956282315961858 -0.04576593720195661 0.04320900745411786 -0.01804631455364428 0.1477821342945385 0.04939570449026556 0.04636831043349478 0.1546512627309748 0.185966892099451 -0.004337600896630409 -0.06881210316552107 0.01324135183006258 0.05929646698463484 0.05365549424015049 0.1123783512383961 0.01521780284271658 0.1041239449228757 -0.04626454971232605 0.08918496905424386 0.01071999241126531 0.05882098115753398 0.02788715322204854 0.09474012702209984 0.04290938174974542 0.2191748511431704 
-0.02112348520837746 0.01050074331244366 0.08577080994487782 0.06385580690566797 0.1798941958340121 0.2297656056895249 -0.04621991528329995 0.2338084935088603 0.1079728574492758 0.08226441246759172 0.235596711723964 0.1204572452237048 0.470372695846987 0.21003689459137 0.3652094871276565 0.04944808368371357 0.04690909596693053 0.1297543666616636 0.1655101377091818 0.3097840610194831 0.4254287722348619 -0.03393465017933069 0.08719882729504998 0.1774962321288453 0.1970105494006234 0.1950957660500003 0.3973483926236621 0.1537912442650793 0.1702141030018385 0.2008644735022343 0.4452560413356106 0.2103295633114175 0.1318776296902668 0.5203823756770518 0.244617027282407 0.537020649435333 0.3317626826549597 0.86547403108988 0.2118116367239145 0.4943036049977078 0.6297918475059641 0.4873784635456303 0.4774765462710507 0.381204533116225 0.2425376552259465 0.3716869109600596 0.2634695485084763 0.2025311585145591 0.1245607221387575 0.1770524038985014 0.04384003044346173 0.25793702070332 0.1172880910827402 0.1545564719248222 0.3989013027227492 0.2700803320037304 0.2464682513498251 0.3107911745102638 0.1867300017231993 0.004673550473111669 0.1071530243758102 0.2124975288494601 0.2263071584091612 0.1983552401238703 0.2268118758174897 0.2775879877064212 0.2656952141156405 0.2095418969596263 0.1491390108722984 0.1662292590613753 0.5673631681876555 0.1267858903275278 0.09680734818645169 0.1145609487546678 0.4761994300715952 0.1215937384120601 0.1576691617988147 0.2459819838115217 0.2465067529019722 0.326944161672704 0.2895276485709623 0.1967175078105943 0.09351715579632339 0.04711597633067485 0.1655244045329291 0.1297311400584452 0.3270307083500981 0.2677904040071292 0.2916284508106175 0.1338324162718453 -0.08740434473873859 0.2476237896689962 0.155879489501795 0.1716993945764564 0.1601089015225803 0.1855118918536394 0.06799644850758475 0.2571418198206043 0.1169836446038286 0.002898993321137242 0.2040474210708061 0.06133216123860333 0.1759631410486601 0.1505736690445875 0.138826313003622 0.2428622221783256 
0.04844211123665603 0.271210133640137 0.1773306133343387 0.6872782263390498 0.08163726725923591 0.1851008926855555 0.1231984548437557 0.04108777932737976 0.007165163616290458 0.1826229950586733 0.1787327774415406 0.06165316292389077 0.870678565597562 0.005608918027228136 0.3638013978179231 0.1399693559163004 0.6581357568811841 0.1311349185072509 0.2576054137670032 0.4133136693220016 0.009625539197029531 0.007336102554833598 0.2180467208915058 0.1102777248823927 -0.175794888810261 0.2743742382738408 0.6113152185116024 0.137878465570704 -0.05295752343329058 0.02903786744503306 0.3123146892813387 0.140320167209133 0.1725313803503696 0.1081822200215748 0.3896185007641252 0.3880948605784776 0.2376218156050139 0.3305759802848908 0.2199471515144119 0.4292407487418018 0.3355741257275457 0.8451332838330204 0.1325685813370615 0.08073871639797309 -0.05834771492839916 0.7979891819430383 0.2048129401605292 0.2322558378533571 -0.1776199442387906 0.1644205905124433 0.2265383927542531 0.2295732409147936 0.1568996940366995 0.2204033962558941 0.05249754176345989 0.1768018401688459 0.1283259605252558 0.1703168311962223 0.2025496596481591 0.2049320576614121 0.2691104661668063 0.395044071476543 -0.1066184296112695 0.2162494386005065 0.2829450469619829 0.1036181149392905 0.3183029978543712 0.134376199431819 0.1567629643350625 0.01323959502378214 0.1321291374603782 0.2580634287978001 0.190435708996855 0.04308789588050508 0.5708224304903136 0.1685628181905353 0.2272478636568362 0.2372309586355257 0.2088910866902063 0.1633200767834403 0.2464038105159048 0.1294000078119073 0.03944911290948284 0.1260813490252982 0.2117993776783872 0.1330907093352106 0.2405453481891612 0.08426700941592012 0.04803926632709464 0.3546436127198413 0.1418884964103172 0.230058114846881 0.1757350840470371 0.09378189848255633 0.5325982505871033 0.1591506520918523 0.1471993134089601 0.05145658166630188 0.1976742249196506 0.09498154150564529 0.06577295082741201 0.1400200928118936 0.1728529975579524 0.2289094467891198 0.3129977226301124 0.2367798182107573 
0.158340617666218 0.2345020764049178 -0.0274592684066868 0.4201398697708318 0.0566692619998043 0.150934914194622 0.03508039021709386 0.1582183934503808 0.03538668048866964 0.1149358394209783 0.01615683251015705 0.08167984805394669 0.2973933179517161 0.09956698822262169 -0.1553561888498451 0.06385869875252936 0.4184678201416198 0.1682946750171831 0.2046543144123422 0.5045747468736633 0.4710313083808165 0.1074707743022868 0.31593631844445 0.07155811433986208 0.4774804233550305 0.3593313049696422 0.7949278685390254 0.2234353793874045 0.2140403693792438 0.2193634128921481 0.1720069479134813 0.1061673535914699 0.159157253171823 0.2404398925170443 0.3091816004742249 0.02039354633451191 0.1868744479040599 0.01902783317205263 0.181425299201832 0.1773592651612571 0.1813623121163973 0.6684581120180917 0.2760104841885799 0.06974766622571622 0.3390512768652937 -0.2704837688925785 0.1691114401810004 0.2308416646701806 0.3424426960909153 0.1074551300639026 0.3421160199501596 0.1417274274418549 0.1081019296468956 0.07287901935126816 0.2691817630654106 0.1303499908942599 0.2439381814994954 0.3125164303937469 -0.01196351977757826 0.07019346456041266 0.2907416473745274 0.3088916475918684 0.3112823061358845 0.3582617699107746 0.08725540775475119 0.1702434292765828 0.1101663465460642 0.1920671490995816 0.2474888644952561 0.00197335079002034 -0.2016918943272691 0.07415592223751559 0.2509034210633537 0.3072120254373158 0.3556934043097279 0.2991302271596367 0.1845312065055126 0.113276256428505 0.1453919806452824 0.2126923869599538 0.150607801699859 0.1392950642604127 0.2345768763683194 0.1897243433721014 0.04428421429407853 0.3318192568863763 0.105021492501252 0.09470738761409031 0.05024819623438615 0.2384420181882616 0.2659356716182598 0.2899031196656539 0.1360436434766184 0.1253615539166543 0.1662006080109304 0.1104465720312382 0.1501374186721409 0.210138333760851 0.1667133084938001 0.0993023625964736 0.1575191661765432 0.2020598858720047 0.2596161359712167 0.2465703034102466 0.2218067153226833 0.1661927498413059 
-0.02256109525649858 -0.2985828916477806 0.02681964486202584 0.8679882882580684 -0.1260936078747261 -0.08765718925148196 0.0195390322620925 -0.030470271336232 -0.1503678983257457 -0.1938845006603531 -0.005288995765632172 -0.1076446964627861 -0.4808080331011464 0.01353056065258863 -0.1733396586673778 -0.1573127011652664 -0.07316048463455652 -0.0772151835676063 -0.2630355073577088 -0.2670978045906131 0.04103253983077135 -0.2694791298272943 -0.2596304447830736 -0.162401813783356 -0.2128055756843368 -0.0968146020145071 0.3367811730897842 0.09020162546324335 -0.06875871471303957 0.151992356366281 -0.2099376973102383 -0.0904515558484713 -0.009136752589538902 -0.0415465206310198 0.04613624614710533 0.04495312191804129 -0.09902566013292119 0.1805891928170141 -0.0944645747124024 -0.2763478872534563 -0.162437378703061 0.08939162968332078 -0.1743303808003551 -0.04967926502870076 0.01977739990131389 -0.1989545320673466 -0.07230417916126167 -0.2240760971133813 0.272169474497609 -0.08529760351007688 -0.1306295331829979 -0.06463870107495974 -0.1880290201694934 -0.07395424250780278 -0.2059503353098374 -0.1365764328636099 -0.1239216828622034 -0.3617938110758589 -0.2520139648724352 -0.1227201592536129 -0.1732838802799627 -0.5327111745351727 -0.4544014838099089 -0.11115544083451 -0.1109110942085392 -0.2032770078634283 -0.08265894496862528 0.01716786243341517 -0.1912780934564911 -0.05627701235253667 -0.7285237057942984 -0.07223360103046943 -0.1259855304855363 -0.1184424670888213 0.3763344661801514 -0.0585293085522607 -0.2907451497105601 -0.17455159211045 0.02154101404706721 -0.1960902975027977 -0.2842229557920045 -0.05478113943766906 -0.1475219186680949 -0.4468276433959886 -0.2129567764783998 -0.1729448492556691 -0.108653504241992 0.03943387762368259 -0.1301800377380464 -0.01551095922927121 -0.04681389165439079 -0.1636714696665016 -0.07245002272958208 0.02264353714007061 -0.3774098101733612 -0.0915242036793766 -0.1820610043780142 -0.1288201434738534 -0.1325161936003621 -0.1646321812607476 -0.02754672188294229 -0.1360291218656799 -0.2326243149354759 -0.08298549160600641 -0.1513508414339709 -0.113499916860376 
-0.1110552433819773 -0.2054791659679898 0.2289611033999888 0.2801423342405647 -0.1319881122972785 -0.05607562945807852 -0.1977757582415907 -0.2131289908789008 -0.136749848324568 -0.1620201347355363 -0.03796107105392892 0.02252710841012058 0.1394565492752234 -0.2277641291389453 -0.3530868364952328 -0.03836665972546566 -0.2928011530156351 -0.1048350360437416 0.09774364169963204 -0.5609005045365943 -0.07870110452107529 -0.2654009057514231 -0.01173859268829893 -0.1435899564642465 -0.2780063495331155 0.1046770656753236 0.4006187567722003 -0.0584889286974686 -0.124622478940746 0.5781942267811775 -0.019048763036267 -0.1350388430451054 -0.1688109912662895 -0.08712074908117154 -0.5201624080783191 -0.3133218691821489 -0.08378599967369105 0.4307552634899313 -0.102779919259733 -0.1311794816456827 -0.2964705409831356 0.04672322517360321 -0.05971497714055993 -0.09239585045586714 -0.02401417500153111 -0.6141753972525679 -0.1868348396762796 -0.1166308436657163 0.1910676936560476 -0.1238631793128645 -0.01035263930020874 -0.09924993611965605 -0.04239730439109317 -0.1509522327186548 -0.115576019564345 -0.1619393191165679 -0.16712933009649 0.1141684266528239 -0.2594404004794069 -0.0551309693127145 -0.1022199514121223 -0.02352787171941311 -0.1717565433708185 -0.07318007953866509 0.02913564041911567 -0.1977711959527669 -0.03193789120657527 -0.07334035773487016 -0.09352918808486274 -0.06165994909154687 -0.06971082809754436 -0.1653169859935112 -0.05023660986442267 0.004809602040210282 -0.1164391498504573 -0.1851544778579091 0.144469932309866 -0.2066527676786604 -0.2600924138088923 -0.09341411941396116 -0.1666800030658411 -0.02393243817129132 -0.06732639741762086 -0.2313023030553119 0.07513021950684003 -0.1617590327343597 -0.1432460081270846 -0.0861815132063789 -0.04900557702194926 0.09284562052410086 -0.211259597421657 0.07778832371726252 -0.005119628485356654 -0.1933735325758624 0.02135355055500284 0.008976449240738493 -0.01179008065935292 -0.07203379297785162 -0.1392898702022594 -0.1450851656822793 -0.1565673828519712 -0.07879677561489552 -0.1724890919323832 -0.09128104819251594 -0.1251406109069417 -0.1282091922864081 
-0.1241984214139871 -0.03204696262448613 0.2861948554599653 0.7333634358814572 0.05990574959456134 0.1848969099280896 0.1822634855047726 0.08568056525560841 0.09965306858914282 0.1227472598822775 0.02719169549025583 0.1219296594949183 0.5032060380214869 0.3085751878253712 0.03908676764000075 0.03633909423606227 0.3149324586564775 0.04395839655939613 0.1418419846074762 -0.05655396957198888 0.378613603719834 0.05558991239763141 0.4072022450415785 0.07634610086551691 0.4077970135005833 0.2992061770120585 0.258332326377595 0.2138374870584373 0.2803400841826009 0.1163140426601958 0.420628900380246 0.08600542279801048 0.1819558876363863 -0.1043170004434687 0.05268121755355797 0.2485168295094372 0.1170164124930943 0.7466325957206247 0.1258416847102923 0.2542683708021903 0.3787300916713131 -0.05572527830049703 0.1344826412145439 0.2852716385853128 0.2406865289833625 -0.03430556519290365 0.06324246191048781 0.1252679275325929 0.6321725378850341 0.2582238221935272 0.09172544716135014 0.1949252269731609 -0.0160065109821762 0.2137195992821727 0.2295422566224417 0.2041702211286351 0.1466769418258931 0.2314005908393929 0.3309730373524814 0.2869295327770071 0.04795174480773295 0.6806049823300212 0.1717596708919288 0.1622071026784296 0.1601684119121665 0.1782738410190075 -0.02111383998616622 0.1540347327565617 0.2588308933956994 0.1695183796504806 0.1941388652169287 0.2782359842008029 0.2161111090917481 0.08755875314645674 0.3592468451747719 0.1877050015209745 0.006158814192945851 0.1268909797441602 0.234702809290391 0.172155913459568 0.2597610542430344 0.04367055635389817 0.1413206567976028 0.2008170347940756 0.1731828484589103 0.2290904256811858 0.1809673665118768 0.1946447256453901 0.1676208317689343 0.2539994790139042 0.08826476870205979 0.1888512433229255 0.2373389067594581 0.2135253079989859 -0.01416699012579796 0.1359379889710698 0.2580400546181185 0.1462337982052757 0.204877133069928 0.1857479359484474 0.1018119424822606 0.06710771226202827 0.07555714346527137 0.009390804526640926 0.2584574022558832 0.1292616579457026 
0.2393379699724403 0.2419506338249624 -0.04996192811352412 0.3448815261836274 0.1391836673533636 0.1511134346669385 0.005795666842832637 0.04590433364966658 0.15507636305158 0.112288157638943 0.1502319761828562 0.1483552838967044 0.6435127547716893 0.1737676178175041 0.3451452109457738 0.1686031249219729 -0.01474419503399989 0.07746846859647998 0.06765172938208602 0.2369793704878614 0.2457335157964269 0.3490784856021488 0.3507361138312388 0.1458131554545389 0.4999535552070359 0.3837303498736405 0.6621855125992185 0.24121153895088 0.1646025947107802 0.3976882400042298 0.3086994698945482 0.06739762981524901 0.2039847584642938 -0.1591344538919993 0.5037426000820558 0.1107421595909312 0.1954620635758366 0.2927996123786615 0.1339403733816314 0.1243514309971734 -0.1913374747791418 0.2299609870657338 0.1442962305604726 0.1243344053774497 0.2500002871133727 -0.01043441888665162 0.2095259552035961 0.1271424489184808 0.4016674159971603 0.1910659501061986 0.3325648587560491 0.1626422670565121 0.1032213562209006 0.07632760616967897 -0.02378112693541479 0.224768974696978 0.1951595207185235 0.5444786572145318 0.2890343032019064 0.146042542358352 0.09104122478836632 0.1665941978193577 0.4514243822345226 0.2822161283754776 0.2784227681019873 0.1669976851732772 0.2876877782732314 0.1862216937349566 0.2404568057147837 0.2389991110530388 0.317046070599755 0.214688353674538 0.1254092417818484 0.1596036891837516 0.5466355740515555 0.2355832733720146 0.2970785581580465 0.1461750449238768 0.2764540859437278 0.1730475190563585 0.1008709016005963 0.04897339142393669 0.1219318669668999 0.1926693072980525 0.1315979150523711 0.1819702162570278 0.1655712230047376 0.01307998053050691 0.3149359590741507 0.2609944814655336 0.2220635098613965 0.1567396873466084 0.1890768114710598 0.214056592758196 0.4189502803389151 0.1472987183636066 0.221044570043517 0.04223320615452833 0.1247191709632788 0.2122401537096487 0.1663823758970683 0.1264446964309699 0.159864016588235 0.2165930716925188 0.08035213823111841 0.1977861225471816 
0.0259589301149251 0.004612515916578424 0.0910025472662383 -0.006930916360168975 0.06885478887951252 -0.05423451025547622 0.3357452706335524 -0.3642846686205805 -0.08254867364158829 -0.09869222222367936 -0.3518580652255799 -0.05037882551877802 0.05540395304704041 -0.3333764851818929 -0.4609870344439909 -0.05620566176947445 0.07439548996954237 0.04929264536972951 -0.1134330644865669 -0.1817900708939567 -0.2227225138307295 -0.4903879070975823 -0.1592950858195857 -0.006467044881884239 -0.5425610751907807 -0.2547891930913118 -0.3740578023923882 -0.1025016455439876 -0.235559633653478 0.1154692394790507 0.151995755000994 -0.05937350815173439 -0.1482691243601227 -0.1126308304533481 0.1657197770830479 0.03190202411700439 0.01049756535958037 -0.1900506659248277 -0.103292277556395 -0.3552062760079445 -0.1441488701621742 -0.2861733720321371 -0.09379036840539606 -0.1352060644512545 -0.2013292637176076 -0.5117424748435392 -0.01043372909197271 0.02033139658157532 0.04320253654380189 -0.2223540001486287 -0.1442578757995706 -0.1466281813870836 -0.08699864313165163 0.007065584219264369 0.005928663008675643 -0.1055437376924063 -0.01018675569534804 -0.0982637137033515 -0.3077040813769774 -0.05811099985733666 0.02285983763019821 0.04157630958114657 -0.0412322850266844 -0.2790272027772956 -0.1214241327385211 0.0009768377380937289 -0.05144241793497729 -0.09340304057402009 -0.1884191069437908 -0.001788427788552233 -0.6758096455604335 -0.02896028942923293 0.005339223870148108 -0.1491913366165534 -0.08714476185128685 -0.1305934687564511 -0.04728336795131762 -0.04735136656305129 -0.07600329087359022 -0.06498038756825358 -0.05859876211378542 -0.07278413050480911 -0.1299392560836254 -0.3665892210445912 -0.1687847889883133 0.01945122001638127 0.01231241844708611 -0.1352382311960995 -0.2231598538966645 -0.04271161928097672 -0.158102567730801 -0.03524572373140246 -0.1011269819128998 -0.1679792196370096 -0.07796054518703481 -0.1697126392995907 -0.07581269763685951 0.02993451075281257 -0.01192287667184228 -0.1270846256271319 -0.05038335870976549 -0.004229333895595866 -0.1871189661961379 -0.1240840895352123 -0.1077846337283102 -0.1016493626053959 
0.0408810975123336 0.2277858460310246 0.3894855434528918 0.7816109536726571 -0.01522534881475025 0.2004502789022393 0.2474669560758324 0.2627957707333621 0.08093728635291834 0.1954979158080814 0.1874448278227003 0.106232148649811 -0.2184054027990601 0.2596451966999704 0.05351026719963493 0.1445785840814354 -0.163415458881049 0.07904540726685108 0.1425890494683113 0.3737468489994979 0.2103191130320287 0.2473798075562091 0.125455851001997 0.2906465503971812 -0.01062791035767332 0.241407455320942 0.7797452566621668 0.1787963357676776 0.3251213559377583 0.1297196638165806 -0.03385449146398418 0.07398193103829495 0.1665958347973749 0.3754175323768068 -0.0008130037915254297 0.2665207943667083 0.1625018128432573 0.4973471663596638 0.3035572826165537 0.4600077773647402 -0.1792949152900885 0.7525071716565973 0.4416755163750064 0.3073449603114953 0.04256901808251137 0.5696418515676324 0.09690491619867873 0.1534803849022174 0.04794593752043044 0.1992976556711737 0.1076682827591116 0.141671743218304 0.382827074671049 0.20311888878666 0.2207782470213632 0.1312602826276138 0.08283879123200895 -0.294912498597547 0.1398287772543196 0.08633049406524897 0.1553621487901637 0.08224223809797107 0.009903849111097185 0.2095587379871992 0.16969534628758 0.07907606045297841 0.2664423686052143 0.1737809919079468 0.07710215712797028 0.2130676947459919 0.1195362397421697 0.1639642509561829 0.229664604585809 0.1615214583080659 0.1290661093652879 0.3075964030322943 0.2320045077992739 0.1592121783076396 0.3246647259971494 0.1969781283070377 0.1273645154311399 0.1776394014143912 0.1764881730942596 0.1181875823143775 0.2692726691031216 0.1375057487556073 0.1820094962695952 0.04536802727795283 0.2176552030758237 0.05633946219048416 0.2291617237137466 0.08394942331090746 0.1167861083336559 0.2272834919886349 0.1663095462100737 0.1930064650908011 0.2194275302406674 0.4174439672160469 0.1416348732339876 0.2313616695463358 0.09949305415365796 0.1900038555971651 0.1980469567476856 0.1799462384602793 0.2642669072613076 0.04961852296703367 
0.06949850659761674 -0.007697124539068465 -0.00719805372884163 0.2483222550035183 0.2010305033118293 0.1317649181213862 0.1249399477989646 0.1052891429210136 0.1147084861248978 0.1702715457163361 -0.03384296227620047 0.1341846910961525 -0.05853689947769551 0.2962895466487809 0.1066501588404688 0.1499363204379151 0.5273695009893449 0.1467523694865779 0.09193267851220702 0.293806208681696 0.505618968664421 0.3416105501761524 0.1663146927524226 0.07015309228296795 0.141715235458431 0.335378746639109 0.5899223654574416 0.2848159976838003 0.2274213410095751 0.003154235670394323 0.310039804808407 0.1532827232786785 0.1832156420931582 0.2198681641490799 0.3150918398066033 0.3006991635532955 0.1298441608201948 0.4736489426968443 0.1354715288311711 0.511257641200481 0.1459342649978553 0.08628291763983038 0.2233387173795738 0.3685755263710028 0.4836711502477181 0.02802482210794763 0.05542474092607631 0.07813695620855388 -0.07050860127380368 0.09788785706321737 0.2339071741366708 0.2693840951276671 0.2782780751936429 0.1913742020407839 0.1392049762868113 0.09835426274553555 0.07528931554890042 0.6203750760466833 0.1806652003761604 0.08432528958506251 0.5167972238524967 0.3681867671782161 0.2981277429147131 0.1217010229454373 0.1352345412730895 0.05911768969793419 0.1523511026042211 0.1585051290888919 0.1805999738786585 0.1121804705268807 0.284982067879839 0.2573109130270717 0.1574848098638396 0.2648812297669461 0.5343762223648979 0.2360624257877501 0.1619918397145287 0.09586024238537473 0.3093214603257079 0.1643544432915858 0.1722871932595224 0.2245472013471627 0.0753129077347508 0.2992813366710409 0.1607379272363592 0.09120455774900223 0.1030313340142386 0.02566237623988534 0.2588703010808341 0.1873788959935711 0.176610450850686 0.1530412422606157 0.11053132177641 0.186074196276261 0.3661873844135028 0.2773680625976065 0.1581749699797237 0.1715770194372821 0.1054685106648142 0.09233867484919486 0.1490225115554505 0.1970173888108677 0.2497590816987436 0.1281406180951647 0.1086872231368219 0.1394738556310397 
-0.2858469010371547 -0.08253635715246101 -0.05586683016288319 -0.108892931043381 -0.00540356160565201 -0.1107970524626621 -0.1222467984756928 -0.1774782220743367 -0.05307035597609259 -0.01076333156889524 0.04761946317991461 -0.1663534433308249 -0.3038651234072972 -0.1833405126366744 -0.3068716281510181 -0.1666575556749083 -0.1882239735016183 -0.08085826454155605 0.1533628271973991 0.01080248066414075 0.1025860500603745 -0.01842623809775109 -0.07890534010279918 -0.09815039527752197 -0.4672334414980174 -0.1512808775670706 -0.4215842755745196 0.006007065173534555 -0.07766671509116274 -0.3001062397906398 0.03789253831843421 -0.1086908254127012 0.02204771646901913 -0.3856017100625109 0.1257453973926615 -0.105721401026462 -0.1277632254292545 -0.07568661205865938 -0.1001537334227431 0.05604061986752396 0.3059359357098531 0.2366596785763168 0.05359768084793545 0.004106862827770511 -0.3453209303979628 -0.310618841723082 -0.02575547140136684 -0.1445774712834785 -0.07110731510219746 -0.07471385038227889 0.02807751041157133 -0.08276419378254507 -0.3168345035872543 -0.1069880279234091 -0.07302972824588637 -0.06768518542778419 -0.109043642582433 -0.06941489318192411 -0.4192498330686414 -0.2949036330461036 -0.1441120317426209 -0.3667133803390064 -0.1294816246384103 -0.00660545900138795 -0.06773348693652298 -0.1355323067145874 -0.1275430580898085 0.00106425991564493 -0.225336423527902 -0.1209383591826263 -0.3785716386823176 -0.2163382292226538 -0.2569268887043636 0.01441167297750366 -0.1753332516642249 -0.01410009845572678 -0.226411757043781 -0.09652956137857868 -0.02634543253619649 -0.1067549151503724 -0.1648031269132127 -0.202723659436342 -0.1601190306755852 0.04497422334012593 0.1574908963842965 -0.06341990381899645 -0.3150453231127819 -0.05245662435557813 -0.2147299290670144 -0.2262097667712974 -0.1452980142070318 -0.1608965427317492 -0.1441862392521595 -0.2028672769475676 -0.08540138450211801 -0.1405576808523845 -0.1428852043193887 -0.05806884471171318 -0.04935771471585638 -0.1791903659791752 -0.05065924989602837 -0.1328942529791735 -0.1125589151302956 -0.1360692133732117 -0.1733915179926986 -0.1095199539650228 
-0.04157641928376326 -0.3759112645788784 0.004587221164272892 -0.1418535555526597 -0.1302476380786278 -0.07206895143470382 -0.013214515013979 -0.1223332019279151 -0.2274965065379952 -0.2130452294598205 -0.2144550710037794 -0.1274522186546935 -0.7823824021025153 -0.3601831656182162 -0.2634019491357437 -0.1602025644196106 0.2740189350741765 -0.1089575694325272 -0.0361397037955295 -0.3090038897110954 -0.2401626837384491 -0.3070672217983981 -0.3497208177243952 -0.4454221659716874 -0.05704315833504344 -0.2354031963297932 -0.4537090393582969 -0.2487738829772329 -0.2508828904233355 -0.02241512567707699 -0.1049574967987267 -0.295488520756283 -0.2455554457896695 -0.6332654182895696 -0.2383683405562656 0.1874846368957018 -0.3033054195240318 -0.5340462196043805 -0.08140262447338839 -0.4198538821065836 -0.6478731579085 -0.6518752005034584 -0.09908730387941819 -0.07942052712635425 -0.2513956751056911 -0.7057068977543166 -0.09654964010213496 -0.01784128128731001 -0.2998348938140937 -0.07974076595215485 -0.1603152825201688 -0.08042454420856178 -0.4092684891945625 -0.1194567028993167 -0.3840734263110923 -0.1524834353856032 -0.228658937897887 -0.1488488279441782 0.06145897963669662 -0.1821030160507067 -0.1816785012323746 -0.2485906462589715 -0.4090683176717979 -0.3682944905765908 -0.09889894922414191 -0.1404085834199532 -0.1316969001811434 -0.2976280370229818 -0.2718436478685751 -0.1012522792370951 -0.1766249852968723 -0.1867544380658893 -0.1003169687795286 -0.2079081230589963 -0.2314945249115874 -0.05745286956427091 -0.09133468908904459 -0.2129132262523131 -0.2550048158369975 -0.113534519154783 -0.07150359986210732 -0.08158141340330896 -0.1888647316567918 -0.2614125165070026 -0.08247964926043089 -0.1396310674785763 -0.1895834633760201 -0.1772988388351407 -0.04661215161899801 -0.2813250631664205 -0.1239231089990572 -0.1151600751670592 -0.2515244621178853 -0.2129717681006265 -0.1416364164926424 -0.2633054450371135 -0.1324008839026788 -0.1416968555867299 -0.1877624610063601 -0.155824248654375 -0.2581997330673478 -0.3339266392478583 -0.2509976504373414 -0.147739065370587 -0.3324160734119899 -0.1710874317177112 
-0.1810923153742048 0.002979286149145841 -0.1442251931241737 0.02480089748855376 -0.08185980802779824 -0.1068305125411624 0.004580570424927008 -0.05275239525523272 -0.09627999079883509 -0.1501946339802784 -0.1965759942032083 -0.2377333570038491 -0.4578951020365119 -0.06047115655225564 -0.452898540984252 -0.1604997716981907 0.2121995597534237 -0.08544836679054889 -0.03476935291768309 0.0711700982165358 -0.2980561588663904 -0.1140825842167764 -0.2041331062676834 -0.05997892771480755 -0.04830008561553327 -0.4184260190748044 -0.5976425758721412 -0.03270567242014657 -0.1325002973050187 -0.4615044922250235 -0.2666721383870037 -0.1020759943115557 -0.06766090249825071 -0.4760433442705089 -0.3126098746641637 -0.4374812917792527 -0.01402454119341916 -0.5055694234424107 -0.1825589367695564 -0.1209278556406526 -0.3958246777362932 -0.5386300526215373 -0.4010567491022742 -0.2214146017351959 -0.2309688363765656 0.2573996487458257 -0.3109494185913929 -0.1560429151109295 -0.3509043663928474 -0.2480972188363636 -0.2112328985914992 -0.226123773405029 -0.1913378416304223 -0.2293887711950946 -0.2529235967719345 -0.07029436215211397 -0.1489488224545815 -0.07657673653852895 -0.3112828247851416 -0.274708237814419 -0.2229541528304514 -0.467333535969863 -0.2775742088034102 -0.3075828267514039 -0.2116277718701098 -0.2422552267929768 -0.1606124389385781 -0.09365945045169327 -0.1761252488522587 -0.2772190321240886 -0.3037423036008052 -0.04480199046132453 -0.1708728770312686 -0.1432129393068947 -0.05237709283398573 -0.1180708337869628 -0.2278588901014778 -0.06849111078132172 -0.2467518862655237 -0.1822216778641695 -0.1135134596067255 -0.1753515999776221 -0.2365039003201724 -0.332233201549378 -0.1856527986162848 -0.09615738726511656 -0.124912897615514 -0.06708145188708832 -0.1000334539354963 -0.1872145036265587 -0.2511893821686154 -0.2092434214763166 -0.222752282346498 -0.2462867268830673 -0.08216195505162989 -0.1797148041156744 -0.1499732656467607 -0.2411363373091076 -0.03734043133531753 -0.001864155493713245 -0.1899125636289642 -0.1940312416238001 -0.1412161354984112 -0.2127762349535969 -0.2045452323513537 -0.1267236737683262 
-0.1555050120041726 -0.2183453379816571 -0.1249541071762891 -0.6395618578572326 -0.04701993809725845 -0.2091569374224937 0.04768751327630957 -0.1522895535934436 -0.08779446596461012 -0.1446550148182945 -0.09016465920783119 -0.07466581008970109 -0.5127416874765626 -0.07601180397940184 -0.2535731570973812 -0.120035804696145 -0.3088848874442829 -0.06743169577277287 -0.1324941231983735 -0.1617977962967431 -0.2771207754009928 -0.1248757892686084 -0.5850638769460482 0.001359032144972308 -0.4268480051156903 -0.05440879385517294 -0.698631207252092 -0.1557273905078325 -0.1810443750604375 -0.01612323021563382 -0.1150405139241567 -0.2499646787022658 -0.0744330747496562 -0.1243658094082792 -0.3009125612419168 -0.269589374715125 -0.1488294863834494 -0.3404668975471594 -0.08815167292828487 -0.1668150454027245 -0.2803575020397054 -0.2413084734750948 -0.1982253186371505 -0.239155547318737 -0.1984393146964857 0.25677394294403 -0.1895935585660989 -0.2106566763539149 -0.09680417046164998 -0.235786828189072 -0.1637365018295276 -0.2015011047638418 -0.1718478336521743 -0.1589022182640238 -0.2880905816541478 -0.2854991143059254 -0.281823097969756 -0.2932091724919176 -0.2585201455857942 -0.1810526875048865 -0.1739014998267227 -0.01922073559624003 -0.1622926009613307 -0.09989748124459753 -0.2196404308019731 -0.1322856220264287 -0.1646520495968614 -0.2541966559146189 0.04009835494381517 -0.2410571871878054 0.04904121891742573 -0.06495159034989366 -0.1334805821308758 -0.151223025939025 -0.2093668291040877 -0.07127406275934334 -0.3360671435744702 -0.1141904732028009 -0.2004914145862591 -0.3714618674427653 -0.23191077223783 -0.0879621508000426 -0.261560285322836 -0.1638614234155511 -0.1258509495151044 -0.251814831695967 -0.2229761293240017 -0.1281987602470044 -0.1913588990843115 -0.4125458802864445 -0.4141107689218143 -0.19146913148397 -0.2023350160444707 -0.05055658623083734 -0.1201254777122886 -0.2550379598359303 -0.05856016449070025 -0.1112067790410303 -0.07485932580416962 -0.1191930186045912 -0.1529013474009635 -0.2464859654788283 -0.2575654659586194 -0.1621620315002024 -0.1203339978184227 -0.2818879704645498 
0.1988245457534349 -0.1883742509633548 0.1230800000334618 0.4122945555895596 0.1216573749810066 0.1032820113754799 0.2368914007035199 0.1328080719270733 -0.02939838050983602 0.1287454710640728 -0.2040804298746652 0.1034423222742603 0.05241693514307962 -0.05207848818994443 0.3413400745262203 0.2412105251256755 0.2241198461290979 0.1587398378746962 0.3613357507541824 0.185973076087887 0.3363947144449899 0.08577691807029449 0.5207697531942852 -0.006505449899853983 0.3258367672817206 -0.005380942857756121 -0.02886643353333946 0.1838737095197725 0.2940608219862728 0.1325281073607839 0.208876424749481 0.01494199354201563 0.2048249860785837 0.207941307338309 0.110544205893034 0.08215823434485076 0.2548958011519933 0.04199910123445055 0.2402647358120951 -0.011891875645271 0.4131685487429697 -0.03505271725102063 0.03048513520083889 0.2487752539661191 0.1701254722078315 0.3021549778091031 0.07206062716166126 0.1362986199868879 0.4443764162887953 0.1766511691206228 0.05790415798086288 0.2508989998821937 0.2033735583371732 0.1222328685177394 -0.0471482826265785 0.3259649682812171 0.1192423187152428 -0.0834621705703044 0.02180635842748098 0.1497804357242015 0.297571196316093 0.02821290569434187 0.3994111117998779 0.1800855287931258 0.2393609507701999 0.1518304059806757 0.06208695231196379 0.07184595895763425 0.2416980805811317 0.08774959981968765 0.02802038364235407 0.2352932258222048 0.1625186074568029 0.2350310277502533 0.2042323518832128 0.03903001496544349 0.1868187322359469 0.1385910729067366 0.1149059449671429 0.1484767731397621 0.2731792780119406 0.2892088046228161 0.09740046385233379 0.1917134826273737 0.3916985224750657 0.3017098842486841 0.05957450465825104 0.0939573036041334 0.2475536441480216 0.3081621473751102 0.1084700648459452 0.2263373380097436 0.2042539541490568 0.152228554983449 0.1544754131222969 0.0908075568166503 0.2289348153560492 0.2119629868642157 0.2498033681796326 0.2110780436096696 0.2528708919140214 0.1864733025454773 0.257044489022468 0.290453268772379 0.211709839204499 0.3078407182619962 
0.01184455351053674 -0.007433568887634698 -0.08331375333287522 0.2975829615367012 0.01694023806547471 -0.1787062513903394 -0.1324327676398856 -0.008089366786730674 -0.103415866328133 -0.1254557089518311 -0.181637072968442 -0.004202790401717973 -0.0009752029482777945 0.009896820798660323 -0.1299727216338709 -0.05091560070846295 -0.1184119653582478 -0.08290878767547857 -0.3567537720908907 -0.1195553984872948 0.08484761253589904 -0.2649871657706512 0.09204891390881462 -0.3068631485391202 -0.06433684105053485 -0.4498809923459014 0.3063006913810998 -0.1878030746067378 0.04720915526386207 0.1110481228245944 0.01008934844020546 -0.1503729729700178 -0.1197874690311685 -0.560699261463661 -0.5421200140320632 -0.2020822494072906 -0.2124809744696187 -0.666909723815868 -0.03706936622751258 -0.0377864130667982 -0.1168394712233938 -0.2240702793493952 -0.08185207012545118 -0.06425828178303704 -0.252618077304876 -0.7292322811669077 -0.137044758909606 -0.02223099474544578 -0.2615002946873591 -0.2054287561559116 -0.1106565183504187 -0.06611250869678878 -0.008483382986024338 0.102495966784827 -0.2196257434827185 -0.03424070048612669 -0.1159593412343606 -0.2187227228747166 -0.04050868389437711 -0.1839150431334322 -0.1916148171334551 -0.1907841573911575 0.08772294773929457 0.009166135109396472 -0.3126490783792681 -0.115442778568038 -0.06039617090379708 -0.08623532536175402 -0.1150299222414282 -0.1693908284194369 -0.4936813936129809 -0.1609402508593265 -0.2073407243631647 -0.002475374004949962 -0.3022592335126887 -0.2722774259070603 -0.22538755809443 -0.04234611042430431 -0.2216419837433581 -0.02415180940940246 -0.1544931406681506 -0.1777805716654275 -0.1983460446837657 -0.2197465622687023 -0.2538580082875424 -0.1311846346520832 -0.1718699045785186 -0.0864351664253987 -0.1328800869024897 -0.1686521121268025 -0.04569415324626004 -0.2920379895069342 -0.1381021973213525 -0.02205416044870174 -0.05394230460611678 -0.1350238915830763 -0.1640954167165382 -0.1197363536917989 -0.08600964516303629 -0.1053832329437314 0.02597224543343956 -0.1314459569433784 -0.2053178340412036 -0.135103725910826 -0.2681165512326296 -0.09709642692742559 
0.231893442101481 0.1380140191893472 -0.05080823845024299 -0.1210497537756401 0.06145210409667213 0.1041501604786991 0.231688270308609 -0.1155978104867155 0.1317058532153481 0.1090060700356352 0.07081914659391461 0.09348115587437683 -0.3328097225359884 0.09931027328052727 0.1109648681395889 0.1475574609153323 0.2694520973948623 0.07859070404305953 0.2260238041572886 0.2024388090923979 -0.5578994969979002 0.1341335896796243 0.259743831344816 0.08080390093986908 0.1435735856459052 -0.05162280268560572 0.1795542900542322 -0.02791106146132167 -0.0461791217624034 -0.05499825269516345 0.02744507384835313 0.1470626332931033 0.1606072686040012 0.4816781416160413 0.6080502948157712 0.2600413030190498 0.1000713249131876 0.3585887470094998 0.1181119296758568 0.0218763370550349 0.1647770538389605 0.1682335111847597 0.3784421784487708 0.1545797633469874 0.2484148171342919 0.1272849950965899 0.152690367083761 0.1160897387333167 0.0005824767466328265 0.03990485345181456 0.1548679484402581 0.1725656124043704 0.1382335563239746 0.0464056974138022 0.3661243606539828 -0.03809506206684499 0.1244153237102852 0.3710225482579679 0.1490001876930211 -0.05377793555778481 0.07403672156800342 0.2553786904616071 0.02258567321136608 0.1901046051519763 0.1489370137815014 0.226702599695306 0.1077916451353149 0.2128310631006609 0.2137953935734079 0.09974713075247542 0.335026742122639 0.05762881051054163 0.03072440560927821 0.01268373286349424 0.3303145166076164 0.3639505748780079 -0.002362642804313076 0.09680075740647495 0.03890833850612824 0.03063640330656986 0.04889454276664676 0.09264507412785669 0.1555703177099846 0.2167373092491894 0.3906027774526265 0.2136434758421956 0.1710987555104701 0.2115701414310919 0.1234453011027552 0.06345728951067535 0.1489933069517798 -0.01277612656077877 0.1189561241207733 0.1020595130628924 0.05111854671426676 0.1020104474891484 0.1196305201033944 0.219273652550253 0.1841978920618872 0.1212421427164069 0.1403050972530944 0.1406446049238488 0.1632792884522343 0.1326395418436774 0.1202019893582807 0.1643217304288216 
0.1811909687633552 0.1948965582617332 0.4220249694349921 0.4216631156783265 0.004775444544054745 0.1207587326613879 0.1910786378290908 0.2824127135024328 0.01579494589002034 0.1899325266398134 -0.003002740784134641 0.09882426774466681 0.3585563089215633 0.2615393486284341 0.2236788955603005 0.1080738180570391 0.4589354958547116 0.01988653929418856 0.1381352899491392 0.228400017120499 0.2265519918705822 0.2664412148945351 0.3677070428048427 0.2077516253117565 -0.05932014208686501 -0.03147071037992526 0.2095870786990463 0.2147295422871379 0.3126945601398925 0.1689798874310439 0.3004236578207266 0.06948410575911061 0.1989410187168607 0.5244625497617809 0.3965055676925441 0.1761786540736602 0.3052027310816996 0.1144217613464329 0.2071872751666169 0.7097074141082687 -0.3014495007731327 0.4748261132640998 0.1296005450841892 0.3738161378415884 0.1726595264200153 0.4493087016548203 0.1982069621805086 0.2649069273534926 0.2166787700948723 0.2362914775959781 0.186405996510688 0.2698840855112257 0.2838776875863696 0.2040313184278054 0.2670810267606916 0.1996040090497979 0.2118653308647042 0.2812864574208088 0.1458595171312141 0.2203909231302844 0.2589568981574279 0.102218968936792 0.2113844690268545 0.2956326729817709 0.1322692648038808 0.2123684006251778 0.2102828500067054 0.1360921901710495 -0.03308642633544558 0.2303157044029718 0.1146787942549079 0.05170849762510332 0.1255881176436836 0.09554691449012984 0.1619933167991917 0.1332952556129813 0.3650543053239027 0.2086188002625192 0.1341512821533407 0.126275793662124 0.2180200334368077 0.2168244753397571 0.1672925402900047 0.2325900422109165 0.09113004065438453 0.2245864214994232 0.2346774862961991 0.1984332155386788 0.2857682979731783 0.1700734372788226 0.1846454226711996 0.1375176485447683 0.00360584551464276 0.1795864925403025 0.3030486739355642 0.233960760026891 0.2222392767472907 0.1970908035688085 0.2411480891957159 0.1627657018453963 0.1489516808603853 0.2635822280528866 0.03712795379974041 0.1917072757885594 0.1213643196439164 0.1945551209114385 
