solver_type L2R_L2LOSS_SVC
nr_class 27
label 7 1 6 2 0 4 5 3 8 14 24 19 13 11 9 23 16 15 12 18 25 10 21 22 29 26 17
nr_feature 128
bias -1
w
-0.3887048437863784 -0.04363934210178252 -0.146454425290107 0.2394517955370866 -0.7515032943342466 -0.1527523606144314 -0.1225316616040104 -0.2514075727252751 -0.2576932918592689 -0.3105841455500113 -0.2624595825754314 -0.2826939519089344 -0.1622605911127748 -0.2946373955128415 -0.2878238828041185 -0.2349905448314637 -0.2864047881338623 -0.2208720521517208 -0.2413398007436591 -0.2420498760368115 -0.2393900350852551 -0.2557644608168838 -0.2697856106618612 -0.247412140490037 -0.2501716120139066 -0.2720189800269719 -0.2662093285255211 
0.08823318575164502 0.1183240998845288 0.1497528018699643 0.4494883759621135 -0.5950323446506357 0.175783627445427 0.04124468573609437 0.06183524319487069 0.06445765630806322 0.03292776929305236 0.06853185766239329 0.04610807232844111 0.03128322497338256 0.04586173607947653 -0.006365823843550335 0.07086160113492256 0.08934448232816763 0.06496609345775796 0.04743558394149783 0.07910715237031338 0.08364125145322922 0.07422160309964373 0.08181279553856548 0.0635872615412241 0.07225806706455797 0.06379730801354255 0.07001820034511196 
-0.9305930593173626 1.303908601839066 -0.8149784572223693 -1.072786355651698 -1.051761151386876 -0.8890238437214528 -1.017908509737739 -1.078773804424344 -0.9532037864883391 -0.9244275591275072 -0.9261436536612576 -0.8929596928858905 -0.9652345616277437 -0.9547594722085656 -1.021920603370171 -0.9577876770033927 -0.9218849540386486 -0.9200794493085488 -0.9363249389998074 -0.9275952121620601 -0.9394005845795109 -0.9347961720352056 -0.9253964347973606 -0.9129053127768324 -0.9242600012151703 -0.9274901271599613 -0.9458108718042136 
-1.345403098922288 1.099279032554552 -1.064946007177366 -1.893327560970727 -0.5083791487846517 -1.164142888666532 -1.172294280583315 -1.144752441104617 -1.359321093168226 -1.268581341636487 -1.234237276292786 -1.186572715086908 -1.175692072414526 -1.215238726145229 -1.233015492708559 -1.220083403824568 -1.291703744123017 -1.234371020208689 -1.247194368829803 -1.236073745112994 -1.240983089835132 -1.251545475320918 -1.241353866285896 -1.259996530358915 -1.231345981965075 -1.251834916335496 -1.237637666898053 
0.971639497417951 0.1302910107465287 0.7857059118270159 0.6934788607552974 0.256102860775648 0.6213859325110711 0.6913937582774388 0.5856496608388103 0.7584367920147118 0.8238192488542334 0.7719634392166548 0.7664833669598187 0.7429103438453833 0.7609921061541677 0.8026987525807441 0.7892972762909698 0.7390607498456937 0.7653857590821604 0.7701189452390719 0.7530035629521024 0.794925207285181 0.7843097519064929 0.755064285016731 0.7755550155378187 0.779062412341362 0.7582899870963912 0.7556588642269975 
0.629906015717979 0.3967454666140288 0.9451540433116861 0.2074418078764372 0.2038573114857846 0.7598121538962074 0.8177803937171398 1.066262464514177 0.7640841150080105 0.8480181929225959 0.8081292095724359 0.81244863933224 0.7654123807373446 0.7833438928001897 0.7939242369256304 0.8044057857492677 0.8044100274166975 0.7913953057744338 0.8006483634708333 0.8289178689425117 0.8189765259199854 0.7999962323895525 0.8075902754020057 0.7743597749741915 0.8065170753006539 0.8193919040946207 0.8248134404475532 
-0.7075944798775429 -0.164775431332439 -0.8504459807425057 -0.5985116756311024 -0.2965682423065588 -0.8617639861118089 -0.8762849204417308 -0.7677886515068778 -0.6911276077757834 -0.7498549933725317 -0.7904238561707245 -0.7491849795256861 -0.8335489140085951 -0.7802537009790924 -0.7666378144363545 -0.7475978137374756 -0.7537461724407493 -0.7977208760609791 -0.7972508955662784 -0.7733727153096924 -0.8078303718486678 -0.7742392336039713 -0.7881429543456732 -0.7876946445237313 -0.7741091699773112 -0.7906060032077349 -0.7877741071982373 
-0.544427458921845 0.5277231771995574 -0.5106822860527293 -0.7653540340807848 -0.2650048734865133 -0.4806320693769697 -0.4684884816624416 -0.3081138662169831 -0.4799267146408581 -0.4822155517509561 -0.4911085726745927 -0.4969981413025356 -0.4753825015063714 -0.5082650288984053 -0.5030100275934536 -0.4716054335931917 -0.4559308857070187 -0.4962086099935389 -0.4951048142041072 -0.5124762029115119 -0.4856076336896598 -0.4743953892377399 -0.5066334059603356 -0.5258704629870039 -0.4877194880405215 -0.4941866937161083 -0.4894878482697784 
-0.7098518132174412 0.6273525227764396 -0.8131146285887798 -1.434683467964459 -0.7765100816039728 -0.6163911786351018 -0.7319681443570432 -0.8647337418134065 -0.8130231545271538 -0.8445951897324873 -0.8617521755142642 -0.8838866473593424 -0.8616271477751645 -0.8458466692325013 -0.8402092229530154 -0.8344399478876139 -0.8538416800025975 -0.8977131839254493 -0.8592891770196643 -0.8836377021217843 -0.8715632635200264 -0.8770936187736327 -0.8695860217195412 -0.8665881491603523 -0.8502282036263077 -0.8786366564798458 -0.8503531619999088 
0.2925951867218557 -0.1014181765273828 0.415032439818217 0.5494287686298774 -0.05069126567592857 0.3255048498364221 0.3532490525252814 0.2364998988265213 0.2793105285705883 0.2584523990141226 0.3251103435665387 0.3012070874940742 0.2448865177239029 0.3437563227283014 0.3069420548281621 0.2933968596053222 0.3116034989055969 0.3491108575685791 0.2933767618891059 0.2759011156786817 0.3317735864092914 0.3008632725101407 0.3053161620420556 0.3090455480174892 0.3280283417330713 0.3181627712383536 0.3018921784053407 
-0.6963866590303848 2.01114328756755 -0.9354647999850937 -1.243532220602008 -1.656675348265738 -1.054043828795351 -0.8949819504213011 -0.9578698027233429 -0.9024831081147191 -1.001071267782897 -0.9211333910754226 -0.9220551283895813 -0.9705273478063815 -0.9102048559536847 -1.003904290432611 -0.9214853704840533 -0.8873088526071385 -0.9485670818997776 -0.9084185924173181 -0.9188891868397223 -0.9476108204925526 -0.9452906550641444 -0.9323728928276279 -0.9333455995845573 -0.935045973331402 -0.9125417296699027 -0.930832798742889 
-0.809589563238275 0.5184710053623507 -0.4761081607512839 -1.239069466349659 -0.5483601348059728 -1.043751579512543 -0.9514538998127821 -0.9464684241843473 -0.9821391300246682 -0.8990094457742067 -0.9285485744265419 -0.9218820208017946 -0.9227081938294056 -0.8856777786172447 -0.9668154985851095 -0.9130454846513993 -0.865635681279307 -0.9559863245349594 -0.898703417973291 -0.9028664733872032 -0.897859175682985 -0.9372007577599865 -0.9139493200189965 -0.893166233862446 -0.9185945044575176 -0.9141202148288217 -0.915554273036862 
-0.4955840413585327 -1.286682970032831 -0.1141538156042968 0.3965390826909585 -0.4624035571421987 -0.4789855965030084 -0.3375766375447676 -0.5484511182777784 -0.4333029584488707 -0.4973028619344089 -0.5050053622339119 -0.4744500841072433 -0.4487805864421965 -0.5585882883592554 -0.5632291748246888 -0.508624853157468 -0.5055549685581019 -0.4861568819442615 -0.5238512553420198 -0.5003011321101848 -0.5116568585968171 -0.5127557506496049 -0.5020723381334515 -0.4892191548403573 -0.4946531896014144 -0.5138243498626011 -0.4957527065841929 
-0.05269555127978128 0.3501034229632041 -0.2443112222382073 0.02159855439102131 -0.4937979420814589 0.06367357108146125 -0.04309028428209496 -0.04595762758361274 0.1039336631280925 0.01481002301770059 -0.03161148410463632 -0.01290251817553449 -0.03567448386455172 -0.06079179124437802 -0.002852695872792934 -0.04904920753794544 0.002716301175621301 -0.01769860315269882 -0.04385163275847898 -0.02261096376515541 -0.04061519934459941 -0.04660010190147232 -0.02499153706751097 -0.07579727836481746 -0.04222257672833116 -0.05119313298444628 -0.03797850521791414 
-0.3596473231654614 -0.1277816278042868 -0.2191861406558964 -0.4161552548184099 -0.1234491353171111 -0.03300425138301515 -0.3432258084010852 -0.3413545875901454 -0.3210378826464753 -0.3340669219398321 -0.3127498506835714 -0.3324331836628241 -0.2640255923497613 -0.2777107197740262 -0.3923889384439326 -0.3576241582075567 -0.2765458569446574 -0.302170501436258 -0.3370129286840994 -0.3166968023474242 -0.3039959704597918 -0.2993870004974716 -0.3185182187675806 -0.3145563546398375 -0.3144855773785376 -0.3266156593154965 -0.3017939811278157 
-0.2063259488455794 -0.08306519875838052 0.04436486988478767 -0.319205026032356 -0.3068736382037965 -0.1552483995435395 -0.2132612251474147 0.1734597913420435 -0.1102828571657617 -0.0817216432711526 -0.1737496206485422 -0.1741086167156758 -0.1055566809946517 -0.1454535465489766 -0.1599061650025988 -0.1794256075202807 -0.1204101576123095 -0.1694362008189588 -0.1407658520777829 -0.140856983324974 -0.1498180435272137 -0.1614431215647602 -0.1507429349959389 -0.159074505980721 -0.1675709156664997 -0.1735113946041099 -0.1701811094552246 
-1.996556414883579 0.1366955505783204 -2.132753156314004 -0.05730512361818586 -1.489893576063693 -1.775847279348316 -1.720966302982236 -1.819110475940728 -1.785346297442985 -1.7909161736346 -1.824070233160089 -1.805365682337557 -1.763614275158991 -1.814913269761988 -1.759519501526349 -1.824843043316037 -1.798134333398755 -1.770844277851668 -1.818909103293879 -1.829805928157387 -1.797616471629193 -1.816516554083078 -1.790615376731535 -1.822019727285267 -1.813720736215783 -1.808053428804059 -1.813852365560029 
0.9095085561669136 -0.8997704928496628 0.9542077024728813 1.399151027307231 1.032912973654968 1.002057247784937 0.989449076640058 0.8596492824134244 1.073712492687083 1.073243609191607 1.038065554166216 1.076674140529899 1.086721896825511 1.070058466267575 0.9637285816711915 1.022583685654328 1.080092036964686 1.067491165219888 1.033388845927198 1.053321355714044 1.061724600662443 1.045108649410563 1.064958857626346 1.045505596164119 1.030367700258089 1.058199199143985 1.046656872508869 
0.1254768989180035 0.3338425659190417 0.1647114656921865 -0.7526416878954618 0.315737122482468 0.0384064340271684 0.02711221611178494 0.05219961824249818 0.0545996734673824 -0.06813012017925905 -0.00118790434508178 -0.002619840692064412 -0.003301655121147532 0.04630536422295654 -0.02623562439477267 0.00913092476476032 0.01588324065189875 -0.05747732984440442 0.01852689571645192 0.007078595958151192 -0.003532134415110536 0.002308211258068942 0.01474442330568523 0.02704623716983786 0.02456112950747082 0.01593510434479726 0.02824905641335518 
1.164094239371501 0.5199485913338396 0.9051345046360194 0.3139417642683948 0.5705727241284564 1.114113988976098 1.243349253978795 0.7426979822339574 1.138901278679826 1.091068772713598 1.108007087993864 1.139920611233283 1.205415355712392 1.086296927208221 1.124522928056445 1.121118209511589 1.122859216044006 1.086877345461246 1.100231468730753 1.088898254926648 1.122550667520392 1.126391760441647 1.097463042534528 1.084105519191607 1.087037699507782 1.093988096509521 1.110280294197633 
0.1026034980672139 -0.9509619859017628 0.4486542078325668 -0.03607794228043618 0.8678018446736685 0.3966470762492068 0.2205776550746646 0.4963881554478864 0.2668217529249737 0.3281903208466239 0.310176355064719 0.3087053016642641 0.3298639089727008 0.3194926042951804 0.3649383371677242 0.2671055412209749 0.3123821420815192 0.2715828604487427 0.2999669499291811 0.299251063603201 0.2779768288877922 0.3006340753310792 0.2732867197960108 0.2950184439244355 0.3069803862169921 0.2775565252260598 0.2766003538447122 
-0.01252167905847587 -0.1682009662153892 0.002346916421993379 0.0961465681427478 -0.299609574891778 -0.2008895542292738 -0.2885747004505435 -0.2867185813858058 -0.2653189443103646 -0.1345142893363685 -0.1608490798041247 -0.1580563386576117 -0.05678474147771653 -0.1690882405061077 -0.1509177247378228 -0.1663067155506727 -0.1726058466139103 -0.1925786707271899 -0.1569764930703386 -0.1802553434607952 -0.1546040557971118 -0.180499692197361 -0.1525603131688842 -0.1696998633530492 -0.1621911529560579 -0.1588506064852444 -0.1731222948162681 
-0.5849998090693632 -0.4887105852696612 -0.4512140991207554 -0.3707444697912157 -0.07132211137269787 -0.5212847464946012 -0.5276330337183184 -0.4100030074934136 -0.6764407949715084 -0.6042987847952982 -0.6120776567384685 -0.6003085375189342 -0.6469321649240733 -0.6171498212379906 -0.6057693063265712 -0.6285801424909652 -0.6038586665382939 -0.5986145538988417 -0.5944608797684288 -0.6118237639364102 -0.6217624237834033 -0.5998044584998733 -0.6124395530787029 -0.590839461781014 -0.6119679066698892 -0.6229775956014427 -0.61982421412889 
0.3094823413944981 0.3042311346501892 0.2004396434072082 -0.1496766098694486 0.2559525261540378 0.2149351032897313 0.2573274833113137 -0.1793205281861427 0.1450241391777111 0.1862508832325075 0.1691942609702324 0.1706600230950631 0.2373053508260704 0.1641960019246854 0.1174516265195199 0.1505154210292915 0.2298645769996199 0.1998493896974418 0.1997203383667814 0.1720505841103775 0.1951533202458189 0.1904678474337793 0.1910894029713641 0.2034249067845007 0.1758713010995116 0.1776204417707845 0.166962182561863 
-0.5671151396329813 -0.0110310542021224 -0.6974884095866511 -0.1917013770719571 -0.0422949003754979 -0.6804132466915976 -0.5393123101399762 -0.3924808684225611 -0.4489892154959523 -0.5345485032846984 -0.5245799703654049 -0.5519578432613014 -0.5247257016920274 -0.5106076984986654 -0.5236895328419111 -0.4866481567594366 -0.4978365425346655 -0.5206422182172367 -0.5093281366598126 -0.4852689719671817 -0.532578081491266 -0.5256164488538589 -0.5070588078249568 -0.5214987090485562 -0.5354285164053245 -0.5002701390971073 -0.5137550339061218 
0.6781526973599056 -0.3010382897645091 0.9067058469993755 0.2213477626460272 0.6830731847621313 0.7030677459721604 0.6145962895308735 0.9128329693402293 0.6656642647857921 0.7412243843001372 0.7353100884406045 0.7197663818243117 0.774289693769492 0.7319095297338893 0.6970802716942157 0.7090092597650935 0.7093371938716718 0.6775485407353434 0.7235090627572249 0.7374171584437752 0.7419411758796861 0.7246939905628268 0.7277328650605782 0.713624640420969 0.7302332479848477 0.7282423555248384 0.7163739568832017 
-0.2977770312301785 0.4851729130843473 -0.1883568665115489 -0.3792015772725197 -0.3708257144093192 -0.4030463347766249 -0.3507599781407567 -0.499941600661284 -0.4405259483973311 -0.37291360805458 -0.358564249439722 -0.3586705257704932 -0.4293922875297813 -0.2732560257483661 -0.3584013489067853 -0.2998149806893949 -0.337723113382474 -0.3540607508905451 -0.3274000824832138 -0.3442388417642128 -0.3418712541033683 -0.3336733780893432 -0.3567880253023991 -0.3385067493047674 -0.3296231054667718 -0.3284978116869142 -0.3580331574925534 
-0.1026499480903658 0.3377468964970506 -0.6643249457137959 0.2228131072500397 -0.5910161844056604 -0.3223093545476509 -0.4304264954201526 -0.4650477792120931 -0.4003185032009135 -0.2884650726497057 -0.3730639979709477 -0.3671917660209527 -0.3759753349915875 -0.3705815778910175 -0.3622458404069087 -0.3456442103470885 -0.341488369251463 -0.3713358311560574 -0.3432458779975368 -0.3152040419940237 -0.3732249752554681 -0.3658985243846737 -0.3668599096941164 -0.3675397662130085 -0.3657486104205592 -0.3350735508744168 -0.3578315715372991 
-0.2685776064155758 0.0292061525946384 -0.1911762384433429 -0.362201596382591 0.389725340332829 -0.1885068211808267 -0.2494309453567252 -0.07559963200206923 -0.1825540059189254 -0.2303337837108288 -0.192681832476461 -0.1706366900366853 -0.2020694046488509 -0.1565020290711374 -0.2540088912652518 -0.2060197002284947 -0.1873431317865205 -0.1804790872910437 -0.1809439751327623 -0.1811968836610753 -0.1684231226600323 -0.2007530990403906 -0.1769354371251264 -0.1937053641146138 -0.187180876258276 -0.1966763701012181 -0.1745680306809224 
0.5435603311692667 -1.022507900151875 1.221025157478535 0.6255949250811724 0.710188143540029 0.8086721817738073 0.7859783728861879 0.7047690563492682 0.6538830691090768 0.6872858346788104 0.7202756788744786 0.7455902884391398 0.7895241626651345 0.7128290087918566 0.7700965029595365 0.7519410730813688 0.7458543281966894 0.6956874314156111 0.7272428899270384 0.7331155496199755 0.704104940840263 0.7107782591900984 0.7065691870103747 0.713984632260376 0.7186567032765846 0.7323560187248452 0.7418080535202696 
0.1232907091714993 -0.604269889867015 -0.07571721799533683 1.157860106084401 0.1021574510555495 0.3416328676636484 0.2121415550372764 0.561742480808325 0.3507278753208379 0.277346372061767 0.2839850405098236 0.3100409950390582 0.3546985697639145 0.3199500914612424 0.2597819498025181 0.2986462050237935 0.2989518817344106 0.3286776552754536 0.285298464933957 0.2988427773500071 0.2884279132516461 0.3129882112165023 0.2965983835078378 0.3178776223455393 0.3066671962644166 0.3242204691640174 0.2986930052224082 
-0.9966194747795919 0.01223567579219187 -0.1523859519118626 -0.3218229484474333 -1.081357157629792 -0.9879006557037877 -1.014148184905057 -1.287917812444369 -0.9897160553221136 -1.026159485664281 -0.9640065968866766 -0.9525395864863981 -0.961004730529563 -0.9996763439092063 -1.000961430423534 -0.9665869388134068 -0.9776543736679884 -0.9886496601783669 -0.959615853979385 -0.9159164571928697 -0.9621071811066052 -0.960531783268371 -0.9811641614543877 -0.9636523338952413 -0.9677448408065636 -0.9594456395866364 -0.9882542121631006 
-0.2961255205763773 0.2319558881162322 -0.4898955599340229 0.04807935151392126 -0.6657999437663847 -0.4600480884362878 -0.5677410953411548 -0.4790863465672797 -0.3926926971387914 -0.490382413920175 -0.4167800156110174 -0.4734596779826352 -0.3828208362372642 -0.4250125976409094 -0.3096172528999832 -0.457152636141382 -0.4286313478638316 -0.4501068483202112 -0.4375520007276849 -0.4422708379683982 -0.4354832262081587 -0.4123304828063039 -0.4187042284823655 -0.4230404501451068 -0.4119865299645243 -0.4112286881426859 -0.4218706299926022 
0.1931283608381632 -0.3706041944325146 0.169364207904581 0.1623845301354343 0.06126446673264629 0.05412522508048078 -0.1026077651733575 -0.03333391434368437 -0.06955924127788433 0.05814865312299071 0.03656838639489844 0.02082944824416029 -0.01824411648449086 0.03940132602724276 -0.004640281556413723 0.01787988741519599 0.04966522529405482 -0.0153425566812521 0.02737402125948204 0.01979987374230192 0.02403556324790605 0.0104966270878764 0.03714470833779274 0.01214513400369195 -0.0005755982802827873 0.01686982539855753 0.01597761058610408 
-0.2806742775277667 -0.01537639930747421 -0.8171564837314015 0.4675208760226752 -0.1979312985343063 -0.3144275239204573 -0.5371437665605856 -0.8683459582949149 -0.5323742077245088 -0.4677672061002816 -0.4437160353990392 -0.4975508579262062 -0.4704292952729117 -0.4685541143841834 -0.4419043113640121 -0.4467619571542953 -0.410901028151163 -0.492739337644356 -0.4440252625726262 -0.4443942535046799 -0.4571299568524769 -0.4496213357945221 -0.4673129561500429 -0.4226651322494557 -0.4672957556989581 -0.4580713926929881 -0.4700965939966166 
0.2397375111060345 -0.4381459150541218 0.3302082568487175 0.5336197014368783 0.2771695521826044 0.3886365103047863 0.2306774541648888 0.1214176811657381 0.1402640163458996 0.2241778341941317 0.2551355441994263 0.2379808413109883 0.2228177824093321 0.2487359213225715 0.2181422200500983 0.2135717714117183 0.2108397532015543 0.2083199348120059 0.2335095707050465 0.2232829718436762 0.2423601338074653 0.2256992109892466 0.2558457535626013 0.2432284044033325 0.2187992994312562 0.2294736629836719 0.2530617004819113 
-0.1304445894206399 0.8295185232804297 -0.2707395067796885 -0.7226025959009915 0.01585525206978895 -0.3409510690683834 -0.2467506797592739 -0.1668533687548053 -0.164095964853003 -0.1717932191822755 -0.1687343393250171 -0.1544412567483816 -0.1516951392322107 -0.1876451126116087 -0.2114614652989449 -0.172271026662416 -0.1850243467218333 -0.1558044534783767 -0.1584079310673377 -0.2008016799779433 -0.1851059833606792 -0.1687594938830189 -0.184757087507228 -0.2019374261352257 -0.1709518057754302 -0.163184052931725 -0.1801352583525697 
-0.3162177702907148 -0.6327399464000685 0.04422046029895688 0.187098311294301 -0.5388493365163012 -0.3887462829167663 -0.2716705497089515 -0.2510172803366827 -0.3016642350942499 -0.2950472075634338 -0.33096253599212 -0.3400030580276375 -0.23579061127193 -0.3504938343014229 -0.2572569838574967 -0.3090697440373705 -0.3507527264737038 -0.365769927971397 -0.326720563981174 -0.3308808104936178 -0.3439576094351652 -0.3380501614694378 -0.3338812508046747 -0.319718286451499 -0.3360076469361993 -0.3373492815711119 -0.3476433935419209 
0.8740987393906842 -0.3503684159160084 0.7593715205762084 0.2334760463722973 0.5730927971104198 0.7796187255681379 0.747652088626877 0.7000609541465443 0.6577306317536239 0.7355104573056098 0.7478005911489756 0.7489414706693416 0.7839265598984988 0.7441066464490111 0.7725847173225442 0.7423460492488173 0.7511666927919248 0.7026119435721042 0.7096775497807489 0.7026451811649831 0.7435558630133365 0.7270018348529702 0.7222372967843372 0.6921436225724651 0.7142740669694412 0.744856335114801 0.7459168212704449 
0.1907248703434633 0.2739744170110104 0.231821920212656 0.03212462457400254 -0.3149978750471965 0.0230199218598766 0.2071893041627053 0.02800269960754961 0.07303974384696214 0.04338177561916519 0.07059981297452744 0.1012381375117631 0.05609031014954757 0.0637280262711062 0.00740091727788224 0.08028989693126561 0.04242837413852645 0.08868279309306988 0.08684874518170572 0.074308549868597 0.05884671730118998 0.0677990393981574 0.09221337977604936 0.07017098254813378 0.05910641799885405 0.07615935980047916 0.07134906844763575 
-0.1813574510232154 1.434369784429795 -0.2843907113937733 -0.8411213308446908 -0.3780645934702273 -0.3009189312742589 -0.1326619550884493 -0.04652199538789276 -0.1462010705958865 -0.1125229269615166 -0.1107824289755674 -0.1489033641831046 -0.1596879874214324 -0.0893884336172662 -0.08666845659517418 -0.0960981242110274 -0.1106268236363143 -0.1529219575232317 -0.1039253274412286 -0.0957221614746542 -0.1232688984926111 -0.1197198765773767 -0.1066364872821099 -0.07961742077034119 -0.1178331783101126 -0.1042372334769709 -0.1156223069805474 
-1.145749880494495 -0.5368329906657878 -1.267766984426803 0.2292117857021126 -0.9087006247285886 -1.240081342778629 -1.382724797593973 -1.153658404369719 -1.143540774356137 -1.289818662874594 -1.19176070381627 -1.16211618101402 -1.193893612859921 -1.200601950166974 -1.217554816415543 -1.22085963721056 -1.216377475837316 -1.190010483703794 -1.1956047789987 -1.205180365449976 -1.214792836809752 -1.215680323576667 -1.226598982334939 -1.204026952379692 -1.196547611010105 -1.207254395050932 -1.213741683005437 
0.3404503647469153 0.7823222643774485 0.2788221773144073 -0.38472923413244 0.2770270895363486 0.4302384705068111 0.372229298281667 0.3247986095175546 0.3939860442058655 0.3310630083768009 0.3830341623588687 0.3602260517906392 0.3258710623459541 0.3729882320616882 0.2489638439108327 0.3762114845101957 0.3976928115079494 0.3725971493250303 0.3582421785042841 0.3395616850517553 0.3482431490467102 0.3544920541156201 0.3510736558354594 0.3665498696349092 0.3609797470654816 0.3686176099135572 0.3841340454533041 
-0.4664921651810933 -0.1280374553090381 -0.6570632718713835 -0.1842746570440237 -0.8152509486113148 -0.575739410597161 -0.5336212559247491 -0.2286862599399626 -0.4684094898016298 -0.5462805162981229 -0.5572620167670853 -0.5358977865905521 -0.5579653497538868 -0.5570998928092171 -0.4521310974809027 -0.5459771930026227 -0.5332391925988776 -0.5751119999534463 -0.5618424801023622 -0.548015610181623 -0.5595818386794373 -0.5603493124710478 -0.5578045088839159 -0.5628846648849534 -0.5738795353154195 -0.5690245780319083 -0.5562353688989117 
0.6806590410358073 0.03153911102176124 0.9567685367910312 -0.1858002655411255 0.3941047920780733 0.6465279057624067 0.8077611593349494 0.9161224292096861 0.6680002297421906 0.7225372275359799 0.7400514678710604 0.7061564670084008 0.7499004270475538 0.7316791067621042 0.7834674315971092 0.7009596592335391 0.6896704902626198 0.7419386175751508 0.7441627886425279 0.7626409161643456 0.7447214772392613 0.7246057637458934 0.7330997627357642 0.7192737057469242 0.7380226886925902 0.7224269871561464 0.7319618326605568 
0.1157675832673498 0.3022789329973327 0.3210423290864836 0.3975766642015711 0.2734753331840046 0.3157035520444003 0.2464395570601052 0.3391593496266631 0.3497835742013113 0.2722373292373338 0.3545173282146075 0.3711363896426061 0.2703948222554216 0.3730199697620936 0.3385272014910617 0.3536433803874556 0.330717471992937 0.3681862168101884 0.3674912764539513 0.3717322787733897 0.3479685433772623 0.367613565762142 0.3360284963347497 0.3362138034868792 0.3480640598515139 0.3752191793349896 0.3569972919644342 
0.2588653619624413 -0.4307340663113524 -0.06946384175899066 0.7392871626008679 0.4435570627984971 0.2216144227425628 0.2274130672775876 0.09468171041707907 0.2244899993655214 0.2799892841871537 0.2292294386614418 0.2962964264603488 0.2440813640096581 0.2305880184621076 0.1241091706146269 0.2549203048276524 0.2291530803862628 0.230814886509897 0.2252773423005778 0.2031593267175458 0.2349549468433849 0.2226963816888256 0.219770678754995 0.2529798657282858 0.2532436676436619 0.225706265764633 0.2534133704153624 
-0.2736939669764475 0.06708708435169951 -0.1192263829391015 -0.04148830350088218 -0.3371764487006669 -0.1954957493710417 -0.1451225509914322 -0.1137480365226138 -0.3189317682255957 -0.2201437038658914 -0.1879095660726182 -0.1594273425109363 -0.1470816451887492 -0.1635081934921156 -0.1907254907776095 -0.1672622603436542 -0.1363117530301472 -0.1794697028020235 -0.1763551020222276 -0.1961707682069785 -0.1845388814259565 -0.1742521405977797 -0.1819971363487893 -0.1992505896063222 -0.185113335635739 -0.1692929665267037 -0.2089887959756418 
-0.09276434113373992 0.1176810933721502 0.1231245663892754 -0.3373647359824762 -0.4909652857794242 0.06141827510149906 -0.0423438120330633 0.2499606312443859 0.001000429225607882 -0.02339159157974766 -0.04708243822295171 0.01419773301857933 -0.05429899421962733 -0.04579417384244142 -0.06370539233651998 -0.02085246155983921 0.005383484633746796 -0.05380217769218675 -0.05412120353958177 -0.02761339480693514 -0.0604740239529219 -0.02181175085924418 -0.04014717462808332 -0.03242482196047234 -0.05008020739086242 -0.02583070372098457 -0.03887151763745207 
1.113730691669878 -0.04976770311496655 1.187196867907864 -0.05858130490430473 0.6605006861782384 0.9517571840972767 0.885148220893848 1.066488880480605 0.8506626216925147 0.9120990254720331 0.928809957885973 0.9133766800023648 0.9434625814508909 0.9247857670101742 0.8443631747057352 0.9215700574239986 0.9062617201816725 0.9378428328710282 0.915085270884646 0.9121969951890019 0.9386760643367186 0.9236657717994324 0.9082512355406874 0.9301180156556191 0.9236175098814385 0.9420035729975325 0.9153927745237593 
-0.2173487853976135 0.4443434275209641 -0.2839505578193567 -0.0184964406114182 -0.6833048656308587 -0.3920774038831039 -0.2388512542407912 -0.4616299784959023 -0.2650698836671169 -0.3311890866731175 -0.3099689007937059 -0.3444802213316724 -0.2885687034923688 -0.3499641029479219 -0.3289066161215216 -0.34596149505313 -0.3089446155783702 -0.3360947090983444 -0.3003918060360974 -0.3491208447942944 -0.3154645911652513 -0.3361790497097323 -0.3251645170414781 -0.3309744348056519 -0.3095313552349667 -0.3133280412413639 -0.3336017710215443 
0.2221340671908044 0.3209970017113593 0.03397610183858749 -0.08023647455951465 0.4850253225146754 0.4996509223823538 0.4266813237853494 0.1220286409487725 0.4005954997848775 0.2929986963342935 0.317952668881207 0.333966035360837 0.3735621544015235 0.3065008871729155 0.279678641856495 0.3134948345896682 0.3083403189107482 0.315288979451045 0.3139919183313404 0.3303589311591923 0.3149356260295604 0.3345572902339075 0.3179359584950175 0.3191543282530879 0.3471975203382235 0.3069508397765764 0.3095616419527812 
-0.1446930464814362 0.5134365638226238 -0.1648253410148644 0.1864095687493846 -0.2676741632918734 0.0319924644971537 -0.1213261448798917 -0.07707997587104368 -0.1254197009894251 0.02092747002964134 -0.005433365857338549 -0.01939034207109899 -0.005763077004754541 -0.03011164182559899 -0.01585653687138192 -0.01517404569809343 -0.0006416444269958253 -0.06110621362655559 -0.0328478288049541 -0.02685426124965277 -0.009270643427111624 -0.03916395095485161 0.0006293161588382765 -0.04298439401898561 -0.02962741363897681 -0.0003692664530551425 -0.03281936322524936 
-0.1296613030122082 -0.5835461539638342 0.1768698350756272 -0.01025413532865997 0.3674688051826356 0.01649001096050087 -0.1383009611632362 0.03994256556893341 0.05966692720794926 -0.01807835576561614 0.0004351578738176304 -0.01047206937411383 0.0206764087871128 -0.01482722929783457 -0.1149105996066871 1.351865495420454e-05 -0.02015830389026227 -0.03767894129748716 -0.005712228525899995 -0.01441798411481094 -0.01899187277000534 -0.0002059220471345351 -0.01292280416380521 -0.01301107773946483 -0.001559549924165198 -0.0323106980539415 -0.03297529100762381 
-0.4161931622431416 0.4175547751063619 -0.5073301652880257 -0.4469081665878567 -0.1427613369494238 -0.4279958872367129 -0.3670376840539363 -0.6108498216521872 -0.3997465680551224 -0.3728324247338228 -0.4040406889762593 -0.3892943744424481 -0.4096907464926566 -0.4234012305887245 -0.3561262104704294 -0.4104399028186476 -0.4091845632738065 -0.3774662034063974 -0.4021202948170665 -0.3969781720717923 -0.4003588732809797 -0.410937277136758 -0.4096392846039399 -0.4036332607907357 -0.4217180691947926 -0.40330645832252 -0.405709381391368 
0.1383629383705995 -0.7194921398586753 0.2008342049024804 0.7826664688725647 0.2750231245028659 0.398408500077023 0.3428980603061724 0.4141108176129996 0.2741326822565724 0.3461321249624793 0.2978452351396928 0.3254940531972002 0.2925579505566618 0.3493750096703738 0.3393073149810918 0.3418852150200703 0.3012597738214152 0.3154174557807872 0.3354422167692929 0.2870509266058704 0.3358939080745974 0.3338731268660973 0.3189926315719185 0.3293008880791636 0.3239620533513923 0.3308346286805341 0.3158458113126688 
0.4191244554580942 -1.05984630098544 -0.08106179813908246 1.346268352687189 0.3701968240729156 0.2438784857298861 0.3212776780530523 0.4507773681699902 0.183930516052261 0.345987675477777 0.2703661359806876 0.3139786669893541 0.1952680121626502 0.2456479256707071 0.2307549108493722 0.2992474603577712 0.2975802425800017 0.2917436123150338 0.2843416609541065 0.2946866484389662 0.2810197880785522 0.2889878734203113 0.3069186128511205 0.2867186568392033 0.289495529808269 0.290636270631826 0.2809535410854653 
0.7709790198535391 -0.8762823327587078 0.6773689821457399 1.072870037618601 0.6380645133066569 0.7437374787790474 0.9448732309455113 1.021209013583815 0.7701556749813876 0.8297539483103086 0.8326731167829117 0.7928349178026524 0.8130773655221396 0.8567159115801821 0.8266753480093656 0.8355752614034642 0.8156747658764689 0.8573977816210336 0.8329754098883306 0.8427353057182144 0.8303011802106965 0.832936169593461 0.841035454081303 0.8640684581763852 0.8123859466661515 0.824610704559508 0.818352817879176 
1.152857447659726 0.1404611831836078 0.751929808513203 0.8707094073271007 0.4435829043917869 1.019104243044294 0.9862773336807021 0.9326100658199811 0.9948362970805753 1.042966818716338 1.06943915056785 1.086355861948366 1.01314344066244 1.097341668741304 1.022832978713755 1.096977700945629 1.057630375451268 1.09871253437216 1.040871410702651 1.07267022164296 1.076550331236731 1.078387038712462 1.066208312808607 1.086091756908758 1.045274358266892 1.076922363368633 1.080870166740642 
0.8046351007140558 0.04923296513591948 0.4570193931285312 -0.2387436162391195 0.6702574099752512 0.6904540663668473 0.695355897606871 0.6479128769451723 0.745542479494205 0.6707155289180167 0.6547371962856564 0.6378721986607087 0.6884195080057706 0.6848347840758543 0.6249997947387191 0.65205157156605 0.6212941902593389 0.605794425097106 0.6465725866012556 0.6776454850599041 0.6701589212132311 0.6571404114285646 0.6332265156153464 0.6622425861794186 0.6709200447121825 0.64082537468088 0.6458122623464244 
1.017541800949492 0.3031590361897865 1.152636179679856 -0.06796345697618844 0.456953451981755 1.112933538784028 0.9148757375199842 1.264689203266639 1.141707535261262 0.9720401742506301 1.03355061106409 1.055574386303379 1.012867089030635 1.030713737141218 1.055431411032563 0.9950306951233077 1.072559551810921 1.054804090846549 1.021304837151694 1.0320935355005 1.054202691789273 1.020032610071404 1.0216683130971 1.054643173280547 1.033119902947607 1.035444557061453 1.02596578790137 
-0.2172384532003699 -0.2544517903507091 -0.213696654714754 -0.001226318840809898 0.1560346064078967 -0.4240033443248333 -0.2628630927190566 -0.4599090218707402 -0.3058909583047514 -0.269990510410584 -0.2974044733298276 -0.3320492358565759 -0.3825655392014082 -0.2805296453073619 -0.2884729852289706 -0.2966827959725889 -0.2781047526754974 -0.2426479786322723 -0.3010290477831526 -0.2812342879135629 -0.308335825882012 -0.2874768492096873 -0.2767369027733526 -0.2678136906735585 -0.293237865154938 -0.2963954691737088 -0.3027012138748977 
-0.1850166982418991 0.4954748829861468 -0.5460530887135914 -0.2790583952083617 0.09475260737531981 -0.2132407784872655 -0.3474246184422716 -0.677262752190179 -0.3779491366394184 -0.3387917550558797 -0.2948449764852503 -0.3535385571676297 -0.2785002666508364 -0.3151938694188003 -0.3577463689720756 -0.2946538574291773 -0.3337334813432119 -0.3195487957815145 -0.3024921185154069 -0.3059493374171793 -0.322376136282262 -0.292442346711725 -0.2970340059317404 -0.314554980381947 -0.316174065362876 -0.3051098809294284 -0.298504679551132 
0.1142430870978446 -0.5355204604739991 0.4174068323497615 0.6862023968456945 -0.3095028131030287 0.1813490913145296 -0.005231351910144694 0.2006400487922408 0.1220588867539039 0.1109488236393899 0.1004616070608781 0.07904332237039087 0.1004995916720255 0.05692098951242421 -0.01429948192543381 0.109370938279387 0.1455119740148403 0.07897737251110273 0.1175757826614009 0.119643300184744 0.1259654400533809 0.1236353241487915 0.08965553542383965 0.1298680018473585 0.1073579885074867 0.1075476418865186 0.1061192551791617 
0.7704372108904479 0.5416422412385367 0.7242237869107613 -0.4477416973512994 0.3136249704244679 0.4672624403883673 0.4741924139518228 0.447178432580851 0.5573161454842034 0.5549629500861061 0.5296935668930063 0.5550193298546363 0.5704074836676032 0.5407959238263853 0.5080732488258244 0.5204401491150191 0.556086783526401 0.5485985605630326 0.5387135787655337 0.5341920352938204 0.5270402831839223 0.5347238282285656 0.5251471137840926 0.5559272816802772 0.5447387603868715 0.5292415662147003 0.5552610397440066 
-0.0688082845587559 -0.3314420868287008 -0.4445709770966591 0.3119846438130432 0.007070634850386657 -0.201037909755664 -0.1991529141494144 -0.01045568499300474 -0.1484577075409202 -0.1946739425635278 -0.1577886685879717 -0.1674483030433313 -0.1892936220766755 -0.1742691700386211 -0.2571969634783356 -0.1677663680650181 -0.2020240388962679 -0.2131796649373293 -0.1937147387810086 -0.1620649114407209 -0.1616556509747065 -0.1809885521553862 -0.1885404057121187 -0.1857315938892708 -0.1872833868518795 -0.1801015219092439 -0.1638490656187659 
-1.374185611576956 0.9453555706720677 -1.322168579806536 -1.666446299058622 -0.9284971048421731 -1.491531757011995 -1.470231191172373 -1.660963224108204 -1.341861945623773 -1.455479192705942 -1.485156875111546 -1.479771962850884 -1.444734764225664 -1.417781403544565 -1.41093436734684 -1.475683255284467 -1.441284924689105 -1.468983289192143 -1.477426425296039 -1.475024092187802 -1.478830907902185 -1.466832200669548 -1.481810479735552 -1.453761300752451 -1.485909772942616 -1.460005877921115 -1.461520428819658 
0.750275069178076 -1.666221970304725 0.4073848572930898 1.720981940772717 1.037972184212624 0.6488159655599326 0.5912419133628177 0.3372980599886166 0.7984090415495023 0.7107973751905042 0.6987918212311879 0.7163787579345873 0.7386406363947997 0.6996859777674762 0.6607947523844854 0.6730558840482457 0.6877898012609543 0.6807045249237862 0.6993040593001346 0.678838176450353 0.6881002719465138 0.6776116885847538 0.6814037178486538 0.6853802087805684 0.6841615490815052 0.6658109137573643 0.6649719871729772 
0.363419178466194 0.2509020552790794 0.4124014067360536 -0.3188897738535101 0.1084211090634376 0.2174500185073561 0.2367768706598834 0.2564757938617208 0.3107172652125514 0.2368611741199285 0.2879636340856738 0.3085010964427642 0.3019838861821178 0.2993559789849921 0.2240753690615176 0.2924440562166201 0.2742408338191399 0.2616159843071443 0.261382603341125 0.2833009343261708 0.28116905177846 0.2689373009849985 0.2734803895840783 0.2864933033118572 0.2853277894200472 0.2892860605222806 0.2510198946037939 
0.06918603199395106 -0.2918274065714056 0.3039397252833754 -0.3721919504073815 0.3471796693244035 0.1111634743375493 0.06235552520193875 0.2268429029600132 0.08693928567375411 0.06476147352754096 0.1050791527976392 0.06192707039386373 0.006822395428686256 0.1004673094607934 0.1708929914575504 0.1174332844219461 0.07858787115271648 0.09202189578904324 0.1000940397419545 0.09899985030693405 0.06665781900955191 0.06457480171541018 0.09438379875464219 0.0984009932017946 0.07135451880617368 0.1018633326518759 0.06987462544433806 
0.6904572518946376 -1.081711651406901 0.9707523879194193 0.4980903335481154 1.038656796770207 0.6146665236039774 0.8458308742375779 0.7632789790655762 0.713826057878836 0.741923369049602 0.7175817769820635 0.7180064966154458 0.6748305998723441 0.7200979287501402 0.6496202272705811 0.7190776849400727 0.7002965149304566 0.6839538808264605 0.7079115559877104 0.7205454293401795 0.7161558678845095 0.695958864119649 0.7026004653411987 0.6913030524031528 0.7117954375245293 0.6884059849640277 0.7283614585929745 
0.3654048161754117 0.6127819765527163 0.2182027613573299 0.04898022755756577 0.01319135146366832 0.4219196621670214 0.5962912121530132 0.1685766146118473 0.4372696474820146 0.4483832877516921 0.4213134199153477 0.4675251793871026 0.5480449054669899 0.4360180906905314 0.4333659172706843 0.4407212663751889 0.4601225469823009 0.4594655975337999 0.4269486540583008 0.4737495046715157 0.4502797364361341 0.4220661739965893 0.4490596253419195 0.4792190919312423 0.4202306819991617 0.4399740297129693 0.4352868004770947 
0.6064113781838548 -0.4603777764531765 0.760958302689015 0.1533573187941024 0.177082391498186 0.3838135734248924 0.4057818025931251 0.4762326731006256 0.3781645586078989 0.4596913017450659 0.3926120555617749 0.3559994709089824 0.3636131892227791 0.3928256352809785 0.4077916985808516 0.3743723216126981 0.3469242183837373 0.4016663993019423 0.3736185310236823 0.3440780472466031 0.3723563088415432 0.3815293715099768 0.3792350027479097 0.3781668665962167 0.394733797261277 0.3850953501868685 0.3837384943259422 
0.3144160966023671 -0.6779132921706762 0.4021205767777281 0.3611125430080995 0.3733197581642576 0.4630604606318033 0.3145121620540502 0.5155654584290341 0.4096635893112696 0.3991960477690915 0.3375786786935128 0.3719082393483454 0.3283981300202614 0.3848255997402725 0.3309358932179808 0.342376855233034 0.3502259308952866 0.3786627966379892 0.3630621360099757 0.3592544282997208 0.3695155253329339 0.3752360568664037 0.3403143964345601 0.3525172798563875 0.3724486602228078 0.3495223213526545 0.3451685793233435 
1.410570442705024 0.2679977352939661 1.290768523983631 0.6735360798162559 0.8898537120125731 1.459062524092272 1.399680052574716 1.307360611142786 1.45392583659868 1.42631273817591 1.456372418624073 1.473514143771452 1.427097397153126 1.426865130726282 1.365935059992067 1.468385334574118 1.453099933000483 1.434487361176699 1.444980011775981 1.458447820489406 1.463635799669138 1.45574515583369 1.426168621085058 1.453782459579268 1.427824779626375 1.43121678344816 1.462236283398179 
-1.271175056798407 1.294885612745161 -1.1598904115714 -0.7585713538951701 -1.411551933274516 -1.110826672248975 -1.278646555373641 -1.222790716937806 -1.141818395735031 -1.151925739663083 -1.149476278146786 -1.144944594707396 -1.100584407605615 -1.19167393754788 -1.175751567420702 -1.167597253371168 -1.104138494856155 -1.11344779475815 -1.152404839072017 -1.115150939727646 -1.125914283312998 -1.124523444700299 -1.130164941142193 -1.121203822853927 -1.145263895673737 -1.157335822621611 -1.163415268686015 
0.7565577578536525 0.5329627583694231 0.334155831504251 0.1034849104850933 0.3538555486984522 0.6259419078178581 0.6997566840143288 0.7533410803430851 0.8188447172347072 0.6245625747128428 0.6813594097294267 0.6601643951848851 0.78020956284323 0.7185262439791751 0.6259680465502041 0.7008488655815927 0.6638418275520104 0.7079207537826795 0.7028522929674776 0.7157796205374675 0.7010581267806169 0.6996091075810403 0.7050480286957077 0.6813571774672045 0.7066396967384455 0.6984488355054429 0.690565380355169 
-0.1977240788000022 0.7676826834490711 -0.009208898120757401 -0.3761085707825244 0.01504737796001084 0.1511918606576488 0.08825918331569965 0.2601700954383864 0.02708818024554204 0.03542028735633019 0.1192852087204484 0.08138427937677027 0.1061137681284214 0.1074975163345619 0.08742929179333532 0.1030327743881692 0.1053315684771214 0.1429356401163982 0.08494735889252474 0.07610529125967247 0.1115449726480664 0.1064389744060235 0.1011839086366028 0.1279656928744807 0.08201483718296822 0.1009398432570421 0.1082888243564705 
-0.4856134233091359 -0.2098566972313883 -0.4456727498282489 0.1910140162586875 -0.4277236459752252 -0.5031055510787241 -0.4185128823703511 -0.2112286396890979 -0.3368054750962109 -0.4160820377914988 -0.4053726484155266 -0.3619294111295181 -0.4136060607148327 -0.4309697911191538 -0.4132409283012067 -0.4020277500112497 -0.3912010948491137 -0.4108561170643335 -0.3920563110590869 -0.3719524880761697 -0.415021008191593 -0.3884517495424625 -0.4172544910075062 -0.4246447406950642 -0.3856170455045567 -0.3958251838727144 -0.4053065711934553 
-0.04655706544754984 1.386304674929145 0.4431580387597723 -0.5600056295340216 -0.7601946287018473 -0.07962684361113445 -0.1309268902990623 -0.3808737791554203 0.005050018071875422 0.06115065344701771 -0.02250309065989518 0.006495957435470556 0.01257265970579113 -0.002620693243917082 0.05455372585307838 -0.04142610468196326 -0.009998202189705523 -0.004156381456003788 0.01123208127134427 -0.02031921065646248 0.00345264216596854 -0.005592941182646124 0.01498755262943296 0.006711148986693794 0.01690132070329596 -0.0223101669623583 -0.01373812644679396 
-0.1118137734635791 0.2537761921508406 -0.2449563156144044 -0.2741245542602135 -0.06696515677052679 -0.1604109574442672 -0.1169241295713617 0.1178602555396821 -0.06379007782700434 -0.1072924483969967 -0.07852092021319534 -0.08391899794940222 -0.01430277137403036 -0.04794106712044109 -0.06723715367286172 -0.07398472773036588 -0.07295307740874335 -0.04197019527145381 -0.08960748403097053 -0.05243399816716315 -0.09680365745835891 -0.0649381747056077 -0.07619625810441059 -0.06906065046063517 -0.09270477913551749 -0.07444509655126211 -0.07705792297783107 
0.6507409871895575 -0.8474845368769347 0.7727711005581591 0.5839064597559842 0.8157375911420498 0.9796178716143078 0.8251763975501332 1.101323214483739 0.8480769344331701 0.7683393414689306 0.7955513404425113 0.857243427631259 0.7922204684121391 0.8292070600261721 0.8011871810022911 0.8062544719830594 0.8163189121822337 0.8414803315538957 0.811704804352132 0.8383392956044974 0.7997746043727288 0.7944589946804006 0.8129640801543044 0.8211448179230686 0.8180704227672024 0.8121267958347166 0.7985717165366486 
-0.2536279557046251 0.3925660488858432 -0.3012902909465527 -0.2263971424567163 -0.2605491985118418 -0.173513595524127 -0.1360236676566353 -0.2884509017334847 -0.106055948910887 -0.1928251722210431 -0.2122232014653476 -0.1852230139710893 -0.1649867778277545 -0.2246323905561447 -0.2208577831185811 -0.1912213329079251 -0.1135738191438792 -0.1810067183558787 -0.177029942276638 -0.2380014217066125 -0.1870416678571215 -0.1793830811908148 -0.2101441531663966 -0.2052974240657396 -0.2049721341278654 -0.1849584162703398 -0.1765033861858791 
-0.07699487700184067 0.1810142349769364 -0.1576026856387038 -0.2933126749037417 0.2212648963804031 0.1104872895468973 0.1448307686192105 0.3541056395652858 0.07557958998230482 0.1226887106197287 0.1221262547901461 0.1304647881235627 0.09663415187185628 0.09973210585640643 0.09809945856656709 0.09880514197286817 0.1159940870526942 0.08740749623754293 0.1218080119182267 0.116329668536806 0.09989750463839754 0.1209074443982668 0.0908967377544786 0.1126218584119889 0.1191952655972146 0.1049676441638428 0.1162481715159336 
1.600262892608078 -1.129285891582055 1.343859229245089 1.668960120633182 1.34979343326997 1.585794396446075 1.683355167977013 1.689384728841739 1.703984970431242 1.633193988066541 1.665173666134696 1.640471019196917 1.584349507502714 1.680529090463185 1.663483450788915 1.658492763565602 1.688607464130377 1.630055280454838 1.639742274020593 1.611642410870976 1.665706082888903 1.661892266854388 1.651229000719342 1.634417519814429 1.64997066118064 1.650250981187126 1.636623170679933 
0.3041857587641797 0.1454272614624514 0.634276513787459 -0.04322333871930475 -0.1070994572991526 0.494744690345287 0.478555399484188 0.2919678838400707 0.3433341380232794 0.365135622457119 0.3404917871916656 0.3954104352836167 0.3045817557925807 0.3408601441203432 0.4056122468202299 0.3701536757274161 0.3592313870477753 0.3395222207673282 0.3593738698435596 0.37196315072827 0.3628378614885898 0.35789108760354 0.3581417887549176 0.3244947031752772 0.3790099607123131 0.359883713710638 0.3520907817692078 
0.004778477044135038 0.766653452562019 -0.4403078356379012 0.0784462234235624 -0.4333853346253853 -0.1933116706007433 -0.1652844903459461 -0.1894370010569562 -0.1195833020452535 -0.116507249976434 -0.07912185687504258 -0.0717129329928874 -0.1438444608092076 -0.08893007336581438 -0.06307819019269731 -0.1228632047926066 -0.07839052718272548 -0.1689155075497929 -0.08370517032299736 -0.09337705868508388 -0.09473559224221362 -0.0790454832438638 -0.09352921387723846 -0.126146063705393 -0.111095987248475 -0.1030714158034032 -0.08712829015400186 
-0.1344022194682074 0.1207765824949526 -0.4154102214187706 -0.4190407287768934 -0.1487803416795173 -0.1874671913346185 -0.2892897969731886 -0.1342455752839089 -0.1554622048591373 -0.2699410217151729 -0.251878139293904 -0.2724907676738366 -0.2737645776615767 -0.2541221645403087 -0.2617810739071659 -0.233772138574357 -0.2118647771286909 -0.2367494210563801 -0.2598838340835969 -0.2632178125244743 -0.2357167164042181 -0.2362647600512429 -0.2673194461675181 -0.2401435631737426 -0.2638498691908136 -0.2490904061290752 -0.2439142829830761 
-0.6754996176986995 2.034473161983216 -1.032197444758888 -1.137401996353004 -1.545004731770084 -0.5786870309851782 -0.8454654067782047 -0.723655831757725 -0.8636981010043807 -0.7190894163487107 -0.7853744760311585 -0.7592554697571869 -0.8102060582499123 -0.7542564003295112 -0.7511743347740381 -0.7927255691354447 -0.8238524839683966 -0.7584611600764264 -0.7779563131516843 -0.7289720286223567 -0.7912071138504145 -0.7845961473907013 -0.7663814341828183 -0.764543428639908 -0.7772447134860705 -0.7711443437104575 -0.7894922408665592 
0.1742475557331094 1.500903239579988 0.4554859924506131 -1.345905555404871 -0.1237457297772821 0.3564233104016016 0.2829308392243055 0.3585785203954749 0.418635408193298 0.4185099937789092 0.2809423473211321 0.2665731046008745 0.4019775512682932 0.2785478271261531 0.2371083233081016 0.2877805643830743 0.2932886325980247 0.2927629930018454 0.2907275260283876 0.2631615456356842 0.2858981286171636 0.2952722884346198 0.3030660585724072 0.3269674855130006 0.3067274704463565 0.294756286902325 0.2991249191842164 
-0.3014225239785765 0.4665033286137213 0.06596211795877865 0.1524922247936441 -0.6504484431571665 -0.1479645431111372 -0.2094561602252547 -0.3045131780888751 -0.1758714579403821 -0.1539988893521298 -0.1708008037207717 -0.1877403191944561 -0.1698193555630164 -0.1758845356275479 -0.1532884663625562 -0.1668037388946393 -0.1376228856100276 -0.1336328980768874 -0.1514958189564176 -0.1758736485143891 -0.1744656286558337 -0.1697453189142792 -0.1463783927309664 -0.1668718465470446 -0.1618788153194743 -0.1462907357367921 -0.1779209700149435 
0.246628256101047 -0.07736758547033712 0.3428998443150315 -0.326190250673553 0.1627080723111901 0.2419801870478128 0.2033587925162963 0.2971346085024583 0.0451370721773631 0.1500732585417556 0.1493288761171707 0.1742541443379468 0.1928623502714619 0.1257403088352748 0.1460286301158387 0.1527905490293684 0.1747749855310979 0.1795201777379153 0.1588432815197464 0.1870417401401649 0.1820516962272713 0.1741506942333645 0.1565558905599175 0.1609223407722259 0.168008952321867 0.1808455910718412 0.1512225895365469 
-0.6107577501768077 0.6086811120961158 -0.4807806482276617 0.4284019918889553 -0.9696321324163721 -0.2866043051463437 -0.2097179939125539 -0.157507424889358 -0.24068369749159 -0.3045490684002317 -0.3113996320958869 -0.2870368682587042 -0.318382838976008 -0.3148720547208703 -0.3598412793621818 -0.2493434676629696 -0.2835789453128164 -0.329149722249277 -0.3090664468156982 -0.3017088064031664 -0.2794850443910857 -0.2858641125897227 -0.3100640679103627 -0.312762650552794 -0.2947726849829344 -0.3031541971635116 -0.3076128914151759 
0.2175844501123465 -0.06988995675817354 0.5221417449949691 0.3169195708144102 0.3034431561881967 0.5242855459817292 0.5898098093193725 0.6583498479171604 0.5065661326383052 0.4188375313772869 0.4870303210402488 0.485961757377478 0.5307994008361755 0.5012475772639851 0.4018336762703843 0.5181136006487237 0.5056440673213478 0.5235347671676892 0.4875106388377979 0.4979545123145983 0.5134143241922324 0.5079300350685709 0.5087573334042922 0.503617204303284 0.5001173000988117 0.4861761199604443 0.4782778582975439 
-0.1339669284722016 -0.453953499591581 -0.009502301194460529 -0.0464827140944462 0.08659564322262044 -0.1448210888663919 -0.07199133159503016 0.1450722153192607 -0.07817605954290517 -0.1064575073888053 -0.07818398356344471 -0.06124147060021588 -0.04482063817145038 -0.1115840531647711 -0.1340680079230208 -0.1321322786721404 -0.06925521041813387 -0.0630195678186069 -0.08309218192573903 -0.1200100419908759 -0.1081453920987951 -0.08965647215361919 -0.09399279029973563 -0.06186672924048379 -0.08948186746620448 -0.0915340976323062 -0.112489517869973 
-0.08513650782251075 0.001657815059646309 0.2472888227494651 -0.1117923102087423 -0.0443444690680344 -0.002406276032936288 0.05896069251532021 -0.002801627518559331 -0.04232275059168968 -0.0564360007272825 -0.007588325525779782 -0.03046273668681351 0.04806403700440353 -0.03466523494206353 0.005973540826555028 0.03534010813757598 -0.03067519816885914 -0.04775718210633467 -0.01880559468781545 0.004885736565714556 -0.01838131782658338 -0.001191005793694034 -0.01269834908761285 -0.01317446793796812 -0.02365223758354757 0.007177172451399737 -0.01128257333594725 
-0.7406746713911292 -0.5025193800332088 -0.7034898367736213 0.4782313111052662 -0.3993639607384841 -0.748532279923742 -0.5491044672679968 -0.8974535077273291 -0.6381716506678415 -0.6440616188987834 -0.6907123696682044 -0.6795829832376061 -0.6422746964627186 -0.6529802587156496 -0.6860625273984222 -0.68522887088365 -0.6675785510188387 -0.6808954598659058 -0.6894498216050926 -0.7237398922404346 -0.6530884839818997 -0.6708522446654756 -0.69280499612391 -0.6678837119602599 -0.6561561899828692 -0.6728580745754642 -0.6698026778582198 
-0.1400128133351562 -0.4287768422705455 -0.3182374654897672 0.2076157973209774 0.4507691727027301 -0.1294567885335353 -0.2020143567705543 0.08684125229153558 -0.1205974554824738 -0.1153448523866754 -0.100806029825283 -0.08765713136110953 -0.08333530019588252 -0.0919143088090799 -0.1040962839914552 -0.05436671306737317 -0.07058952482144357 -0.1086763359634166 -0.09145799055920072 -0.08570624784239371 -0.09404517519793142 -0.1090055101355098 -0.07172024165221262 -0.1211243630603257 -0.1019455773713868 -0.07778471423591826 -0.07012021431675823 
-0.3355499608200624 0.1885872925365883 -0.1849359657193892 -0.1561049839147303 -0.3335267877311943 -0.2564511332005117 -0.333944532956405 0.04045652641474416 -0.2757937144958824 -0.2771313066243037 -0.2687807564127503 -0.2510809941211806 -0.2569290226840067 -0.31495010098125 -0.2843771119880398 -0.2955046314069822 -0.2402762872570057 -0.2910321757066656 -0.251161916934275 -0.2768179704924075 -0.2821811354884546 -0.2812121672944928 -0.2736829032631674 -0.2410396286339893 -0.2596222791931239 -0.2677905742181677 -0.2676138795711518 
-0.2485628595047452 1.734342088517641 -0.09502754341141069 -0.274341098442507 -0.7315769245805143 -0.2181429213600854 -0.1826381729308567 -0.5028031951800904 -0.1058971151437836 -0.2412003887370512 -0.1494132897684336 -0.1393804101972706 -0.1527183353953053 -0.1767913903518512 -0.2168293605335065 -0.1914589038461049 -0.1898320031588683 -0.1648405754618906 -0.1409897086140745 -0.1713701446040598 -0.1634252534837844 -0.1278516341271891 -0.1514248540557349 -0.1620045824794654 -0.130823492920076 -0.1289489791148837 -0.1570363432417833 
-1.383343173412746 1.138176451992564 -1.424211814099465 -1.498443170194184 -0.4739807430052779 -1.305037513650817 -1.215825945334242 -1.342141306471218 -1.117097004513549 -1.228354739375137 -1.25883234688811 -1.271597250633129 -1.24495983054283 -1.228080489820088 -1.283571200770811 -1.209891398618248 -1.258170642570026 -1.218703216140688 -1.248975520461983 -1.238258118244581 -1.239157766633014 -1.251905432964251 -1.261659747738365 -1.249490162337091 -1.240156707838028 -1.25080576199475 -1.256081164323923 
-0.9859021641066279 0.308790639208562 -1.274939321804547 0.1910655629889727 -0.6009253549573059 -0.9917257135104566 -1.014540246907377 -1.120755734396081 -0.9849747098902253 -0.8868291687949202 -0.9211820947079754 -0.9559259106204164 -0.9083742855914957 -0.9208631979069855 -0.9307562917405006 -0.9155703093354896 -0.8837873623208989 -0.9342016589581047 -0.911961296882961 -0.9329305232548069 -0.9414405883865721 -0.9099658587494889 -0.9189304238758986 -0.9293381854165305 -0.9216238479481025 -0.93997942152533 -0.9077355919073786 
-0.1919402351815175 -0.3837000429969637 -0.1103116786077389 0.8346084327145755 -0.1863209450099116 -0.1749371099016585 -0.1375567164275774 -0.3673207952216611 -0.1566348819496746 -0.1761720093993651 -0.1662279822083971 -0.1456290379125172 -0.1203750062356552 -0.1669637959554252 -0.1690124552220734 -0.1175214274481054 -0.1834517703625873 -0.1747946026229932 -0.1541177441253941 -0.1471473886441592 -0.1346489370351641 -0.1372615240272861 -0.1620307604822834 -0.151088684396876 -0.1527745714555825 -0.1432980684384515 -0.1608136771167583 
1.055281958012444 -1.270284687279699 0.9289381797972174 1.492799806839453 1.21505636287373 1.088604039220237 1.093738510542207 1.215413213897561 1.114026152650363 1.076692278980859 1.118658344230267 1.101496743857846 1.173782300490777 1.083908520109096 1.091193482066636 1.10558728234966 1.135707823435754 1.10461328817031 1.114630283439584 1.134828645995571 1.130224278207034 1.11398319734961 1.122292991255033 1.107616106893604 1.132339403408367 1.126419200260365 1.133154920430194 
-0.3257478310745341 0.3678814958576024 -0.3972659572268344 -0.6120099580281492 -0.290147220541875 -0.5557986893103052 -0.4067218589348227 -0.3943073743731766 -0.4665948230288197 -0.3854267794621769 -0.4344981091017007 -0.4948106327815079 -0.3921113704474031 -0.4878416557636146 -0.4546059707177409 -0.4830282338070838 -0.4978500177581601 -0.4580403071278605 -0.4650946713463244 -0.4343116473624735 -0.4622181148097172 -0.4622474488053719 -0.4622523861782791 -0.4363137192031574 -0.4325840197437523 -0.4470749396028934 -0.4470170985744716 
-1.071774218755124 1.395455686785756 -0.800022836299201 -1.005562875412917 -0.6588403666761328 -0.7034545025991003 -0.743000616982135 -0.653818802102054 -0.8357266776312875 -0.7186229937876185 -0.7101785785558863 -0.7443854913339545 -0.7257430253794934 -0.6744675535942958 -0.7214920639364727 -0.7477465951390685 -0.7083656063402777 -0.6995660977763944 -0.7362105106181172 -0.7216179506698742 -0.7330659987914897 -0.7424746333517253 -0.7099238885686323 -0.735297470450097 -0.7248615936285924 -0.7280161243204704 -0.7252172819164254 
0.6746972875548588 0.1611144050821149 0.6648972329109344 0.4095309799122657 0.5703429308596746 0.7670329207414086 0.7459482445795671 0.1584793659337307 0.7190564006934768 0.7042934173445252 0.7169630330670064 0.7101463607535724 0.7507612087973832 0.7578146331376331 0.6562198595089929 0.6920954123196948 0.7406305856472597 0.731599195668039 0.7008042569248637 0.7099697877372312 0.7142288818145038 0.7256068620989438 0.7063344248867018 0.6923870781791936 0.7023854832118406 0.7027465889059789 0.7174333569654888 
0.9847778940967874 0.1531910992389778 1.012392688795841 0.670877456610482 0.8012037007811905 0.9775532809985086 1.074133171260254 0.8382248778409922 1.143395187365182 1.051156805058489 1.085511676879501 1.062100140480851 1.152156465897386 1.1195328513004 1.110957019946162 1.094877690232665 1.013559483226073 1.071662419098722 1.089154704694475 1.102011453212391 1.090281037592442 1.083418499879841 1.103482066975157 1.074678442331029 1.069942274066597 1.097535239506534 1.110443622444579 
1.188472727740968 0.1433392967619507 1.434747727179416 -0.08163554971810016 1.297483661166285 1.28776489917493 1.376970572028659 1.324329707887606 1.317370932799657 1.310401596566785 1.338291102752578 1.347551152060059 1.27036911589252 1.386436396631482 1.339053682442021 1.33051470105525 1.330502023843732 1.336301407704762 1.328746199933909 1.31842961134777 1.329228798183941 1.3217513745508 1.332503739898004 1.338578412599628 1.340811748024796 1.338500399136852 1.334614126276924 
0.7106483215016628 -1.302563349730417 0.1602685037197269 1.587316611778465 1.347588485203469 0.7844113685380018 0.7648655311651099 0.6909343454893181 0.7659769159822934 0.7896321618176072 0.7770984950815283 0.7504092447320804 0.767213479126544 0.7616777359122864 0.7894496366567635 0.8371148961599453 0.8070718529757689 0.7813734724819107 0.7719439783678538 0.782871321875778 0.8011016513232392 0.8003341832796244 0.7873663654176648 0.772979178306604 0.7810603644952544 0.7720292482104693 0.7996447259830058 
-1.134150235239342 0.5605398314076242 -0.8968187515642383 -1.115585275564193 -1.110380476054684 -1.066887743342568 -1.12436584059994 -1.169213304351892 -1.092659755557483 -1.20731039316266 -1.156388703286568 -1.183054396586208 -1.216006722871713 -1.115137421185801 -1.179364373034084 -1.134663041158995 -1.192305022508851 -1.147659359933088 -1.145986393556627 -1.170768137409076 -1.143473489921125 -1.157372316709333 -1.152164894314283 -1.144544488393865 -1.186410710764897 -1.161065275609398 -1.180028254674143 
-0.3342123318512029 0.1420846581779086 -0.3441660728338736 -0.5056278615100022 0.5322561604621405 -0.3615205241555033 -0.3296773262451616 -0.5810675365645337 -0.2674645017437587 -0.282127977707826 -0.2747363208552233 -0.3004309791712896 -0.3347064963433271 -0.2706937074576058 -0.2778928594602132 -0.3226096551506993 -0.2301294025827242 -0.2653294205245979 -0.2669700482646886 -0.2667831379122912 -0.283840249269753 -0.2698742212774243 -0.2729133002061272 -0.2848286868334697 -0.2732124345801867 -0.2629234964450006 -0.3046239652155919 
0.1232969136321306 0.2331944692661229 0.09739957126568388 -0.17274553083256 -0.6017428205666959 -0.1765405675821676 -0.1906682721842859 0.2606152849911632 -0.02086671028986842 -0.06584395301699592 -0.08938065358787198 -0.07849537963338107 -0.1060218523277674 -0.05628436607770607 -0.07271883338469447 -0.06744668803752345 -0.1061633529591924 -0.06528824830080397 -0.07815418678152254 -0.06555741946233838 -0.05889047480793397 -0.06627964668101409 -0.063513758902438 -0.07224949533425661 -0.09086322605199994 -0.05514518446939544 -0.06412428783116632 
-0.8039416724208144 1.346705688547709 -1.148199749173158 -0.8110285643586754 -1.028150714672614 -0.7985179752218157 -0.876933788073928 -0.7460535345820056 -0.8310263265827046 -0.8031724605909906 -0.8127875101432993 -0.861406043972381 -0.8163582747132353 -0.798167459430279 -0.8739349301756303 -0.8544967324047694 -0.8109967556353818 -0.7969332826436971 -0.8096767639474676 -0.8420456686279193 -0.8212099126596303 -0.8432239147707558 -0.8372346408394246 -0.8532499038532275 -0.8426674510434943 -0.8146507488101256 -0.8146439861676289 
1.65753835995969 -0.7976106800912852 1.483626112694111 0.9167399215330396 1.466470083189525 1.458565473689198 1.349705825015745 1.30385006757591 1.422157626180615 1.461313223578855 1.473985206032148 1.512959906454034 1.525702383090917 1.474631992395813 1.370518066688498 1.449891729295806 1.447604062965671 1.446679780759261 1.438491294135095 1.462903698688412 1.453540456511466 1.474001337226368 1.444815977547997 1.431315049817341 1.465041892542037 1.459806046803762 1.446270104400738 
-0.7644262207703294 0.5420704384359678 -0.9025028033570163 -0.1693943156049731 -1.018022007939218 -0.8489984503715429 -0.8594270100091128 -0.8314560489160462 -0.8541974066421407 -0.8708136744468921 -0.8392549122472094 -0.802849084925814 -0.8236907651126592 -0.850495964899067 -0.8865815808721321 -0.7905929472138293 -0.8003348413905409 -0.8128130736690045 -0.8295718660549672 -0.8352004081244848 -0.804968421883433 -0.8048985932171316 -0.8390016109515028 -0.8029011943562894 -0.8110125650129534 -0.8180443533559372 -0.82903039222482 
0.8070646151748516 0.4385436736002474 0.8712279323252496 0.2980457956767076 0.8909123548143458 1.037029231275424 0.830316083912448 0.6480693058722296 0.9967858072150966 0.8985482016514801 0.9459378723218713 0.9712774850423272 0.948702476159176 0.9332048012393259 0.9634950841065367 0.9120884791593911 0.9363457729061855 0.943176660260917 0.9589031074266593 0.9908175959933159 0.9690144388287905 0.9748328362704353 0.9576254624694995 0.9512785952482348 0.9532300987677358 0.9789844131506155 0.9729412970417203 
-1.411116493785675 0.2633181432522323 -1.363189418441024 -1.684529327602351 -0.9499098712131235 -1.339839536617724 -1.280309319258332 -1.239743997145371 -1.518459623497825 -1.424946952379667 -1.499452365397362 -1.50042130251264 -1.497816810153315 -1.494706374415954 -1.401932933308216 -1.510678385852072 -1.502995538081321 -1.476900720114929 -1.478053239472298 -1.494154097488585 -1.504225491507302 -1.474573089600215 -1.48681197967392 -1.466663664449591 -1.492108307232736 -1.493669501059163 -1.469638569212235 
-1.385934238701611 0.1995839350115203 -1.52304989950021 -0.3552825101116581 -1.032101791884607 -1.474893579547689 -1.406051343660177 -1.598917709198894 -1.402070809867834 -1.452534699654355 -1.399108113586187 -1.409274363690515 -1.371369748706743 -1.401613846184206 -1.4170559932383 -1.430250385133883 -1.437491009735111 -1.410535624141036 -1.433666661054429 -1.399860537860661 -1.416983477833949 -1.401952366689714 -1.396716774142585 -1.411187604090269 -1.431900117955044 -1.417796002312707 -1.428417186088749 
0.2152095768526429 -1.40416840340116 0.4548004799128382 1.824993939769823 -0.2113612213043126 0.3710011198778458 0.3912182739414636 0.3962668236969424 0.441462522177613 0.3577697256523482 0.3424643394755471 0.407277474466067 0.3773093375116647 0.3884703101784464 0.3272793769076672 0.4067779691440081 0.3707066926095372 0.3530366658124864 0.3490649577681922 0.3589972679475726 0.3573645868542165 0.3419521267776744 0.3685671780806297 0.372584842947554 0.3403120300413177 0.3684761518660151 0.3558013424720639 
-1.145377663382765 0.06824861341942527 -1.15962653434875 -0.3122157834874267 -1.371558906564464 -1.227169110433367 -1.30690041471006 -1.236801399491916 -1.304222530926261 -1.3276434580202 -1.250401761991619 -1.291211139902819 -1.258101763631828 -1.257465192437549 -1.184728403780546 -1.257713780639834 -1.243275717055266 -1.27104267538951 -1.250092521456697 -1.240675931837456 -1.26184644882186 -1.251425056190453 -1.266924167795728 -1.272140280074993 -1.2591311979681 -1.276989436937009 -1.260882298406861 
-0.6312465021638379 -0.2393773634455502 -0.8191133645754165 -0.3595006858474223 -0.4920475937705811 -0.6766480813545483 -0.5668084094936031 -0.3376773237020682 -0.68585777740236 -0.7601032766435981 -0.6856279887149128 -0.7155995344033715 -0.68857699751987 -0.6830989469600297 -0.6484238193199813 -0.6842643120245534 -0.7531096962873938 -0.7016739617470932 -0.6791737506373533 -0.6752480552667557 -0.6751426373535783 -0.6877422237814035 -0.703827189367081 -0.7134182068571927 -0.7045181264642145 -0.6933229252338191 -0.6763703939316021 
0.7447549465055981 -0.5600704837992224 0.3933722030126973 1.109654949849412 1.175738809492345 0.7229214562234669 0.717113397265237 0.3374394662584632 0.806789811266603 0.75834982446899 0.7759591676886953 0.7562792796422522 0.769845498509432 0.8088674439307401 0.7503976217328844 0.7248611623971327 0.7459280588327442 0.7929240061206232 0.7528671584123624 0.7679442207840455 0.7733525513638123 0.7805820222027819 0.7745523660197831 0.7401485248955758 0.7534094747586347 0.7582696867032004 0.7791740290343984 
-0.1549312570077695 -0.08408846172470029 -0.07325727992647199 0.0706413862316834 0.01420009505697461 -0.01504317046571536 -0.1469610867160251 -0.09332245807611148 -0.09303763309853372 -0.1026409335871725 -0.09693579850586563 -0.1051474676182166 -0.1147039192427382 -0.08173313079745134 -0.01998188293912335 -0.07189929432213857 -0.1056321903458583 -0.1187598697736349 -0.07649648574912833 -0.1035015888012114 -0.09774146028417208 -0.102922711667065 -0.1025988257396187 -0.08968584522757843 -0.09998701630823711 -0.08201845813308611 -0.0789473799468106 
0.2917022400000213 -0.6141279913792711 0.1799477995286276 1.199903518565161 -0.1979644151742445 0.1639082668857792 0.07354964444381257 0.1325169546201027 0.2570679508970302 0.2139633144871425 0.2044422647015161 0.1575757905984145 0.2595948187288485 0.19582550781061 0.1482502284479299 0.2420660699450199 0.2651220577692774 0.2388921628428402 0.2069790548476455 0.1741922475228873 0.1965900460024094 0.2070332489251044 0.1923905963505643 0.2076484650836181 0.2174963019724024 0.1959105404869809 0.2073598749008853 
-0.3346408947799447 -1.555073856076522 -0.09264365226569589 0.7386592337384109 0.3683971870954215 -0.2776890011391459 -0.126659231855435 -0.1931262536231503 -0.3484991790725667 -0.2695312932995935 -0.2434490898317407 -0.2595613468429877 -0.2496084006134582 -0.2544416607489504 -0.291816044998061 -0.2582620304091774 -0.2112451722436581 -0.2254204347622225 -0.2516942163733262 -0.2200953585271021 -0.2658505613912339 -0.2688192907521522 -0.2484279377666024 -0.2280699027413581 -0.2595768127053349 -0.234329048089971 -0.2324682489687693 
-0.07367449843392453 -0.08499268005040185 -0.03379467323632219 -0.4532412044447362 0.6821842243501318 -0.09799179644794595 -0.1235069445099867 -0.1581107731633984 0.07813465102209963 -0.09026250975088855 -0.07938445078028443 -0.08570120565695777 -0.0478685902454582 -0.1015061216345153 -0.1533856426221834 -0.09995790964704808 -0.08492818602049476 -0.1122751677020799 -0.08897472025476479 -0.10107391034915 -0.09295617566050433 -0.07714841128350786 -0.07540349814530198 -0.09433937641567522 -0.06763244964740531 -0.06886677945758654 -0.09696299054673682 
0.9861750749407009 0.111276123387804 0.9813446121802994 0.2746821301599833 0.5150022331264615 1.03488848963762 0.8709846362193968 1.226744380692693 0.9150552929517279 0.9654923419350937 1.008640004624557 0.9455537180238605 1.103863493319447 0.9991237880702492 0.957604631775514 0.99186200377683 0.962428375091183 1.02841051777689 0.9752160062403371 0.9916210322209531 0.9963917427716158 0.9949201808077992 0.9930531632607749 1.005167033705666 0.9750551496946878 0.9910377261382547 0.9989433365750098 
